<?xml version="1.0"?>
<opencv_storage>
<my_svm type_id="opencv-ml-svm">
  <svm_type>C_SVC</svm_type>
  <kernel><type>LINEAR</type></kernel>
  <C>1.</C>
  <term_criteria><epsilon>2.2204460492503131e-016</epsilon>
    <iterations>1000</iterations></term_criteria>
  <var_all>4752</var_all>
  <var_count>4752</var_count>
  <class_count>2</class_count>
  <class_labels type_id="opencv-matrix">
    <rows>1</rows>
    <cols>2</cols>
    <dt>i</dt>
    <data>
      0 1</data></class_labels>
  <sv_total>6</sv_total>
  <support_vectors>
    <_>
      16. 19. 1. 0. 2. 1. 30. 69. 52. 67. 70. 67. 72. 65. 52. 50. 66.
      72. 68. 67. 49. 50. 52. 52. 68. 67. 89. 83. 67. 70. 67. 68. 85.
      72. 64. 74. 67. 66. 84. 70. 66. 74. 46. 52. 52. 69. 53. 65. 51.
      53. 48. 53. 66. 67. 70. 86. 68. 67. 69. 67. 69. 72. 68. 66. 50.
      70. 50. 54. 49. 35. 52. 32. 52. 49. 52. 50. 31. 53. 51. 50. 51.
      51. 53. 52. 47. 50. 52. 32. 52. 53. 30. 54. 35. 49. 50. 52. 52.
      34. 48. 36. 34. 52. 48. 35. 34. 33. 32. 54. 33. 33. 39. 30. 33.
      32. 54. 55. 48. 49. 52. 50. 34. 52. 50. 52. 50. 32. 50. 34. 32.
      36. 34. 31. 19. 36. 13. 18. 0. 0. 2. 15. 50. 72. 252. 255. 19. 15.
      1. 2. 2. 14. 55. 47. 63. 71. 69. 65. 69. 69. 66. 68. 57. 61. 70.
      51. 70. 53. 67. 66. 69. 67. 81. 75. 65. 69. 68. 68. 70. 79. 73.
      66. 63. 75. 84. 64. 71. 62. 57. 66. 50. 66. 66. 57. 50. 51. 50.
      54. 65. 67. 70. 81. 70. 67. 67. 67. 72. 77. 73. 68. 52. 71. 50.
      64. 56. 49. 31. 54. 53. 50. 55. 33. 55. 46. 50. 53. 33. 53. 47.
      69. 58. 52. 33. 50. 52. 50. 70. 50. 31. 52. 55. 47. 49. 52. 41.
      46. 51. 52. 53. 32. 53. 33. 51. 32. 52. 49. 32. 37. 36. 33. 46.
      65. 69. 55. 51. 37. 50. 51. 50. 52. 50. 38. 55. 33. 52. 34. 33.
      36. 32. 33. 34. 17. 0. 3. 0. 32. 51. 70. 253. 255. 13. 18. 0. 0.
      0. 36. 53. 70. 0. 2. 0. 0. 0. 0. 1. 3. 0. 0. 0. 0. 0. 0. 1. 0. 0.
      0. 3. 0. 0. 0. 0. 0. 0. 2. 0. 0. 2. 0. 0. 1. 2. 0. 0. 3. 0. 0. 3.
      0. 0. 0. 0. 0. 1. 0. 0. 3. 0. 0. 1. 0. 0. 3. 0. 0. 0. 0. 1. 3. 2.
      0. 83. 87. 80. 5. 0. 82. 89. 85. 87. 0. 2. 0. 0. 2. 0. 0. 87. 88.
      87. 0. 0. 1. 84. 88. 85. 1. 0. 85. 82. 71. 85. 83. 0. 85. 66. 88.
      64. 89. 88. 84. 68. 64. 85. 68. 88. 3. 0. 0. 2. 0. 85. 92. 0. 1.
      0. 0. 1. 0. 87. 85. 67. 69. 68. 67. 70. 51. 35. 1. 17. 20. 54. 63.
      255. 255. 21. 17. 14. 1. 21. 16. 64. 84. 0. 0. 1. 2. 1. 0. 0. 0.
      1. 1. 0. 5. 0. 1. 3. 0. 0. 1. 0. 0. 1. 2. 1. 0. 0. 0. 0. 0. 2. 0.
      0. 3. 0. 3. 1. 0. 3. 1. 0. 2. 1. 0. 1. 0. 0. 0. 0. 0. 0. 0. 3. 0.
      0. 0. 0. 0. 0. 0. 2. 0. 0. 3. 2. 0. 2. 1. 0. 2. 0. 3. 0. 2. 0. 0.
      4. 0. 0. 5. 0. 0. 0. 2. 0. 1. 3. 0. 4. 1. 2. 0. 1. 0. 0. 3. 2. 1.
      0. 0. 2. 0. 0. 0. 0. 3. 0. 1. 0. 0. 0. 1. 2. 1. 2. 0. 5. 0. 1. 0.
      0. 2. 0. 5. 0. 0. 1. 1. 86. 69. 34. 16. 1. 14. 35. 66. 67. 82. 48.
      52. 21. 0. 0. 19. 52. 69. 1. 0. 0. 1. 0. 0. 1. 1. 0. 1. 0. 0. 4.
      0. 0. 0. 0. 2. 0. 0. 1. 0. 0. 0. 0. 0. 2. 0. 0. 2. 1. 0. 0. 1. 0.
      0. 0. 0. 0. 0. 0. 0. 1. 1. 0. 2. 3. 1. 2. 0. 0. 0. 0. 3. 0. 0. 0.
      4. 0. 1. 1. 0. 1. 0. 0. 0. 0. 0. 4. 0. 1. 1. 0. 1. 1. 0. 0. 0. 0.
      4. 0. 1. 3. 1. 0. 2. 1. 0. 0. 5. 0. 0. 2. 0. 0. 0. 0. 0. 0. 1. 0.
      1. 0. 0. 2. 0. 1. 0. 0. 0. 0. 2. 0. 1. 0. 0. 2. 2. 0. 1. 6. 0. 0.
      0. 0. 0. 67. 52. 33. 17. 0. 3. 14. 56. 67. 83. 49. 49. 20. 0. 0.
      36. 47. 66. 1. 0. 0. 0. 0. 0. 1. 1. 0. 4. 0. 3. 0. 1. 0. 0. 0. 2.
      0. 0. 0. 0. 0. 1. 2. 0. 0. 2. 0. 0. 0. 0. 1. 0. 0. 1. 0. 1. 1. 0.
      0. 0. 0. 0. 0. 0. 0. 0. 0. 0. 1. 0. 0. 2. 0. 1. 0. 2. 0. 0. 0. 0.
      0. 1. 0. 3. 0. 1. 0. 0. 3. 0. 0. 4. 0. 1. 2. 0. 0. 0. 0. 0. 0. 0.
      1. 4. 0. 1. 2. 0. 0. 0. 0. 0. 6. 1. 1. 2. 0. 0. 0. 2. 0. 1. 0. 1.
      0. 0. 2. 0. 0. 0. 0. 0. 0. 0. 0. 0. 0. 2. 0. 0. 4. 0. 0. 7. 68.
      68. 19. 19. 0. 0. 17. 31. 69. 69. 70. 39. 12. 18. 1. 14. 54. 70.
      0. 1. 1. 1. 1. 0. 0. 0. 0. 0. 0. 2. 0. 0. 4. 0. 1. 0. 1. 0. 0. 0.
      0. 1. 0. 0. 1. 0. 0. 1. 2. 0. 0. 0. 0. 0. 2. 0. 0. 0. 0. 1. 0. 0.
      0. 1. 1. 1. 0. 0. 3. 0. 0. 0. 0. 1. 0. 0. 4. 0. 1. 1. 1. 0. 0. 0.
      2. 0. 2. 0. 2. 0. 1. 1. 0. 0. 1. 2. 3. 0. 1. 0. 3. 4. 0. 0. 6. 0.
      0. 0. 5. 0. 0. 0. 0. 1. 0. 4. 0. 2. 0. 0. 0. 2. 0. 3. 1. 0. 0. 0.
      4. 0. 3. 0. 2. 1. 0. 0. 2. 0. 0. 3. 0. 1. 0. 0. 87. 48. 13. 2. 0.
      0. 19. 50. 66. 85. 51. 30. 19. 0. 2. 16. 50. 68. 0. 2. 0. 0. 0. 1.
      1. 1. 0. 4. 0. 2. 0. 2. 0. 1. 0. 0. 1. 0. 0. 1. 0. 0. 0. 1. 0. 0.
      2. 0. 0. 2. 2. 0. 2. 0. 1. 0. 2. 0. 0. 0. 0. 0. 0. 0. 0. 0. 2. 0.
      0. 0. 1. 3. 0. 0. 0. 2. 0. 2. 1. 0. 0. 0. 1. 0. 0. 1. 0. 0. 0. 3.
      0. 1. 0. 3. 0. 0. 0. 1. 1. 0. 0. 0. 3. 0. 0. 2. 1. 0. 1. 0. 0. 2.
      0. 0. 4. 0. 0. 2. 0. 1. 0. 0. 3. 0. 4. 0. 2. 0. 0. 0. 0. 2. 1. 0.
      2. 0. 0. 0. 1. 0. 0. 2. 0. 3. 65. 53. 35. 0. 0. 2. 14. 35. 69. 68.
      51. 32. 16. 1. 0. 37. 52. 67. 0. 3. 1. 0. 0. 0. 1. 0. 0. 0. 0. 0.
      0. 0. 0. 0. 0. 0. 0. 0. 0. 0. 0. 0. 0. 0. 0. 0. 0. 0. 0. 0. 0. 0.
      0. 0. 0. 0. 0. 0. 0. 0. 0. 0. 0. 0. 0. 0. 0. 0. 0. 0. 0. 0. 0. 0.
      0. 0. 0. 0. 0. 0. 0. 0. 0. 0. 0. 0. 0. 0. 0. 0. 0. 0. 0. 0. 0. 0.
      0. 0. 0. 0. 0. 0. 0. 0. 0. 0. 0. 0. 0. 0. 0. 0. 0. 0. 0. 0. 0. 0.
      0. 0. 0. 0. 0. 0. 0. 0. 0. 0. 0. 0. 0. 0. 0. 0. 0. 0. 0. 0. 0. 0.
      2. 0. 0. 1. 86. 50. 35. 16. 2. 0. 18. 33. 64. 87. 51. 33. 0. 2.
      19. 16. 49. 71. 69. 0. 0. 0. 5. 0. 3. 0. 0. 0. 0. 0. 0. 0. 0. 0.
      0. 0. 0. 0. 0. 0. 0. 0. 0. 0. 0. 0. 0. 0. 0. 0. 0. 0. 0. 0. 0. 0.
      0. 0. 0. 0. 0. 0. 0. 0. 0. 0. 0. 0. 0. 0. 0. 0. 0. 0. 0. 0. 0. 0.
      0. 0. 0. 0. 0. 0. 0. 0. 0. 0. 0. 0. 0. 0. 0. 0. 0. 0. 0. 0. 0. 0.
      0. 0. 0. 0. 0. 0. 0. 0. 0. 0. 0. 0. 0. 0. 0. 0. 0. 0. 0. 0. 0. 0.
      0. 0. 0. 0. 0. 0. 0. 0. 0. 0. 0. 0. 0. 0. 0. 0. 0. 2. 237. 0. 6.
      0. 68. 71. 32. 19. 0. 12. 18. 51. 70. 85. 36. 32. 17. 0. 0. 20.
      28. 68. 86. 0. 0. 2. 0. 1. 0. 0. 0. 0. 0. 0. 0. 0. 0. 0. 0. 0. 0.
      0. 0. 0. 0. 0. 0. 0. 0. 0. 0. 0. 0. 0. 0. 0. 0. 0. 0. 0. 0. 0. 0.
      0. 0. 0. 0. 0. 0. 0. 0. 0. 0. 0. 0. 0. 0. 0. 0. 0. 0. 0. 0. 0. 0.
      0. 0. 0. 0. 0. 0. 0. 0. 0. 0. 0. 0. 0. 0. 0. 0. 0. 0. 0. 0. 0. 0.
      0. 0. 0. 0. 0. 0. 0. 0. 0. 0. 0. 0. 0. 0. 0. 0. 0. 0. 0. 0. 0. 0.
      0. 0. 0. 0. 0. 0. 0. 0. 0. 0. 0. 0. 0. 0. 2. 0. 0. 0. 0. 2. 65.
      51. 34. 1. 4. 15. 56. 64. 254. 65. 37. 22. 0. 1. 16. 37. 50. 69.
      0. 5. 0. 0. 4. 0. 2. 0. 0. 0. 0. 0. 0. 0. 0. 0. 0. 0. 0. 0. 0. 0.
      0. 0. 0. 0. 0. 0. 0. 0. 0. 0. 0. 0. 0. 0. 0. 0. 0. 0. 0. 0. 0. 0.
      0. 0. 0. 0. 0. 0. 0. 0. 0. 0. 0. 0. 0. 0. 0. 0. 0. 0. 0. 0. 0. 0.
      0. 0. 0. 0. 0. 0. 0. 0. 0. 0. 0. 0. 0. 0. 0. 0. 0. 0. 0. 0. 0. 0.
      0. 0. 0. 0. 0. 0. 0. 0. 0. 0. 0. 0. 0. 0. 0. 0. 0. 0. 0. 0. 0. 0.
      0. 0. 0. 0. 0. 0. 0. 0. 0. 240. 2. 0. 2. 2. 0. 0. 72. 49. 18. 1.
      16. 16. 49. 88. 255. 52. 48. 18. 0. 4. 0. 31. 69. 86. 1. 0. 5. 5.
      234. 0. 0. 0. 0. 0. 0. 0. 0. 0. 0. 0. 0. 0. 0. 0. 0. 0. 0. 0. 0.
      0. 0. 0. 0. 0. 0. 0. 0. 0. 0. 0. 0. 0. 0. 0. 0. 0. 0. 0. 0. 0. 0.
      0. 0. 0. 0. 0. 0. 0. 0. 0. 0. 0. 0. 0. 0. 0. 0. 0. 0. 0. 0. 0. 0.
      0. 0. 0. 0. 0. 0. 0. 0. 0. 0. 0. 0. 0. 0. 0. 0. 0. 0. 0. 0. 0. 0.
      0. 0. 0. 0. 0. 0. 0. 0. 0. 0. 0. 0. 0. 0. 0. 0. 0. 0. 0. 0. 0. 0.
      0. 0. 0. 0. 0. 0. 2. 0. 0. 0. 0. 2. 70. 66. 55. 17. 0. 1. 18. 34.
      66. 68. 50. 33. 19. 3. 0. 19. 38. 66. 67. 2. 1. 0. 0. 0. 2. 2. 0.
      0. 0. 0. 0. 0. 0. 0. 0. 0. 0. 0. 0. 0. 0. 0. 0. 0. 0. 0. 0. 0. 0.
      0. 0. 0. 0. 0. 0. 0. 0. 0. 0. 0. 0. 0. 0. 0. 0. 0. 0. 0. 0. 0. 0.
      0. 0. 0. 0. 0. 0. 0. 0. 0. 0. 0. 0. 0. 0. 0. 0. 0. 0. 0. 0. 0. 0.
      0. 0. 0. 0. 0. 0. 0. 0. 0. 0. 0. 0. 0. 0. 0. 0. 0. 0. 0. 0. 0. 0.
      0. 0. 0. 0. 0. 0. 0. 0. 0. 0. 0. 0. 0. 0. 0. 0. 0. 0. 0. 0. 0. 0.
      0. 0. 1. 3. 0. 3. 0. 89. 50. 31. 16. 3. 0. 15. 35. 68. 69. 52. 34.
      15. 0. 5. 11. 30. 53. 86. 0. 1. 1. 1. 0. 0. 0. 0. 0. 0. 0. 0. 0.
      0. 0. 0. 0. 0. 0. 0. 0. 0. 0. 0. 0. 0. 0. 0. 0. 0. 0. 0. 0. 0. 0.
      0. 0. 0. 0. 0. 0. 0. 0. 0. 0. 0. 0. 0. 0. 0. 0. 0. 0. 0. 0. 0. 0.
      0. 0. 0. 0. 0. 0. 0. 0. 0. 0. 0. 0. 0. 0. 0. 0. 0. 0. 0. 0. 0. 0.
      0. 0. 0. 0. 0. 0. 0. 0. 0. 0. 0. 0. 0. 0. 0. 0. 0. 0. 0. 0. 0. 0.
      0. 0. 0. 0. 0. 0. 0. 0. 0. 0. 0. 0. 0. 0. 0. 0. 0. 0. 3. 0. 1. 0.
      0. 5. 67. 68. 37. 12. 0. 16. 2. 35. 69. 65. 50. 51. 18. 0. 2. 20.
      34. 68. 84. 1. 1. 0. 2. 0. 3. 239. 0. 0. 0. 0. 0. 0. 0. 0. 0. 0.
      0. 0. 0. 0. 0. 0. 0. 0. 0. 0. 0. 0. 0. 0. 0. 0. 0. 0. 0. 0. 0. 0.
      0. 0. 0. 0. 0. 0. 0. 0. 0. 0. 0. 0. 0. 0. 0. 0. 0. 0. 0. 0. 0. 0.
      0. 0. 0. 0. 0. 0. 0. 0. 0. 0. 0. 0. 0. 0. 0. 0. 0. 0. 0. 0. 0. 0.
      0. 0. 0. 0. 0. 0. 0. 0. 0. 0. 0. 0. 0. 0. 0. 0. 0. 0. 0. 0. 0. 0.
      0. 0. 0. 0. 0. 0. 0. 0. 0. 0. 0. 0. 0. 0. 0. 240. 0. 0. 3. 0. 66.
      68. 34. 20. 1. 0. 2. 32. 49. 70. 67. 69. 35. 18. 1. 0. 16. 53. 69.
      0. 0. 1. 0. 0. 0. 2. 0. 0. 0. 0. 0. 0. 0. 0. 0. 0. 0. 0. 0. 0. 0.
      0. 0. 0. 0. 0. 0. 0. 0. 0. 0. 0. 0. 0. 0. 0. 0. 0. 0. 0. 0. 0. 0.
      0. 0. 0. 0. 0. 0. 0. 0. 0. 0. 0. 0. 0. 0. 0. 0. 0. 0. 0. 0. 0. 0.
      0. 0. 0. 0. 0. 0. 0. 0. 0. 0. 0. 0. 0. 0. 0. 0. 0. 0. 0. 0. 0. 0.
      0. 0. 0. 0. 0. 0. 0. 0. 0. 0. 0. 0. 0. 0. 0. 0. 0. 0. 0. 0. 0. 0.
      0. 0. 0. 0. 0. 0. 0. 0. 0. 1. 0. 0. 0. 0. 0. 86. 68. 32. 18. 0. 0.
      0. 35. 68. 67. 69. 69. 28. 0. 2. 17. 38. 66. 67. 0. 1. 2. 2. 2. 0.
      0. 0. 0. 0. 0. 0. 0. 0. 0. 0. 0. 0. 0. 0. 0. 0. 0. 0. 0. 0. 0. 0.
      0. 0. 0. 0. 0. 0. 0. 0. 0. 0. 0. 0. 0. 0. 0. 0. 0. 0. 0. 0. 0. 0.
      0. 0. 0. 0. 0. 0. 0. 0. 0. 0. 0. 0. 0. 0. 0. 0. 0. 0. 0. 0. 0. 0.
      0. 0. 0. 0. 0. 0. 0. 0. 0. 0. 0. 0. 0. 0. 0. 0. 0. 0. 0. 0. 0. 0.
      0. 0. 0. 0. 0. 0. 0. 0. 0. 0. 0. 0. 0. 0. 0. 0. 0. 0. 0. 0. 0. 0.
      0. 0. 0. 0. 2. 0. 4. 0. 0. 69. 68. 54. 12. 1. 3. 0. 17. 55. 66.
      86. 67. 38. 21. 0. 3. 14. 34. 65. 74. 0. 1. 234. 3. 242. 0. 0. 0.
      0. 0. 0. 0. 0. 0. 0. 0. 0. 0. 0. 0. 0. 0. 0. 0. 0. 0. 0. 0. 0. 0.
      0. 0. 0. 0. 0. 0. 0. 0. 0. 0. 0. 0. 0. 0. 0. 0. 0. 0. 0. 0. 0. 0.
      0. 0. 0. 0. 0. 0. 0. 0. 0. 0. 0. 0. 0. 0. 0. 0. 0. 0. 0. 0. 0. 0.
      0. 0. 0. 0. 0. 0. 0. 0. 0. 0. 0. 0. 0. 0. 0. 0. 0. 0. 0. 0. 0. 0.
      0. 0. 0. 0. 0. 0. 0. 0. 0. 0. 0. 0. 0. 0. 0. 0. 0. 0. 0. 0. 0. 0.
      0. 1. 2. 0. 1. 4. 84. 69. 46. 37. 0. 17. 1. 31. 46. 72. 68. 64.
      36. 15. 2. 19. 15. 34. 72. 63. 0. 1. 2. 0. 0. 0. 0. 0. 0. 0. 0. 0.
      0. 0. 0. 0. 0. 0. 0. 0. 0. 0. 0. 0. 0. 0. 0. 0. 0. 0. 0. 0. 0. 0.
      0. 0. 0. 0. 0. 0. 0. 0. 0. 0. 0. 0. 0. 0. 0. 0. 0. 0. 0. 0. 0. 0.
      0. 0. 0. 0. 0. 0. 0. 0. 0. 0. 0. 0. 0. 0. 0. 0. 0. 0. 0. 0. 0. 0.
      0. 0. 0. 0. 0. 0. 0. 0. 0. 0. 0. 0. 0. 0. 0. 0. 0. 0. 0. 0. 0. 0.
      0. 0. 0. 0. 0. 0. 0. 0. 0. 0. 0. 0. 0. 0. 0. 0. 0. 0. 240. 0. 2.
      1. 0. 0. 84. 69. 54. 34. 4. 0. 0. 20. 53. 48. 68. 55. 33. 0. 0. 0.
      0. 19. 49. 72. 1. 0. 0. 1. 0. 2. 0. 0. 0. 0. 0. 0. 0. 0. 0. 0. 0.
      0. 0. 0. 0. 0. 0. 0. 0. 0. 0. 0. 0. 0. 0. 0. 0. 0. 0. 0. 0. 0. 0.
      0. 0. 0. 0. 0. 0. 0. 0. 0. 0. 0. 0. 0. 0. 0. 0. 0. 0. 0. 0. 0. 0.
      0. 0. 0. 0. 0. 0. 0. 0. 0. 0. 0. 0. 0. 0. 0. 0. 0. 0. 0. 0. 0. 0.
      0. 0. 0. 0. 0. 0. 0. 0. 0. 0. 0. 0. 0. 0. 0. 0. 0. 0. 0. 0. 0. 0.
      0. 0. 0. 0. 0. 0. 0. 0. 0. 0. 0. 0. 0. 0. 1. 0. 0. 0. 2. 0. 85.
      51. 30. 15. 4. 0. 18. 48. 70. 65. 52. 36. 3. 0. 5. 17. 31. 69. 68.
      0. 2. 0. 0. 3. 0. 0. 0. 0. 0. 0. 0. 0. 0. 0. 0. 0. 0. 0. 0. 0. 0.
      0. 0. 0. 0. 0. 0. 0. 0. 0. 0. 0. 0. 0. 0. 0. 0. 0. 0. 0. 0. 0. 0.
      0. 0. 0. 0. 0. 0. 0. 0. 0. 0. 0. 0. 0. 0. 0. 0. 0. 0. 0. 0. 0. 0.
      0. 0. 0. 0. 0. 0. 0. 0. 0. 0. 0. 0. 0. 0. 0. 0. 0. 0. 0. 0. 0. 0.
      0. 0. 0. 0. 0. 0. 0. 0. 0. 0. 0. 0. 0. 0. 0. 0. 0. 0. 0. 0. 0. 0.
      0. 0. 0. 0. 0. 0. 0. 0. 0. 0. 1. 0. 1. 0. 0. 69. 51. 37. 0. 0. 18.
      13. 57. 66. 69. 48. 14. 0. 0. 0. 0. 35. 69. 68. 1. 0. 2. 1. 239.
      0. 0. 0. 0. 0. 0. 0. 0. 0. 0. 0. 0. 0. 0. 0. 0. 0. 0. 0. 0. 0. 0.
      0. 0. 0. 0. 0. 0. 0. 0. 0. 0. 0. 0. 0. 0. 0. 0. 0. 0. 0. 0. 0. 0.
      0. 0. 0. 0. 0. 0. 0. 0. 0. 0. 0. 0. 0. 0. 0. 0. 0. 0. 0. 0. 0. 0.
      0. 0. 0. 0. 0. 0. 0. 0. 0. 0. 0. 0. 0. 0. 0. 0. 0. 0. 0. 0. 0. 0.
      0. 0. 0. 0. 0. 0. 0. 0. 0. 0. 0. 0. 0. 0. 0. 0. 0. 0. 0. 0. 0. 0.
      0. 0. 0. 241. 0. 2. 4. 0. 0. 5. 65. 71. 34. 15. 0. 0. 16. 48. 54.
      68. 50. 36. 16. 0. 0. 16. 33. 67. 0. 2. 0. 1. 0. 0. 3. 0. 0. 0. 0.
      0. 0. 0. 0. 0. 0. 0. 0. 0. 0. 0. 0. 0. 0. 0. 0. 0. 0. 0. 0. 0. 0.
      0. 0. 0. 0. 0. 0. 0. 0. 0. 0. 0. 0. 0. 0. 0. 0. 0. 0. 0. 0. 0. 0.
      0. 0. 0. 0. 0. 0. 0. 0. 0. 0. 0. 0. 0. 0. 0. 0. 0. 0. 0. 0. 0. 0.
      0. 0. 0. 0. 0. 0. 0. 0. 0. 0. 0. 0. 0. 0. 0. 0. 0. 0. 0. 0. 0. 0.
      0. 0. 0. 0. 0. 0. 0. 0. 0. 0. 0. 0. 0. 0. 0. 0. 0. 0. 0. 0. 0. 0.
      0. 0. 0. 1. 0. 67. 47. 37. 0. 1. 0. 20. 51. 51. 69. 68. 52. 18.
      15. 0. 16. 35. 67. 1. 0. 2. 0. 1. 1. 0. 0. 242. 0. 0. 2. 0. 239.
      1. 0. 1. 0. 0. 2. 0. 238. 2. 0. 0. 0. 0. 5. 0. 0. 241. 0. 0. 1. 0.
      0. 239. 0. 2. 0. 0. 0. 1. 0. 0. 2. 0. 0. 2. 2. 0. 239. 1. 0. 1. 1.
      0. 0. 2. 0. 0. 2. 0. 0. 0. 241. 0. 1. 0. 1. 0. 238. 1. 0. 0. 1. 0.
      0. 240. 0. 6. 0. 2. 237. 2. 0. 1. 0. 0. 1. 239. 0. 0. 3. 0. 2. 0.
      237. 0. 1. 1. 0. 0. 0. 0. 0. 0. 1. 2. 0. 1. 1. 0. 240. 2. 0. 0. 1.
      0. 1. 237. 3. 0. 0. 1. 0. 88. 52. 16. 0. 2. 0. 18. 32. 53. 82. 68.
      51. 17. 0. 0. 18. 51. 70. 84. 0. 4. 0. 0. 4. 235. 2. 0. 2. 0. 0.
      1. 0. 2. 239. 0. 0. 239. 2. 4. 0. 0. 0. 4. 1. 1. 0. 0. 2. 0. 1. 0.
      0. 5. 0. 0. 3. 0. 1. 0. 1. 0. 0. 0. 240. 1. 2. 0. 2. 0. 3. 1. 0.
      239. 0. 2. 4. 0. 3. 1. 0. 2. 244. 0. 0. 0. 0. 2. 0. 1. 0. 1. 1. 1.
      0. 0. 3. 0. 1. 0. 0. 0. 3. 1. 0. 0. 0. 0. 2. 0. 0. 0. 0. 5. 1. 3.
      0. 4. 0. 1. 0. 0. 0. 0. 0. 241. 0. 0. 7. 0. 0. 1. 1. 0. 2. 0. 3.
      0. 0. 0. 0. 0. 0. 3. 2. 62. 52. 33. 18. 0. 3. 15. 40. 47. 85. 71.
      51. 15. 20. 1. 0. 34. 68. 66. 1. 0. 0. 2. 0. 3. 0. 0. 1. 3. 0. 2.
      0. 1. 0. 0. 5. 0. 0. 0. 0. 0. 0. 0. 1. 0. 0. 240. 0. 0. 0. 0. 2.
      1. 0. 3. 0. 240. 0. 4. 0. 0. 0. 0. 0. 1. 0. 0. 0. 3. 0. 0. 0. 0.
      1. 0. 0. 0. 1. 0. 2. 0. 0. 0. 3. 2. 0. 0. 0. 3. 2. 0. 0. 236. 0.
      0. 1. 0. 0. 2. 2. 0. 0. 3. 241. 2. 3. 0. 2. 0. 1. 6. 0. 0. 0. 0.
      6. 0. 6. 239. 0. 1. 2. 0. 0. 2. 0. 1. 0. 2. 0. 3. 0. 0. 1. 0. 0.
      0. 0. 2. 2. 235. 0. 0. 0. 90. 50. 17. 0. 4. 0. 0. 33. 53. 84. 69.
      51. 19. 12. 2. 15. 37. 68. 71. 66. 71. 66. 69. 66. 0. 70. 68. 68.
      67. 0. 63. 70. 66. 70. 82. 2. 4. 67. 68. 50. 51. 53. 49. 69. 68.
      70. 85. 68. 85. 0. 3. 234. 71. 88. 0. 0. 1. 2. 0. 0. 237. 6. 0. 2.
      0. 1. 1. 0. 0. 0. 5. 0. 3. 1. 1. 0. 242. 0. 1. 0. 1. 0. 2. 0. 0.
      0. 0. 4. 0. 0. 3. 1. 2. 2. 0. 0. 0. 2. 0. 238. 3. 72. 85. 0. 0. 0.
      0. 1. 0. 0. 0. 0. 1. 6. 3. 0. 0. 1. 0. 4. 0. 239. 0. 2. 0. 2. 0.
      3. 0. 0. 0. 2. 3. 0. 3. 1. 0. 0. 4. 0. 1. 3. 0. 0. 67. 53. 36. 1.
      0. 0. 23. 30. 35. 72. 67. 31. 19. 1. 0. 6. 29. 33. 35. 51. 31. 38.
      29. 58. 48. 34. 52. 33. 55. 33. 52. 53. 34. 51. 33. 33. 47. 49.
      53. 37. 31. 38. 33. 31. 36. 33. 50. 35. 34. 33. 49. 53. 45. 35.
      51. 34. 50. 51. 51. 36. 50. 52. 49. 54. 53. 31. 37. 51. 51. 52.
      47. 50. 32. 52. 47. 36. 51. 54. 35. 45. 52. 35. 49. 33. 55. 51.
      51. 53. 34. 51. 50. 46. 72. 49. 51. 48. 53. 51. 67. 69. 47. 51.
      35. 46. 53. 33. 54. 46. 55. 53. 50. 51. 67. 51. 46. 55. 52. 67.
      68. 51. 68. 54. 67. 70. 62. 72. 69. 48. 74. 68. 68. 53. 50. 52.
      68. 66. 53. 50. 46. 68. 72. 64. 54. 69. 69. 65. 34. 18. 1. 0. 1.
      38. 47. 79. 69. 36. 16. 0. 0. 0. 0. 16. 14. 16. 18. 18. 18. 14.
      19. 17. 18. 12. 19. 17. 14. 0. 15. 17. 16. 19. 20. 17. 14. 0. 2.
      0. 19. 5. 15. 16. 19. 13. 17. 18. 15. 39. 20. 16. 18. 34. 32. 35.
      18. 17. 20. 14. 19. 14. 16. 19. 15. 17. 36. 32. 19. 23. 33. 14.
      38. 17. 18. 14. 17. 37. 17. 15. 17. 20. 28. 36. 20. 11. 17. 17.
      31. 40. 29. 21. 37. 17. 34. 31. 39. 32. 15. 21. 15. 21. 16. 16.
      12. 38. 16. 32. 35. 37. 33. 33. 33. 36. 29. 35. 54. 31. 36. 34.
      34. 34. 50. 35. 33. 32. 33. 33. 35. 33. 33. 34. 34. 37. 34. 36.
      34. 36. 50. 38. 31. 33. 35. 38. 13. 17. 3. 18. 16. 32. 50. 69. 52.
      52. 14. 0. 0. 0. 20. 18. 17. 18. 16. 0. 18. 0. 17. 15. 20. 20. 12.
      39. 18. 16. 18. 14. 20. 14. 17. 19. 20. 16. 17. 20. 17. 12. 1. 19.
      0. 20. 16. 14. 22. 11. 16. 13. 33. 14. 37. 32. 34. 38. 12. 18. 37.
      34. 16. 3. 18. 14. 16. 35. 16. 14. 0. 18. 20. 13. 14. 0. 19. 16.
      17. 19. 18. 0. 2. 19. 13. 37. 18. 37. 18. 31. 19. 31. 15. 19. 34.
      35. 30. 18. 35. 13. 18. 18. 0. 0. 25. 12. 14. 16. 17. 14. 36. 18.
      18. 18. 33. 37. 32. 36. 17. 14. 20. 32. 20. 14. 0. 22. 17. 20. 0.
      18. 0. 17. 16. 17. 0. 15. 0. 14. 19. 15. 17. 19. 33. 34. 20. 0. 1.
      0. 0. 54. 67. 255. 86. 48. 50. 37. 33. 17. 33. 35. 50. 33. 54. 32.
      34. 35. 34. 35. 32. 50. 55. 48. 49. 56. 32. 38. 47. 54. 53. 31.
      32. 36. 33. 34. 50. 35. 51. 34. 33. 37. 52. 33. 52. 52. 52. 51.
      51. 51. 51. 51. 52. 31. 35. 54. 32. 34. 35. 30. 36. 36. 34. 34.
      36. 15. 34. 17. 30. 37. 38. 15. 34. 33. 35. 34. 17. 34. 16. 36.
      34. 36. 48. 49. 35. 33. 38. 32. 34. 55. 31. 34. 35. 33. 34. 34.
      35. 33. 37. 34. 34. 33. 37. 34. 35. 33. 34. 33. 35. 34. 31. 36.
      35. 31. 34. 17. 36. 15. 33. 20. 14. 14. 17. 15. 18. 13. 17. 19.
      16. 33. 18. 17. 19. 16. 18. 17. 37. 31. 35. 31. 18. 35. 18. 17.
      38. 48. 70. 255. 85. 67. 68. 34. 34. 50. 51. 68. 67. 85. 85. 85.
      68. 68. 68. 85. 85. 68. 68. 85. 255. 85. 85. 68. 68. 68. 255. 84.
      69. 67. 68. 68. 84. 68. 68. 68. 68. 84. 68. 85. 68. 68. 84. 255.
      255. 255. 255. 255. 255. 84. 86. 84. 85. 69. 68. 51. 50. 51. 68.
      68. 68. 34. 34. 50. 51. 69. 50. 34. 51. 51. 68. 68. 33. 34. 35.
      50. 69. 67. 68. 85. 85. 68. 68. 68. 67. 86. 67. 68. 51. 51. 68.
      68. 68. 52. 51. 34. 51. 69. 68. 51. 33. 51. 51. 68. 68. 50. 51.
      68. 68. 68. 50. 51. 34. 34. 35. 33. 17. 17. 17. 34. 35. 17. 17.
      17. 34. 17. 34. 17. 17. 17. 17. 17. 34. 50. 68. 51. 33. 34. 16.
      17. 35. 51. 51.</_>
    <_>
      2. 0. 1. 0. 0. 0. 0. 2. 2. 0. 0. 1. 0. 1. 1. 0. 1. 0. 2. 0. 0. 1.
      0. 1. 2. 0. 0. 1. 0. 1. 1. 0. 2. 0. 0. 1. 0. 1. 1. 0. 2. 0. 0. 1.
      0. 1. 1. 0. 0. 0. 0. 0. 5. 0. 3. 1. 2. 0. 0. 1. 0. 1. 1. 0. 2. 0.
      0. 1. 0. 1. 1. 0. 2. 0. 0. 1. 0. 1. 1. 0. 2. 0. 0. 1. 0. 1. 1. 0.
      1. 0. 2. 0. 0. 1. 0. 1. 2. 0. 0. 1. 0. 1. 1. 0. 2. 0. 0. 1. 0. 1.
      1. 0. 2. 0. 0. 1. 0. 1. 1. 0. 0. 0. 0. 0. 5. 0. 3. 1. 2. 0. 0. 1.
      0. 1. 1. 0. 0. 0. 0. 2. 2. 0. 33. 35. 1. 14. 13. 19. 39. 10. 39.
      10. 30. 19. 35. 13. 36. 14. 30. 19. 18. 18. 13. 18. 35. 19. 33.
      13. 30. 19. 35. 13. 36. 14. 30. 19. 30. 19. 35. 13. 36. 14. 30.
      19. 30. 19. 35. 13. 36. 14. 30. 19. 34. 17. 36. 19. 11. 16. 15.
      16. 30. 19. 35. 13. 36. 14. 30. 19. 30. 19. 35. 13. 36. 14. 30.
      19. 30. 19. 35. 13. 36. 14. 30. 19. 30. 19. 35. 13. 36. 14. 30.
      19. 18. 18. 13. 18. 35. 19. 33. 13. 30. 19. 35. 13. 36. 14. 30.
      19. 30. 19. 35. 13. 36. 14. 30. 19. 30. 19. 35. 13. 36. 14. 30.
      19. 34. 17. 36. 19. 11. 16. 15. 16. 30. 19. 35. 13. 36. 14. 30.
      19. 33. 20. 18. 13. 0. 18. 36. 50. 0. 20. 39. 48. 64. 73. 66. 73.
      70. 70. 67. 72. 66. 71. 68. 68. 48. 69. 70. 52. 67. 66. 69. 70.
      70. 70. 67. 72. 66. 71. 68. 68. 70. 70. 67. 72. 66. 71. 68. 68.
      70. 70. 67. 72. 66. 71. 68. 68. 71. 63. 69. 67. 73. 75. 69. 48.
      70. 70. 67. 72. 66. 71. 68. 68. 70. 70. 67. 72. 66. 71. 68. 68.
      70. 70. 67. 72. 66. 71. 68. 68. 70. 70. 67. 72. 66. 71. 68. 68.
      48. 69. 70. 52. 67. 66. 69. 70. 70. 70. 67. 72. 66. 71. 68. 68.
      70. 70. 67. 72. 66. 71. 68. 68. 70. 70. 67. 72. 66. 71. 68. 68.
      71. 63. 69. 67. 73. 75. 69. 48. 70. 70. 67. 72. 66. 71. 68. 68.
      67. 47. 50. 23. 16. 16. 35. 34. 0. 16. 66. 68. 87. 87. 82. 85. 84.
      82. 83. 84. 84. 85. 86. 85. 90. 66. 86. 66. 88. 85. 85. 85. 84.
      82. 83. 84. 84. 85. 86. 85. 84. 82. 83. 84. 84. 85. 86. 85. 84.
      82. 83. 84. 84. 85. 86. 85. 86. 87. 85. 85. 67. 60. 89. 68. 84.
      82. 83. 84. 84. 85. 86. 85. 84. 82. 83. 84. 84. 85. 86. 85. 84.
      82. 83. 84. 84. 85. 86. 85. 84. 82. 83. 84. 84. 85. 86. 85. 90.
      66. 86. 66. 88. 85. 85. 85. 84. 82. 83. 84. 84. 85. 86. 85. 84.
      82. 83. 84. 84. 85. 86. 85. 84. 82. 83. 84. 84. 85. 86. 85. 86.
      87. 85. 85. 67. 60. 89. 68. 84. 82. 83. 84. 84. 85. 86. 85. 88.
      87. 51. 14. 19. 0. 53. 33. 4. 18. 52. 67. 0. 0. 1. 0. 1. 1. 0. 3.
      0. 2. 0. 0. 0. 0. 0. 0. 3. 0. 0. 6. 1. 1. 0. 3. 0. 2. 0. 0. 1. 1.
      0. 3. 0. 2. 0. 0. 1. 1. 0. 3. 0. 2. 0. 0. 0. 2. 1. 0. 4. 1. 1. 0.
      1. 1. 0. 3. 0. 2. 0. 0. 1. 1. 0. 3. 0. 2. 0. 0. 1. 1. 0. 3. 0. 2.
      0. 0. 1. 1. 0. 3. 0. 2. 0. 0. 0. 0. 0. 0. 3. 0. 0. 6. 1. 1. 0. 3.
      0. 2. 0. 0. 1. 1. 0. 3. 0. 2. 0. 0. 1. 1. 0. 3. 0. 2. 0. 0. 0. 2.
      1. 0. 4. 1. 1. 0. 1. 1. 0. 3. 0. 2. 0. 0. 0. 70. 66. 34. 0. 15.
      30. 35. 0. 16. 67. 86. 0. 1. 0. 4. 1. 0. 1. 0. 0. 0. 1. 0. 0. 0.
      3. 0. 0. 0. 9. 0. 1. 0. 1. 0. 0. 0. 1. 0. 1. 0. 1. 0. 0. 0. 1. 0.
      1. 0. 1. 0. 0. 0. 1. 0. 2. 0. 2. 1. 0. 1. 0. 0. 1. 0. 1. 0. 0. 0.
      1. 0. 1. 0. 1. 0. 0. 0. 1. 0. 1. 0. 1. 0. 0. 0. 1. 0. 1. 0. 1. 0.
      0. 0. 1. 0. 0. 0. 3. 0. 0. 0. 9. 0. 1. 0. 1. 0. 0. 0. 1. 0. 1. 0.
      1. 0. 0. 0. 1. 0. 1. 0. 1. 0. 0. 0. 1. 0. 2. 0. 2. 1. 0. 1. 0. 0.
      1. 0. 1. 0. 0. 0. 1. 0. 0. 71. 64. 38. 18. 15. 41. 52. 0. 19. 53.
      67. 1. 0. 0. 0. 0. 0. 0. 0. 0. 0. 1. 0. 1. 2. 0. 0. 0. 1. 0. 4. 0.
      0. 0. 0. 0. 0. 1. 0. 0. 0. 0. 0. 0. 0. 1. 0. 0. 0. 0. 0. 0. 0. 1.
      0. 0. 3. 0. 0. 2. 0. 0. 2. 0. 0. 0. 0. 0. 0. 1. 0. 0. 0. 0. 0. 0.
      0. 1. 0. 0. 0. 0. 0. 0. 0. 1. 0. 0. 0. 0. 0. 0. 0. 1. 0. 1. 2. 0.
      0. 0. 1. 0. 4. 0. 0. 0. 0. 0. 0. 1. 0. 0. 0. 0. 0. 0. 0. 1. 0. 0.
      0. 0. 0. 0. 0. 1. 0. 0. 3. 0. 0. 2. 0. 0. 2. 0. 0. 0. 0. 0. 0. 1.
      0. 0. 83. 70. 34. 0. 20. 28. 32. 0. 19. 64. 70. 0. 1. 0. 1. 1. 0.
      1. 0. 0. 0. 1. 0. 0. 3. 0. 0. 3. 0. 0. 0. 1. 0. 1. 0. 0. 0. 1. 0.
      1. 0. 1. 0. 0. 0. 1. 0. 1. 0. 1. 0. 0. 0. 1. 0. 1. 0. 2. 1. 0. 1.
      0. 1. 1. 0. 1. 0. 0. 0. 1. 0. 1. 0. 1. 0. 0. 0. 1. 0. 1. 0. 1. 0.
      0. 0. 1. 0. 1. 0. 1. 0. 0. 0. 1. 0. 0. 3. 0. 0. 3. 0. 0. 0. 1. 0.
      1. 0. 0. 0. 1. 0. 1. 0. 1. 0. 0. 0. 1. 0. 1. 0. 1. 0. 0. 0. 1. 0.
      1. 0. 2. 1. 0. 1. 0. 1. 1. 0. 1. 0. 0. 0. 1. 0. 1. 63. 70. 35. 14.
      17. 37. 50. 0. 16. 71. 68. 0. 0. 1. 0. 0. 0. 0. 0. 0. 0. 0. 0. 0.
      0. 0. 0. 0. 0. 0. 0. 0. 0. 0. 0. 0. 0. 0. 0. 0. 0. 0. 0. 0. 0. 0.
      0. 0. 0. 0. 0. 0. 0. 0. 0. 0. 0. 0. 0. 0. 0. 0. 0. 0. 0. 0. 0. 0.
      0. 0. 0. 0. 0. 0. 0. 0. 0. 0. 0. 0. 0. 0. 0. 0. 0. 0. 0. 0. 0. 0.
      0. 0. 0. 0. 0. 0. 0. 0. 0. 0. 0. 0. 0. 0. 0. 0. 0. 0. 0. 0. 0. 0.
      0. 0. 0. 0. 0. 0. 0. 0. 0. 0. 0. 0. 0. 0. 0. 0. 0. 0. 0. 0. 0. 0.
      0. 0. 0. 0. 0. 0. 0. 0. 0. 0. 85. 70. 32. 0. 19. 34. 34. 0. 17.
      51. 81. 1. 2. 0. 1. 0. 0. 0. 0. 0. 0. 0. 0. 0. 0. 0. 0. 0. 0. 0.
      0. 0. 0. 0. 0. 0. 0. 0. 0. 0. 0. 0. 0. 0. 0. 0. 0. 0. 0. 0. 0. 0.
      0. 0. 0. 0. 0. 0. 0. 0. 0. 0. 0. 0. 0. 0. 0. 0. 0. 0. 0. 0. 0. 0.
      0. 0. 0. 0. 0. 0. 0. 0. 0. 0. 0. 0. 0. 0. 0. 0. 0. 0. 0. 0. 0. 0.
      0. 0. 0. 0. 0. 0. 0. 0. 0. 0. 0. 0. 0. 0. 0. 0. 0. 0. 0. 0. 0. 0.
      0. 0. 0. 0. 0. 0. 0. 0. 0. 0. 0. 0. 0. 0. 0. 0. 0. 0. 0. 0. 0. 0.
      0. 0. 0. 2. 68. 64. 36. 0. 15. 34. 50. 1. 14. 52. 73. 2. 0. 1. 1.
      0. 0. 0. 0. 0. 0. 0. 0. 0. 0. 0. 0. 0. 0. 0. 0. 0. 0. 0. 0. 0. 0.
      0. 0. 0. 0. 0. 0. 0. 0. 0. 0. 0. 0. 0. 0. 0. 0. 0. 0. 0. 0. 0. 0.
      0. 0. 0. 0. 0. 0. 0. 0. 0. 0. 0. 0. 0. 0. 0. 0. 0. 0. 0. 0. 0. 0.
      0. 0. 0. 0. 0. 0. 0. 0. 0. 0. 0. 0. 0. 0. 0. 0. 0. 0. 0. 0. 0. 0.
      0. 0. 0. 0. 0. 0. 0. 0. 0. 0. 0. 0. 0. 0. 0. 0. 0. 0. 0. 0. 0. 0.
      0. 0. 0. 0. 0. 0. 0. 0. 0. 0. 0. 0. 0. 0. 0. 0. 0. 0. 0. 69. 68.
      39. 16. 15. 36. 34. 1. 17. 65. 68. 0. 1. 0. 0. 0. 0. 0. 0. 0. 0.
      0. 0. 0. 0. 0. 0. 0. 0. 0. 0. 0. 0. 0. 0. 0. 0. 0. 0. 0. 0. 0. 0.
      0. 0. 0. 0. 0. 0. 0. 0. 0. 0. 0. 0. 0. 0. 0. 0. 0. 0. 0. 0. 0. 0.
      0. 0. 0. 0. 0. 0. 0. 0. 0. 0. 0. 0. 0. 0. 0. 0. 0. 0. 0. 0. 0. 0.
      0. 0. 0. 0. 0. 0. 0. 0. 0. 0. 0. 0. 0. 0. 0. 0. 0. 0. 0. 0. 0. 0.
      0. 0. 0. 0. 0. 0. 0. 0. 0. 0. 0. 0. 0. 0. 0. 0. 0. 0. 0. 0. 0. 0.
      0. 0. 0. 0. 0. 0. 0. 0. 0. 0. 0. 0. 0. 73. 68. 12. 16. 4. 51. 35.
      0. 14. 73. 67. 5. 0. 2. 0. 0. 0. 0. 0. 0. 0. 0. 0. 0. 0. 0. 0. 0.
      0. 0. 0. 0. 0. 0. 0. 0. 0. 0. 0. 0. 0. 0. 0. 0. 0. 0. 0. 0. 0. 0.
      0. 0. 0. 0. 0. 0. 0. 0. 0. 0. 0. 0. 0. 0. 0. 0. 0. 0. 0. 0. 0. 0.
      0. 0. 0. 0. 0. 0. 0. 0. 0. 0. 0. 0. 0. 0. 0. 0. 0. 0. 0. 0. 0. 0.
      0. 0. 0. 0. 0. 0. 0. 0. 0. 0. 0. 0. 0. 0. 0. 0. 0. 0. 0. 0. 0. 0.
      0. 0. 0. 0. 0. 0. 0. 0. 0. 0. 0. 0. 0. 0. 0. 0. 0. 0. 0. 0. 0. 0.
      0. 0. 0. 0. 0. 0. 81. 67. 41. 0. 16. 33. 34. 0. 18. 50. 81. 0. 2.
      0. 1. 0. 0. 0. 0. 0. 0. 0. 0. 0. 0. 0. 0. 0. 0. 0. 0. 0. 0. 0. 0.
      0. 0. 0. 0. 0. 0. 0. 0. 0. 0. 0. 0. 0. 0. 0. 0. 0. 0. 0. 0. 0. 0.
      0. 0. 0. 0. 0. 0. 0. 0. 0. 0. 0. 0. 0. 0. 0. 0. 0. 0. 0. 0. 0. 0.
      0. 0. 0. 0. 0. 0. 0. 0. 0. 0. 0. 0. 0. 0. 0. 0. 0. 0. 0. 0. 0. 0.
      0. 0. 0. 0. 0. 0. 0. 0. 0. 0. 0. 0. 0. 0. 0. 0. 0. 0. 0. 0. 0. 0.
      0. 0. 0. 0. 0. 0. 0. 0. 0. 0. 0. 0. 0. 0. 0. 0. 0. 0. 0. 0. 0. 73.
      68. 33. 15. 0. 58. 31. 2. 15. 51. 73. 0. 0. 0. 2. 0. 0. 0. 0. 0.
      0. 0. 0. 0. 0. 0. 0. 0. 0. 0. 0. 0. 0. 0. 0. 0. 0. 0. 0. 0. 0. 0.
      0. 0. 0. 0. 0. 0. 0. 0. 0. 0. 0. 0. 0. 0. 0. 0. 0. 0. 0. 0. 0. 0.
      0. 0. 0. 0. 0. 0. 0. 0. 0. 0. 0. 0. 0. 0. 0. 0. 0. 0. 0. 0. 0. 0.
      0. 0. 0. 0. 0. 0. 0. 0. 0. 0. 0. 0. 0. 0. 0. 0. 0. 0. 0. 0. 0. 0.
      0. 0. 0. 0. 0. 0. 0. 0. 0. 0. 0. 0. 0. 0. 0. 0. 0. 0. 0. 0. 0. 0.
      0. 0. 0. 0. 0. 0. 0. 0. 0. 0. 0. 0. 0. 2. 66. 68. 34. 0. 20. 30.
      35. 1. 16. 67. 67. 0. 1. 1. 0. 0. 0. 0. 0. 0. 0. 0. 0. 0. 0. 0. 0.
      0. 0. 0. 0. 0. 0. 0. 0. 0. 0. 0. 0. 0. 0. 0. 0. 0. 0. 0. 0. 0. 0.
      0. 0. 0. 0. 0. 0. 0. 0. 0. 0. 0. 0. 0. 0. 0. 0. 0. 0. 0. 0. 0. 0.
      0. 0. 0. 0. 0. 0. 0. 0. 0. 0. 0. 0. 0. 0. 0. 0. 0. 0. 0. 0. 0. 0.
      0. 0. 0. 0. 0. 0. 0. 0. 0. 0. 0. 0. 0. 0. 0. 0. 0. 0. 0. 0. 0. 0.
      0. 0. 0. 0. 0. 0. 0. 0. 0. 0. 0. 0. 0. 0. 0. 0. 0. 0. 0. 0. 0. 0.
      0. 0. 0. 0. 0. 0. 0. 70. 69. 32. 20. 17. 31. 53. 0. 16. 71. 68. 0.
      0. 1. 0. 0. 0. 0. 0. 0. 0. 0. 0. 0. 0. 0. 0. 0. 0. 0. 0. 0. 0. 0.
      0. 0. 0. 0. 0. 0. 0. 0. 0. 0. 0. 0. 0. 0. 0. 0. 0. 0. 0. 0. 0. 0.
      0. 0. 0. 0. 0. 0. 0. 0. 0. 0. 0. 0. 0. 0. 0. 0. 0. 0. 0. 0. 0. 0.
      0. 0. 0. 0. 0. 0. 0. 0. 0. 0. 0. 0. 0. 0. 0. 0. 0. 0. 0. 0. 0. 0.
      0. 0. 0. 0. 0. 0. 0. 0. 0. 0. 0. 0. 0. 0. 0. 0. 0. 0. 0. 0. 0. 0.
      0. 0. 0. 0. 0. 0. 0. 0. 0. 0. 0. 0. 0. 0. 0. 0. 0. 0. 0. 0. 0. 0.
      85. 70. 32. 0. 19. 34. 34. 0. 17. 51. 81. 1. 2. 0. 1. 0. 0. 0. 0.
      0. 0. 0. 0. 0. 0. 0. 0. 0. 0. 0. 0. 0. 0. 0. 0. 0. 0. 0. 0. 0. 0.
      0. 0. 0. 0. 0. 0. 0. 0. 0. 0. 0. 0. 0. 0. 0. 0. 0. 0. 0. 0. 0. 0.
      0. 0. 0. 0. 0. 0. 0. 0. 0. 0. 0. 0. 0. 0. 0. 0. 0. 0. 0. 0. 0. 0.
      0. 0. 0. 0. 0. 0. 0. 0. 0. 0. 0. 0. 0. 0. 0. 0. 0. 0. 0. 0. 0. 0.
      0. 0. 0. 0. 0. 0. 0. 0. 0. 0. 0. 0. 0. 0. 0. 0. 0. 0. 0. 0. 0. 0.
      0. 0. 0. 0. 0. 0. 0. 0. 0. 0. 0. 0. 0. 0. 2. 68. 64. 36. 0. 15.
      34. 50. 1. 14. 52. 73. 2. 0. 1. 1. 0. 0. 0. 0. 0. 0. 0. 0. 0. 0.
      0. 0. 0. 0. 0. 0. 0. 0. 0. 0. 0. 0. 0. 0. 0. 0. 0. 0. 0. 0. 0. 0.
      0. 0. 0. 0. 0. 0. 0. 0. 0. 0. 0. 0. 0. 0. 0. 0. 0. 0. 0. 0. 0. 0.
      0. 0. 0. 0. 0. 0. 0. 0. 0. 0. 0. 0. 0. 0. 0. 0. 0. 0. 0. 0. 0. 0.
      0. 0. 0. 0. 0. 0. 0. 0. 0. 0. 0. 0. 0. 0. 0. 0. 0. 0. 0. 0. 0. 0.
      0. 0. 0. 0. 0. 0. 0. 0. 0. 0. 0. 0. 0. 0. 0. 0. 0. 0. 0. 0. 0. 0.
      0. 0. 0. 0. 0. 0. 0. 0. 0. 69. 68. 39. 16. 15. 36. 34. 1. 17. 65.
      68. 0. 1. 0. 0. 0. 0. 0. 0. 0. 0. 0. 0. 0. 0. 0. 0. 0. 0. 0. 0. 0.
      0. 0. 0. 0. 0. 0. 0. 0. 0. 0. 0. 0. 0. 0. 0. 0. 0. 0. 0. 0. 0. 0.
      0. 0. 0. 0. 0. 0. 0. 0. 0. 0. 0. 0. 0. 0. 0. 0. 0. 0. 0. 0. 0. 0.
      0. 0. 0. 0. 0. 0. 0. 0. 0. 0. 0. 0. 0. 0. 0. 0. 0. 0. 0. 0. 0. 0.
      0. 0. 0. 0. 0. 0. 0. 0. 0. 0. 0. 0. 0. 0. 0. 0. 0. 0. 0. 0. 0. 0.
      0. 0. 0. 0. 0. 0. 0. 0. 0. 0. 0. 0. 0. 0. 0. 0. 0. 0. 0. 0. 0. 0.
      0. 0. 73. 68. 12. 16. 4. 51. 35. 0. 14. 73. 67. 5. 0. 2. 0. 0. 0.
      0. 0. 0. 0. 0. 0. 0. 0. 0. 0. 0. 0. 0. 0. 0. 0. 0. 0. 0. 0. 0. 0.
      0. 0. 0. 0. 0. 0. 0. 0. 0. 0. 0. 0. 0. 0. 0. 0. 0. 0. 0. 0. 0. 0.
      0. 0. 0. 0. 0. 0. 0. 0. 0. 0. 0. 0. 0. 0. 0. 0. 0. 0. 0. 0. 0. 0.
      0. 0. 0. 0. 0. 0. 0. 0. 0. 0. 0. 0. 0. 0. 0. 0. 0. 0. 0. 0. 0. 0.
      0. 0. 0. 0. 0. 0. 0. 0. 0. 0. 0. 0. 0. 0. 0. 0. 0. 0. 0. 0. 0. 0.
      0. 0. 0. 0. 0. 0. 0. 0. 0. 0. 0. 0. 0. 0. 0. 0. 0. 81. 67. 41. 0.
      16. 33. 34. 0. 18. 50. 81. 0. 2. 0. 1. 0. 0. 0. 0. 0. 0. 0. 0. 0.
      0. 0. 0. 0. 0. 0. 0. 0. 0. 0. 0. 0. 0. 0. 0. 0. 0. 0. 0. 0. 0. 0.
      0. 0. 0. 0. 0. 0. 0. 0. 0. 0. 0. 0. 0. 0. 0. 0. 0. 0. 0. 0. 0. 0.
      0. 0. 0. 0. 0. 0. 0. 0. 0. 0. 0. 0. 0. 0. 0. 0. 0. 0. 0. 0. 0. 0.
      0. 0. 0. 0. 0. 0. 0. 0. 0. 0. 0. 0. 0. 0. 0. 0. 0. 0. 0. 0. 0. 0.
      0. 0. 0. 0. 0. 0. 0. 0. 0. 0. 0. 0. 0. 0. 0. 0. 0. 0. 0. 0. 0. 0.
      0. 0. 0. 0. 0. 0. 0. 0. 0. 0. 73. 68. 33. 15. 0. 58. 31. 2. 15.
      51. 73. 0. 0. 0. 2. 0. 0. 0. 0. 0. 0. 0. 0. 0. 0. 0. 0. 0. 0. 0.
      0. 0. 0. 0. 0. 0. 0. 0. 0. 0. 0. 0. 0. 0. 0. 0. 0. 0. 0. 0. 0. 0.
      0. 0. 0. 0. 0. 0. 0. 0. 0. 0. 0. 0. 0. 0. 0. 0. 0. 0. 0. 0. 0. 0.
      0. 0. 0. 0. 0. 0. 0. 0. 0. 0. 0. 0. 0. 0. 0. 0. 0. 0. 0. 0. 0. 0.
      0. 0. 0. 0. 0. 0. 0. 0. 0. 0. 0. 0. 0. 0. 0. 0. 0. 0. 0. 0. 0. 0.
      0. 0. 0. 0. 0. 0. 0. 0. 0. 0. 0. 0. 0. 0. 0. 0. 0. 0. 0. 0. 0. 0.
      0. 0. 0. 2. 66. 68. 34. 0. 20. 30. 35. 1. 16. 67. 67. 0. 1. 1. 0.
      0. 0. 0. 0. 0. 0. 0. 0. 0. 0. 0. 0. 0. 0. 0. 0. 0. 0. 0. 0. 0. 0.
      0. 0. 0. 0. 0. 0. 0. 0. 0. 0. 0. 0. 0. 0. 0. 0. 0. 0. 0. 0. 0. 0.
      0. 0. 0. 0. 0. 0. 0. 0. 0. 0. 0. 0. 0. 0. 0. 0. 0. 0. 0. 0. 0. 0.
      0. 0. 0. 0. 0. 0. 0. 0. 0. 0. 0. 0. 0. 0. 0. 0. 0. 0. 0. 0. 0. 0.
      0. 0. 0. 0. 0. 0. 0. 0. 0. 0. 0. 0. 0. 0. 0. 0. 0. 0. 0. 0. 0. 0.
      0. 0. 0. 0. 0. 0. 0. 0. 0. 0. 0. 0. 0. 0. 0. 0. 0. 0. 0. 70. 69.
      32. 20. 17. 31. 53. 1. 13. 73. 65. 1. 1. 0. 1. 0. 1. 0. 0. 3. 1.
      0. 3. 0. 0. 3. 0. 0. 2. 0. 0. 0. 0. 2. 0. 0. 3. 0. 0. 3. 0. 1. 3.
      0. 0. 1. 0. 0. 2. 0. 1. 1. 0. 2. 0. 0. 1. 0. 0. 3. 1. 0. 3. 0. 0.
      3. 0. 0. 2. 0. 0. 0. 0. 2. 0. 0. 3. 0. 0. 3. 0. 1. 3. 0. 0. 1. 0.
      0. 2. 0. 1. 1. 0. 2. 0. 0. 1. 0. 0. 3. 1. 0. 3. 0. 0. 3. 0. 0. 2.
      0. 0. 0. 0. 2. 0. 0. 3. 0. 0. 3. 0. 1. 3. 0. 0. 1. 0. 0. 2. 0. 1.
      1. 0. 2. 0. 2. 0. 1. 0. 1. 0. 0. 1. 0. 85. 68. 34. 1. 14. 33. 38.
      0. 17. 50. 86. 0. 0. 2. 0. 1. 0. 0. 0. 0. 3. 0. 0. 0. 0. 0. 0. 0.
      1. 0. 1. 1. 0. 1. 0. 0. 0. 0. 0. 0. 0. 3. 0. 0. 0. 0. 1. 0. 1. 0.
      1. 1. 0. 1. 0. 1. 0. 0. 0. 0. 3. 0. 0. 0. 0. 0. 0. 0. 1. 0. 1. 1.
      0. 1. 0. 0. 0. 0. 0. 0. 0. 3. 0. 0. 0. 0. 1. 0. 1. 0. 1. 1. 0. 1.
      0. 1. 0. 0. 0. 0. 3. 0. 0. 0. 0. 0. 0. 0. 1. 0. 1. 1. 0. 1. 0. 0.
      0. 0. 0. 0. 0. 3. 0. 0. 0. 0. 1. 0. 1. 0. 1. 1. 0. 1. 0. 0. 0. 2.
      0. 0. 3. 3. 0. 0. 65. 69. 37. 0. 25. 31. 48. 2. 18. 50. 67. 3. 2.
      0. 1. 0. 0. 4. 0. 0. 0. 1. 1. 0. 1. 0. 3. 0. 0. 0. 1. 1. 0. 0. 0.
      3. 0. 1. 0. 1. 1. 0. 0. 0. 4. 0. 0. 0. 0. 1. 0. 0. 1. 0. 0. 0. 0.
      4. 0. 0. 0. 1. 1. 0. 1. 0. 3. 0. 0. 0. 1. 1. 0. 0. 0. 3. 0. 1. 0.
      1. 1. 0. 0. 0. 4. 0. 0. 0. 0. 1. 0. 0. 1. 0. 0. 0. 0. 4. 0. 0. 0.
      1. 1. 0. 1. 0. 3. 0. 0. 0. 1. 1. 0. 0. 0. 3. 0. 1. 0. 1. 1. 0. 0.
      0. 4. 0. 0. 0. 0. 1. 0. 0. 1. 0. 0. 1. 1. 0. 0. 5. 1. 0. 4. 1. 68.
      68. 38. 0. 13. 36. 36. 1. 14. 73. 67. 84. 85. 84. 82. 87. 83. 85.
      83. 85. 87. 85. 83. 85. 86. 83. 86. 84. 84. 84. 85. 85. 84. 84.
      84. 86. 83. 86. 85. 83. 85. 87. 85. 83. 85. 83. 87. 85. 84. 86.
      86. 86. 86. 84. 85. 87. 83. 85. 83. 85. 87. 85. 83. 85. 86. 83.
      86. 84. 84. 84. 85. 85. 84. 84. 84. 86. 83. 86. 85. 83. 85. 87.
      85. 83. 85. 83. 87. 85. 84. 86. 86. 86. 86. 84. 85. 87. 83. 85.
      83. 85. 87. 85. 83. 85. 86. 83. 86. 84. 84. 84. 85. 85. 84. 84.
      84. 86. 83. 86. 85. 83. 85. 87. 85. 83. 85. 83. 87. 85. 84. 86.
      86. 86. 86. 84. 85. 86. 83. 89. 84. 86. 84. 85. 85. 84. 87. 50.
      13. 20. 17. 33. 33. 0. 15. 29. 56. 70. 83. 70. 71. 66. 69. 65. 71.
      69. 72. 62. 72. 68. 67. 71. 65. 68. 71. 69. 67. 67. 69. 71. 68.
      65. 71. 67. 68. 72. 62. 72. 69. 71. 65. 69. 66. 70. 71. 67. 68.
      68. 67. 71. 70. 66. 69. 65. 71. 69. 72. 62. 72. 68. 67. 71. 65.
      68. 71. 69. 67. 67. 69. 71. 68. 65. 71. 67. 68. 72. 62. 72. 69.
      71. 65. 69. 66. 70. 71. 67. 68. 68. 67. 71. 70. 66. 69. 65. 71.
      69. 72. 62. 72. 68. 67. 71. 65. 68. 71. 69. 67. 67. 69. 71. 68.
      65. 71. 67. 68. 72. 62. 72. 69. 71. 65. 69. 66. 70. 71. 67. 68.
      68. 67. 71. 70. 65. 64. 70. 69. 85. 68. 68. 86. 70. 48. 50. 19.
      18. 1. 48. 37. 0. 24. 16. 11. 51. 36. 30. 51. 34. 34. 54. 33. 53.
      27. 40. 49. 34. 52. 30. 41. 46. 30. 56. 33. 33. 56. 30. 46. 41.
      30. 52. 34. 49. 40. 27. 53. 33. 54. 34. 34. 50. 31. 52. 33. 33.
      52. 31. 50. 34. 34. 54. 33. 53. 27. 40. 49. 34. 52. 30. 41. 46.
      30. 56. 33. 33. 56. 30. 46. 41. 30. 52. 34. 49. 40. 27. 53. 33.
      54. 34. 34. 50. 31. 52. 33. 33. 52. 31. 50. 34. 34. 54. 33. 53.
      27. 40. 49. 34. 52. 30. 41. 46. 30. 56. 33. 33. 56. 30. 46. 41.
      30. 52. 34. 49. 40. 27. 53. 33. 54. 34. 34. 50. 31. 52. 33. 33.
      52. 31. 50. 36. 38. 49. 35. 35. 32. 36. 31. 31. 38. 17. 14. 1. 18.
      32. 34. 15. 15. 32. 18. 21. 14. 20. 19. 15. 15. 16. 16. 19. 17.
      14. 20. 16. 16. 17. 14. 16. 19. 17. 15. 15. 17. 19. 16. 14. 17.
      16. 16. 20. 14. 17. 19. 16. 16. 15. 15. 19. 19. 16. 15. 15. 16.
      19. 19. 15. 15. 16. 16. 19. 17. 14. 20. 16. 16. 17. 14. 16. 19.
      17. 15. 15. 17. 19. 16. 14. 17. 16. 16. 20. 14. 17. 19. 16. 16.
      15. 15. 19. 19. 16. 15. 15. 16. 19. 19. 15. 15. 16. 16. 19. 17.
      14. 20. 16. 16. 17. 14. 16. 19. 17. 15. 15. 17. 19. 16. 14. 17.
      16. 16. 20. 14. 17. 19. 16. 16. 15. 15. 19. 19. 16. 15. 15. 16.
      19. 19. 13. 15. 18. 15. 18. 16. 14. 20. 17. 16. 35. 18. 15. 15.
      34. 51. 52. 52. 53. 51. 50. 51. 51. 50. 55. 49. 54. 50. 51. 50.
      51. 49. 52. 51. 51. 52. 49. 54. 49. 52. 52. 49. 54. 49. 52. 51.
      51. 52. 49. 51. 50. 51. 50. 54. 49. 55. 50. 52. 50. 52. 52. 50.
      52. 50. 55. 49. 54. 50. 51. 50. 51. 49. 52. 51. 51. 52. 49. 54.
      49. 52. 52. 49. 54. 49. 52. 51. 51. 52. 49. 51. 50. 51. 50. 54.
      49. 55. 50. 52. 50. 52. 52. 50. 52. 50. 55. 49. 54. 50. 51. 50.
      51. 49. 52. 51. 51. 52. 49. 54. 49. 52. 52. 49. 54. 49. 52. 51.
      51. 52. 49. 51. 50. 51. 50. 54. 49. 55. 50. 52. 50. 52. 52. 50.
      52. 50. 53. 50. 51. 53. 48. 53. 50. 51. 52. 52. 50. 49. 53. 50.
      70. 52. 51. 51. 51. 51. 51. 51. 51. 51. 51. 50. 68. 51. 51. 50.
      68. 51. 51. 51. 51. 51. 50. 68. 51. 51. 51. 68. 50. 51. 51. 68.
      50. 51. 51. 68. 50. 51. 51. 68. 50. 51. 51. 68. 50. 51. 51. 68.
      50. 51. 50. 69. 51. 51. 51. 51. 51. 51. 51. 68. 50. 51. 51. 68.
      50. 51. 51. 68. 50. 51. 51. 68. 50. 51. 51. 68. 50. 51. 51. 68.
      50. 51. 51. 68. 50. 51. 51. 68. 50. 51. 51. 51. 51. 51. 51. 51.
      69. 50. 51. 50. 68. 51. 51. 50. 68. 51. 51. 50. 68. 51. 51. 50.
      68. 51. 51. 50. 68. 51. 51. 50. 68. 51. 51. 51. 68. 50. 51. 51.
      51. 51. 51. 67. 52. 50. 51. 68. 51. 68. 51. 51. 51. 51. 51. 51.
      68. 68.</_>
    <_>
      1. 0. 2. 0. 17. 20. 0. 0. 1. 0. 0. 2. 0. 0. 0. 1. 17. 0. 17. 4.
      15. 0. 18. 0. 18. 0. 21. 14. 32. 71. 0. 0. 0. 0. 1. 0. 2. 0. 1. 0.
      2. 0. 1. 1. 0. 0. 0. 2. 0. 6. 0. 0. 2. 3. 0. 0. 0. 0. 2. 0. 4. 0.
      1. 0. 0. 0. 0. 1. 3. 0. 0. 2. 0. 0. 0. 1. 0. 2. 0. 0. 0. 1. 1. 0.
      0. 2. 0. 0. 0. 0. 4. 0. 2. 4. 0. 0. 0. 0. 0. 2. 0. 3. 1. 0. 0. 0.
      0. 2. 0. 0. 3. 0. 2. 0. 0. 2. 0. 1. 0. 0. 1. 0. 1. 0. 2. 0. 2. 0.
      0. 2. 0. 0. 0. 1. 0. 0. 0. 1. 0. 1. 1. 0. 0. 0. 1. 0. 2. 0. 15.
      36. 19. 17. 14. 5. 12. 19. 14. 21. 34. 33. 53. 55. 45. 48. 35. 35.
      17. 15. 18. 18. 14. 18. 18. 32. 51. 53. 33. 54. 51. 38. 48. 52.
      33. 49. 50. 49. 36. 49. 53. 51. 70. 0. 6. 0. 0. 3. 0. 0. 1. 2. 3.
      0. 0. 1. 0. 4. 0. 2. 0. 0. 2. 0. 0. 4. 2. 0. 0. 2. 0. 0. 3. 0. 0.
      1. 1. 3. 0. 0. 1. 0. 2. 0. 0. 3. 0. 3. 0. 0. 1. 0. 0. 4. 0. 0. 3.
      0. 0. 1. 0. 4. 0. 0. 2. 0. 0. 0. 0. 3. 5. 0. 0. 0. 0. 0. 0. 3. 0.
      4. 0. 0. 0. 0. 1. 0. 0. 4. 0. 0. 1. 3. 0. 0. 0. 0. 2. 0. 1. 1. 37.
      33. 0. 17. 35. 47. 67. 51. 54. 50. 51. 52. 49. 49. 52. 52. 46. 56.
      51. 52. 36. 32. 17. 17. 15. 16. 0. 16. 32. 35. 50. 49. 33. 31. 35.
      31. 17. 38. 16. 18. 0. 22. 14. 17. 20. 31. 35. 51. 50. 33. 52. 32.
      52. 35. 48. 34. 47. 42. 49. 48. 51. 67. 66. 69. 72. 0. 1. 0. 0. 2.
      0. 0. 0. 1. 0. 2. 0. 0. 5. 0. 0. 2. 1. 0. 5. 0. 2. 2. 2. 0. 2. 1.
      0. 0. 0. 2. 0. 0. 3. 3. 0. 1. 0. 2. 2. 0. 0. 1. 4. 0. 1. 3. 0. 0.
      0. 0. 0. 0. 1. 1. 1. 0. 2. 0. 0. 3. 0. 0. 0. 3. 0. 0. 2. 0. 0. 1.
      0. 0. 1. 0. 0. 0. 0. 0. 50. 17. 0. 1. 21. 52. 68. 69. 0. 0. 0. 1.
      3. 1. 0. 1. 3. 0. 1. 0. 70. 68. 68. 52. 52. 52. 51. 54. 51. 52.
      35. 50. 35. 35. 34. 35. 17. 33. 15. 35. 16. 15. 15. 20. 14. 32.
      40. 51. 50. 38. 33. 37. 33. 35. 17. 33. 16. 16. 19. 19. 16. 35.
      37. 34. 30. 55. 34. 52. 54. 49. 51. 53. 51. 67. 51. 70. 48. 71.
      66. 66. 69. 0. 3. 0. 0. 0. 0. 0. 0. 0. 0. 0. 1. 2. 0. 1. 2. 0. 1.
      0. 1. 0. 0. 0. 1. 0. 5. 0. 0. 2. 1. 0. 2. 0. 0. 6. 0. 1. 1. 0. 1.
      0. 2. 0. 1. 0. 1. 1. 1. 0. 2. 0. 4. 0. 3. 0. 0. 0. 2. 0. 0. 2. 0.
      0. 50. 37. 12. 1. 0. 13. 68. 69. 4. 0. 1. 3. 0. 0. 2. 0. 0. 1. 0.
      3. 0. 2. 0. 0. 3. 0. 0. 3. 0. 2. 0. 2. 86. 84. 67. 69. 68. 71. 51.
      68. 51. 69. 52. 69. 47. 57. 51. 50. 49. 32. 34. 33. 33. 35. 16.
      35. 21. 29. 16. 34. 14. 36. 33. 33. 34. 50. 49. 50. 45. 56. 50.
      65. 51. 69. 52. 31. 37. 32. 36. 38. 34. 48. 35. 57. 48. 52. 54.
      52. 50. 52. 56. 48. 49. 66. 50. 69. 70. 50. 1. 0. 4. 0. 0. 1. 0.
      1. 0. 0. 1. 0. 0. 4. 0. 0. 1. 0. 1. 0. 1. 0. 0. 6. 0. 4. 0. 0. 2.
      0. 0. 0. 0. 2. 2. 0. 0. 3. 0. 0. 0. 0. 0. 1. 0. 0. 34. 35. 4. 0.
      18. 37. 65. 0. 0. 0. 0. 0. 0. 0. 2. 3. 0. 2. 0. 0. 0. 1. 0. 0. 0.
      0. 0. 0. 2. 0. 2. 0. 0. 0. 0. 4. 0. 0. 0. 1. 0. 0. 0. 0. 4. 0. 0.
      0. 0. 86. 73. 65. 73. 69. 72. 66. 66. 69. 52. 70. 50. 54. 51. 53.
      53. 52. 50. 51. 54. 47. 69. 54. 52. 67. 52. 36. 33. 32. 32. 35.
      34. 53. 50. 32. 54. 49. 50. 68. 52. 65. 50. 33. 33. 19. 33. 35.
      30. 42. 49. 30. 30. 51. 40. 49. 53. 50. 47. 54. 55. 50. 56. 65.
      51. 73. 61. 4. 0. 0. 2. 2. 3. 0. 1. 0. 2. 3. 1. 0. 0. 0. 0. 3. 0.
      5. 3. 0. 1. 2. 0. 1. 0. 0. 0. 0. 51. 30. 0. 5. 10. 17. 73. 67. 0.
      4. 0. 0. 4. 0. 0. 0. 2. 0. 1. 2. 0. 0. 4. 0. 1. 2. 0. 0. 6. 3. 0.
      0. 0. 2. 0. 0. 1. 3. 0. 0. 0. 4. 0. 0. 1. 0. 4. 0. 0. 0. 0. 4. 0.
      0. 0. 1. 1. 1. 0. 3. 1. 0. 0. 0. 0. 0. 67. 91. 65. 69. 69. 66. 68.
      68. 70. 63. 53. 52. 55. 49. 50. 52. 51. 53. 53. 50. 53. 49. 50.
      55. 52. 34. 32. 17. 33. 33. 34. 32. 35. 36. 50. 20. 30. 19. 17.
      19. 20. 14. 15. 15. 33. 19. 34. 35. 36. 32. 53. 37. 32. 36. 51.
      35. 50. 33. 50. 51. 49. 51. 49. 52. 68. 54. 0. 0. 7. 0. 0. 0. 0.
      0. 5. 0. 4. 1. 69. 36. 0. 0. 3. 16. 67. 67. 0. 0. 0. 0. 0. 0. 1.
      0. 0. 0. 0. 3. 0. 0. 0. 1. 0. 0. 1. 2. 0. 0. 0. 2. 0. 1. 1. 0. 0.
      0. 0. 2. 1. 0. 3. 1. 0. 0. 0. 0. 1. 1. 0. 0. 1. 0. 2. 0. 0. 2. 0.
      0. 0. 3. 0. 0. 0. 0. 2. 0. 2. 1. 0. 2. 0. 0. 1. 4. 0. 0. 0. 1. 0.
      1. 0. 68. 83. 69. 66. 87. 67. 71. 64. 71. 49. 51. 52. 51. 51. 50.
      34. 34. 32. 35. 18. 33. 17. 16. 16. 18. 35. 16. 35. 34. 33. 33.
      36. 35. 31. 33. 36. 33. 15. 20. 17. 15. 21. 15. 36. 36. 35. 34.
      34. 35. 52. 37. 30. 36. 52. 50. 51. 52. 67. 51. 71. 65. 69. 65.
      17. 1. 0. 16. 69. 66. 0. 0. 0. 0. 0. 0. 0. 0. 0. 0. 0. 0. 0. 0. 0.
      0. 0. 0. 0. 0. 0. 0. 0. 0. 0. 0. 0. 0. 0. 0. 0. 0. 0. 0. 0. 0. 0.
      0. 0. 0. 0. 0. 0. 0. 0. 0. 0. 0. 0. 0. 0. 0. 0. 0. 0. 0. 0. 0. 0.
      0. 0. 0. 0. 0. 0. 0. 0. 0. 0. 0. 0. 0. 0. 0. 0. 0. 0. 0. 0. 0. 0.
      0. 0. 0. 0. 0. 0. 0. 1. 0. 85. 69. 67. 68. 68. 69. 67. 53. 69. 47.
      53. 52. 47. 53. 48. 53. 49. 51. 37. 31. 37. 16. 34. 16. 34. 18.
      33. 18. 17. 18. 17. 34. 35. 34. 34. 35. 31. 34. 33. 34. 34. 53.
      31. 33. 69. 52. 53. 32. 4. 14. 3. 37. 65. 70. 0. 0. 0. 0. 0. 0. 0.
      0. 0. 0. 0. 0. 0. 0. 0. 0. 0. 0. 0. 0. 0. 0. 0. 0. 0. 0. 0. 0. 0.
      0. 0. 0. 0. 0. 0. 0. 0. 0. 0. 0. 0. 0. 0. 0. 0. 0. 0. 0. 0. 0. 0.
      0. 0. 0. 0. 0. 0. 0. 0. 0. 0. 0. 0. 0. 0. 0. 0. 0. 0. 0. 0. 0. 0.
      0. 0. 0. 0. 0. 0. 0. 0. 0. 0. 0. 0. 0. 0. 0. 0. 5. 0. 2. 1. 1. 0.
      0. 1. 0. 4. 0. 0. 0. 0. 1. 2. 0. 0. 67. 65. 75. 63. 67. 69. 64.
      55. 67. 50. 68. 52. 66. 52. 53. 48. 51. 50. 34. 39. 32. 35. 33.
      34. 15. 18. 18. 34. 48. 50. 35. 0. 1. 0. 16. 50. 66. 0. 0. 0. 0.
      0. 0. 0. 0. 0. 0. 0. 0. 0. 0. 0. 0. 0. 0. 0. 0. 0. 0. 0. 0. 0. 0.
      0. 0. 0. 0. 0. 0. 0. 0. 0. 0. 0. 0. 0. 0. 0. 0. 0. 0. 0. 0. 0. 0.
      0. 0. 0. 0. 0. 0. 0. 0. 0. 0. 0. 0. 0. 0. 0. 0. 0. 0. 0. 0. 0. 0.
      0. 0. 0. 0. 0. 0. 0. 0. 0. 0. 0. 0. 0. 0. 0. 0. 0. 0. 0. 0. 3. 0.
      0. 0. 1. 0. 0. 1. 0. 3. 0. 1. 1. 0. 0. 0. 0. 1. 0. 0. 4. 0. 3. 0.
      1. 0. 0. 0. 0. 2. 1. 0. 3. 1. 70. 86. 67. 68. 69. 66. 47. 37. 0.
      0. 16. 36. 32. 16. 1. 0. 3. 16. 52. 72. 0. 0. 0. 0. 0. 0. 0. 0. 0.
      0. 0. 0. 0. 0. 0. 0. 0. 0. 0. 0. 0. 0. 0. 0. 0. 0. 0. 0. 0. 0. 0.
      0. 0. 0. 0. 0. 0. 0. 0. 0. 0. 0. 0. 0. 0. 0. 0. 0. 0. 0. 0. 0. 0.
      0. 0. 0. 0. 0. 0. 0. 0. 0. 0. 0. 0. 0. 0. 0. 0. 0. 0. 0. 0. 0. 0.
      0. 0. 0. 0. 0. 0. 0. 0. 0. 0. 0. 0. 0. 2. 0. 1. 6. 1. 0. 2. 0. 0.
      3. 0. 2. 0. 0. 0. 0. 2. 0. 2. 0. 3. 0. 0. 1. 0. 2. 0. 4. 0. 3. 0.
      0. 0. 4. 0. 1. 0. 0. 0. 67. 70. 51. 39. 1. 0. 20. 33. 51. 53. 32.
      17. 0. 0. 2. 35. 48. 0. 0. 0. 0. 0. 0. 0. 0. 0. 0. 0. 0. 0. 0. 0.
      0. 0. 0. 0. 0. 0. 0. 0. 0. 0. 0. 0. 0. 0. 0. 0. 0. 0. 0. 0. 0. 0.
      0. 0. 0. 0. 0. 0. 0. 0. 0. 0. 0. 0. 0. 0. 0. 0. 0. 0. 0. 0. 0. 0.
      0. 0. 0. 0. 0. 0. 0. 0. 0. 0. 0. 0. 0. 0. 0. 0. 0. 0. 0. 0. 0. 0.
      0. 0. 0. 0. 0. 0. 0. 0. 3. 0. 0. 1. 0. 0. 1. 2. 2. 0. 1. 0. 1. 0.
      2. 1. 2. 0. 0. 0. 5. 0. 2. 0. 1. 0. 0. 0. 0. 1. 0. 0. 0. 2. 1. 3.
      1. 1. 69. 51. 31. 0. 1. 2. 0. 50. 68. 49. 54. 16. 18. 1. 17. 65.
      71. 0. 0. 0. 0. 0. 0. 0. 0. 0. 0. 0. 0. 0. 0. 0. 0. 0. 0. 0. 0. 0.
      0. 0. 0. 0. 0. 0. 0. 0. 0. 0. 0. 0. 0. 0. 0. 0. 0. 0. 0. 0. 0. 0.
      0. 0. 0. 0. 0. 0. 0. 0. 0. 0. 0. 0. 0. 0. 0. 0. 0. 0. 0. 0. 0. 0.
      0. 0. 0. 0. 0. 0. 0. 0. 0. 0. 0. 0. 0. 0. 0. 0. 0. 0. 0. 0. 0. 0.
      0. 0. 2. 0. 0. 1. 1. 2. 0. 0. 0. 1. 0. 0. 2. 0. 0. 0. 0. 1. 0. 1.
      0. 0. 0. 0. 2. 0. 1. 0. 1. 1. 1. 0. 0. 0. 0. 0. 0. 0. 65. 35. 2.
      0. 0. 15. 18. 67. 72. 255. 70. 32. 0. 0. 20. 73. 63. 0. 0. 0. 0.
      0. 0. 0. 0. 0. 0. 0. 0. 0. 0. 0. 0. 0. 0. 0. 0. 0. 0. 0. 0. 0. 0.
      0. 0. 0. 0. 0. 0. 0. 0. 0. 0. 0. 0. 0. 0. 0. 0. 0. 0. 0. 0. 0. 0.
      0. 0. 0. 0. 0. 0. 0. 0. 0. 0. 0. 0. 0. 0. 0. 0. 0. 0. 0. 0. 0. 0.
      0. 0. 0. 0. 0. 0. 0. 0. 0. 0. 0. 0. 0. 0. 0. 0. 0. 0. 0. 236. 7.
      0. 2. 0. 0. 3. 0. 0. 0. 0. 0. 1. 0. 0. 3. 3. 0. 0. 0. 3. 1. 1. 0.
      0. 1. 0. 1. 0. 0. 0. 0. 1. 3. 0. 0. 4. 66. 54. 18. 0. 0. 2. 3. 32.
      50. 65. 69. 65. 19. 0. 20. 14. 68. 68. 0. 0. 0. 0. 0. 0. 0. 0. 0.
      0. 0. 0. 0. 0. 0. 0. 0. 0. 0. 0. 0. 0. 0. 0. 0. 0. 0. 0. 0. 0. 0.
      0. 0. 0. 0. 0. 0. 0. 0. 0. 0. 0. 0. 0. 0. 0. 0. 0. 0. 0. 0. 0. 0.
      0. 0. 0. 0. 0. 0. 0. 0. 0. 0. 0. 0. 0. 0. 0. 0. 0. 0. 0. 0. 0. 0.
      0. 0. 0. 0. 0. 0. 0. 0. 0. 0. 0. 0. 0. 3. 0. 0. 1. 0. 1. 2. 0. 0.
      2. 0. 1. 0. 1. 0. 0. 0. 0. 0. 2. 0. 0. 1. 0. 2. 0. 1. 0. 0. 1. 0.
      1. 2. 0. 0. 3. 0. 0. 69. 50. 15. 0. 0. 0. 0. 33. 69. 0. 70. 66.
      29. 20. 0. 18. 69. 67. 1. 0. 2. 0. 0. 3. 0. 1. 0. 0. 0. 0. 0. 0.
      0. 0. 0. 0. 0. 0. 0. 0. 0. 0. 0. 0. 0. 0. 0. 0. 0. 0. 0. 0. 0. 0.
      0. 0. 0. 0. 0. 0. 0. 0. 0. 0. 0. 0. 0. 0. 0. 0. 0. 0. 0. 0. 0. 0.
      0. 0. 0. 0. 0. 0. 0. 0. 0. 0. 0. 0. 0. 0. 0. 0. 0. 0. 0. 0. 0. 0.
      0. 0. 0. 0. 0. 0. 0. 0. 0. 0. 0. 0. 0. 0. 0. 0. 0. 0. 0. 0. 0. 0.
      0. 0. 0. 0. 0. 0. 0. 0. 0. 0. 0. 0. 0. 0. 0. 0. 0. 0. 2. 0. 0. 0.
      1. 1. 67. 34. 16. 0. 1. 2. 30. 51. 67. 1. 67. 68. 41. 0. 2. 15.
      51. 70. 2. 3. 0. 2. 0. 2. 0. 0. 0. 0. 0. 0. 0. 0. 0. 0. 0. 0. 0.
      0. 0. 0. 0. 0. 0. 0. 0. 0. 0. 0. 0. 0. 0. 0. 0. 0. 0. 0. 0. 0. 0.
      0. 0. 0. 0. 0. 0. 0. 0. 0. 0. 0. 0. 0. 0. 0. 0. 0. 0. 0. 0. 0. 0.
      0. 0. 0. 0. 0. 0. 0. 0. 0. 0. 0. 0. 0. 0. 0. 0. 0. 0. 0. 0. 0. 0.
      0. 0. 0. 0. 0. 0. 0. 0. 0. 0. 0. 0. 0. 0. 0. 0. 0. 0. 0. 0. 0. 0.
      0. 0. 0. 0. 0. 0. 0. 0. 0. 0. 0. 0. 0. 0. 0. 1. 0. 1. 66. 67. 19.
      1. 0. 13. 20. 68. 69. 72. 0. 253. 70. 48. 16. 3. 17. 33. 68. 0. 1.
      1. 0. 0. 0. 6. 1. 0. 0. 0. 0. 0. 0. 0. 0. 0. 0. 0. 0. 0. 0. 0. 0.
      0. 0. 0. 0. 0. 0. 0. 0. 0. 0. 0. 0. 0. 0. 0. 0. 0. 0. 0. 0. 0. 0.
      0. 0. 0. 0. 0. 0. 0. 0. 0. 0. 0. 0. 0. 0. 0. 0. 0. 0. 0. 0. 0. 0.
      0. 0. 0. 0. 0. 0. 0. 0. 0. 0. 0. 0. 0. 0. 0. 0. 0. 0. 0. 0. 0. 0.
      0. 0. 0. 0. 0. 0. 0. 0. 0. 0. 0. 0. 0. 0. 0. 0. 0. 0. 0. 0. 0. 0.
      0. 0. 0. 0. 0. 0. 0. 0. 3. 0. 2. 0. 0. 67. 51. 33. 0. 5. 16. 50.
      66. 0. 0. 4. 255. 65. 39. 19. 0. 19. 71. 66. 0. 0. 1. 0. 2. 4. 0.
      235. 0. 0. 0. 0. 0. 0. 0. 0. 0. 0. 0. 0. 0. 0. 0. 0. 0. 0. 0. 0.
      0. 0. 0. 0. 0. 0. 0. 0. 0. 0. 0. 0. 0. 0. 0. 0. 0. 0. 0. 0. 0. 0.
      0. 0. 0. 0. 0. 0. 0. 0. 0. 0. 0. 0. 0. 0. 0. 0. 0. 0. 0. 0. 0. 0.
      0. 0. 0. 0. 0. 0. 0. 0. 0. 0. 0. 0. 0. 0. 0. 0. 0. 0. 0. 0. 0. 0.
      0. 0. 0. 0. 0. 0. 0. 0. 0. 0. 0. 0. 0. 0. 0. 0. 0. 0. 0. 0. 0. 0.
      0. 0. 0. 0. 0. 4. 0. 1. 0. 70. 51. 20. 1. 0. 16. 68. 68. 3. 0. 0.
      255. 63. 50. 15. 19. 0. 14. 71. 53. 0. 0. 2. 2. 0. 0. 4. 0. 0. 0.
      0. 0. 0. 0. 0. 0. 0. 0. 0. 0. 0. 0. 0. 0. 0. 0. 0. 0. 0. 0. 0. 0.
      0. 0. 0. 0. 0. 0. 0. 0. 0. 0. 0. 0. 0. 0. 0. 0. 0. 0. 0. 0. 0. 0.
      0. 0. 0. 0. 0. 0. 0. 0. 0. 0. 0. 0. 0. 0. 0. 0. 0. 0. 0. 0. 0. 0.
      0. 0. 0. 0. 0. 0. 0. 0. 0. 0. 0. 0. 0. 0. 0. 0. 0. 0. 0. 0. 0. 0.
      0. 0. 0. 0. 0. 0. 0. 0. 0. 0. 0. 0. 0. 0. 0. 0. 0. 0. 0. 0. 0. 0.
      1. 0. 2. 0. 67. 34. 0. 0. 0. 35. 70. 68. 0. 2. 2. 253. 71. 50. 21.
      0. 0. 36. 47. 70. 0. 1. 2. 0. 0. 4. 0. 0. 0. 0. 0. 0. 0. 0. 0. 0.
      0. 0. 0. 0. 0. 0. 0. 0. 0. 0. 0. 0. 0. 0. 0. 0. 0. 0. 0. 0. 0. 0.
      0. 0. 0. 0. 0. 0. 0. 0. 0. 0. 0. 0. 0. 0. 0. 0. 0. 0. 0. 0. 0. 0.
      0. 0. 0. 0. 0. 0. 0. 0. 0. 0. 0. 0. 0. 0. 0. 0. 0. 0. 0. 0. 0. 0.
      0. 0. 0. 0. 0. 0. 0. 0. 0. 0. 0. 0. 0. 0. 0. 0. 0. 0. 0. 0. 0. 0.
      0. 0. 0. 0. 0. 0. 0. 0. 0. 0. 0. 0. 0. 0. 0. 0. 0. 244. 0. 2. 52.
      14. 23. 0. 3. 29. 71. 1. 0. 0. 0. 255. 255. 67. 32. 0. 2. 2. 36.
      68. 1. 1. 2. 3. 0. 1. 0. 0. 0. 0. 0. 0. 0. 0. 0. 0. 0. 0. 0. 0. 0.
      0. 0. 0. 0. 0. 0. 0. 0. 0. 0. 0. 0. 0. 0. 0. 0. 0. 0. 0. 0. 0. 0.
      0. 0. 0. 0. 0. 0. 0. 0. 0. 0. 0. 0. 0. 0. 0. 0. 0. 0. 0. 0. 0. 0.
      0. 0. 0. 0. 0. 0. 0. 0. 0. 0. 0. 0. 0. 0. 0. 0. 0. 0. 0. 0. 0. 0.
      0. 0. 0. 0. 0. 0. 0. 0. 0. 0. 0. 0. 0. 0. 0. 0. 0. 0. 0. 0. 0. 0.
      0. 0. 0. 0. 0. 0. 0. 0. 0. 0. 0. 2. 0. 0. 68. 70. 13. 0. 4. 15.
      52. 65. 0. 0. 1. 1. 255. 66. 50. 18. 0. 3. 12. 52. 68. 1. 0. 0. 0.
      239. 0. 2. 0. 0. 0. 0. 0. 0. 0. 0. 0. 0. 0. 0. 0. 0. 0. 0. 0. 0.
      0. 0. 0. 0. 0. 0. 0. 0. 0. 0. 0. 0. 0. 0. 0. 0. 0. 0. 0. 0. 0. 0.
      0. 0. 0. 0. 0. 0. 0. 0. 0. 0. 0. 0. 0. 0. 0. 0. 0. 0. 0. 0. 0. 0.
      0. 0. 0. 0. 0. 0. 0. 0. 0. 0. 0. 0. 0. 0. 0. 0. 0. 0. 0. 0. 0. 0.
      0. 0. 0. 0. 0. 0. 0. 0. 0. 0. 0. 0. 0. 0. 0. 0. 0. 0. 0. 0. 0. 0.
      0. 0. 0. 0. 0. 0. 0. 1. 0. 0. 69. 50. 18. 0. 0. 17. 69. 71. 0. 0.
      0. 0. 255. 70. 30. 17. 0. 1. 1. 33. 68. 69. 0. 2. 0. 0. 0. 1. 0.
      4. 1. 0. 0. 0. 3. 0. 240. 0. 0. 3. 0. 0. 1. 1. 0. 1. 2. 238. 0. 0.
      1. 0. 0. 240. 0. 1. 0. 1. 1. 0. 0. 1. 0. 1. 0. 1. 1. 0. 1. 0. 1.
      0. 1. 0. 1. 0. 0. 1. 1. 0. 3. 0. 0. 1. 1. 0. 1. 0. 2. 0. 2. 0. 1.
      0. 0. 3. 0. 1. 1. 0. 0. 3. 0. 3. 0. 1. 0. 0. 0. 0. 0. 1. 238. 0.
      3. 0. 2. 0. 1. 1. 0. 1. 0. 1. 0. 0. 1. 0. 3. 0. 0. 0. 0. 2. 0. 1.
      0. 1. 0. 1. 0. 0. 1. 0. 66. 34. 3. 0. 0. 39. 64. 71. 1. 2. 0. 2.
      254. 66. 33. 4. 0. 0. 23. 30. 70. 67. 2. 0. 0. 3. 3. 0. 240. 0. 0.
      0. 3. 243. 0. 1. 0. 1. 0. 0. 235. 7. 0. 0. 237. 0. 0. 0. 4. 0. 0.
      1. 3. 0. 2. 1. 240. 0. 0. 2. 4. 238. 0. 3. 237. 0. 0. 0. 1. 1. 0.
      2. 0. 2. 0. 0. 0. 0. 0. 2. 0. 1. 0. 1. 0. 1. 1. 3. 0. 0. 0. 0. 0.
      238. 1. 0. 4. 0. 0. 240. 1. 0. 2. 0. 0. 0. 2. 2. 0. 0. 0. 0. 0. 1.
      0. 1. 0. 1. 0. 6. 0. 3. 1. 0. 243. 0. 238. 1. 0. 0. 240. 0. 0. 0.
      0. 3. 0. 0. 3. 0. 0. 1. 0. 69. 52. 18. 0. 0. 20. 29. 68. 2. 0. 0.
      2. 0. 255. 66. 33. 17. 3. 0. 0. 19. 51. 67. 0. 1. 0. 0. 2. 0. 0.
      1. 2. 2. 0. 1. 1. 0. 0. 0. 0. 0. 2. 0. 1. 0. 0. 5. 0. 0. 1. 2. 1.
      239. 0. 1. 0. 2. 0. 0. 2. 0. 0. 2. 2. 0. 3. 0. 238. 1. 0. 0. 0. 0.
      1. 1. 1. 1. 5. 0. 3. 237. 2. 1. 0. 0. 0. 0. 0. 0. 1. 2. 1. 0. 0.
      6. 0. 0. 238. 3. 0. 0. 0. 1. 0. 1. 0. 4. 0. 0. 0. 0. 1. 2. 1. 0.
      1. 0. 239. 5. 0. 0. 244. 0. 0. 0. 0. 0. 1. 0. 4. 1. 0. 0. 0. 0. 2.
      0. 238. 2. 0. 4. 0. 3. 0. 69. 70. 11. 3. 2. 15. 49. 71. 0. 0. 0.
      0. 3. 254. 70. 54. 15. 0. 3. 0. 33. 68. 0. 1. 1. 1. 244. 0. 3. 1.
      0. 237. 0. 3. 0. 0. 0. 3. 0. 0. 1. 0. 0. 3. 0. 1. 0. 0. 0. 0. 2.
      0. 0. 0. 4. 0. 0. 3. 2. 3. 237. 3. 1. 0. 2. 1. 0. 0. 4. 0. 3. 0.
      2. 0. 0. 0. 0. 0. 0. 2. 0. 0. 0. 2. 0. 0. 2. 0. 2. 0. 2. 0. 2. 1.
      0. 2. 2. 0. 0. 0. 3. 3. 0. 1. 0. 0. 0. 2. 0. 4. 1. 238. 0. 3. 0.
      0. 0. 1. 0. 0. 2. 1. 0. 1. 0. 1. 5. 0. 2. 0. 0. 4. 0. 239. 0. 0.
      0. 0. 4. 0. 239. 0. 0. 49. 51. 17. 15. 4. 15. 36. 72. 69. 0. 4. 2.
      0. 0. 255. 64. 71. 11. 3. 0. 15. 35. 69. 1. 2. 1. 0. 0. 0. 1. 1.
      0. 1. 1. 0. 1. 1. 0. 0. 0. 244. 0. 0. 3. 0. 243. 0. 0. 3. 241. 1.
      0. 7. 0. 0. 0. 0. 0. 233. 1. 0. 1. 0. 0. 0. 0. 0. 2. 5. 0. 0. 1.
      0. 0. 1. 0. 3. 1. 1. 2. 1. 0. 2. 2. 0. 0. 2. 0. 0. 0. 1. 0. 1. 0.
      0. 239. 0. 1. 241. 3. 0. 0. 0. 0. 4. 0. 0. 239. 1. 1. 0. 0. 1. 1.
      0. 4. 0. 2. 2. 0. 4. 0. 0. 4. 2. 0. 0. 0. 0. 0. 3. 3. 0. 0. 0. 2.
      2. 0. 3. 0. 0. 0. 0. 73. 70. 35. 0. 4. 12. 18. 52. 66. 0. 3. 0. 0.
      0. 4. 255. 67. 53. 22. 0. 0. 20. 67. 67. 0. 2. 0. 5. 2. 52. 68.
      50. 69. 51. 69. 73. 0. 0. 0. 0. 1. 0. 4. 242. 0. 0. 64. 51. 70.
      51. 64. 71. 3. 0. 0. 0. 0. 2. 2. 2. 67. 47. 50. 51. 53. 53. 51.
      66. 66. 0. 1. 0. 1. 0. 2. 0. 0. 0. 0. 0. 0. 0. 1. 0. 0. 5. 0. 0.
      0. 0. 1. 0. 0. 0. 1. 3. 0. 0. 70. 70. 43. 36. 51. 56. 50. 51. 53.
      71. 66. 73. 47. 5. 0. 0. 2. 51. 52. 46. 35. 50. 52. 48. 53. 53.
      66. 53. 70. 68. 0. 69. 52. 53. 48. 31. 55. 52. 49. 48. 52. 47. 52.
      72. 65. 69. 65. 33. 0. 19. 0. 5. 33. 66. 70. 6. 0. 0. 4. 0. 0.
      253. 70. 29. 17. 0. 18. 2. 33. 38. 32. 51. 37. 29. 52. 33. 34. 30.
      25. 29. 32. 32. 52. 35. 37. 36. 52. 32. 31. 50. 38. 53. 36. 37.
      15. 34. 33. 33. 33. 37. 52. 34. 36. 50. 30. 34. 36. 34. 36. 34.
      15. 34. 32. 39. 31. 52. 53. 38. 50. 32. 52. 30. 41. 30. 34. 39.
      30. 34. 37. 33. 47. 37. 50. 36. 46. 37. 54. 28. 40. 33. 51. 34.
      32. 35. 49. 15. 37. 21. 16. 18. 15. 15. 34. 17. 35. 29. 38. 49.
      33. 33. 52. 31. 18. 18. 18. 19. 18. 17. 30. 13. 38. 33. 32. 35.
      37. 30. 36. 15. 15. 2. 16. 0. 20. 38. 49. 52. 70. 49. 51. 51. 36.
      37. 0. 3. 0. 0. 37. 68. 67. 0. 0. 1. 0. 3. 0. 255. 65. 55. 14. 2.
      16. 15. 34. 48. 54. 51. 51. 36. 35. 34. 32. 34. 32. 35. 36. 36.
      49. 53. 50. 51. 51. 55. 50. 52. 33. 31. 35. 31. 37. 33. 34. 35.
      51. 50. 50. 52. 47. 53. 53. 52. 32. 37. 14. 18. 35. 33. 34. 33.
      35. 50. 51. 48. 53. 51. 52. 53. 47. 54. 51. 49. 53. 51. 51. 52.
      51. 51. 51. 67. 55. 50. 49. 54. 49. 51. 53. 52. 48. 53. 53. 33.
      15. 15. 17. 16. 34. 20. 33. 32. 36. 34. 32. 52. 53. 52. 51. 33.
      36. 19. 14. 16. 16. 16. 19. 37. 32. 34. 35. 51. 50. 36. 34. 16.
      16. 18. 17. 17. 17. 30. 35. 68. 50. 50. 68. 51. 49. 17. 17. 14.
      20. 20. 32. 69. 68. 0. 1. 0. 2. 0. 1. 255. 67. 51. 16. 0. 0. 0. 0.
      17. 16. 0. 17. 17. 0. 17. 0. 0. 17. 0. 17. 17. 17. 17. 0. 17. 0.
      16. 0. 17. 17. 0. 17. 0. 1. 17. 0. 18. 16. 0. 17. 17. 17. 17. 17.
      17. 17. 17. 17. 17. 0. 17. 0. 16. 0. 16. 17. 17. 17. 17. 17. 17.
      17. 17. 17. 17. 17. 17. 17. 17. 17. 17. 17. 17. 17. 17. 17. 17.
      17. 0. 18. 0. 17. 17. 17. 17. 17. 33. 17. 17. 16. 18. 16. 0. 17.
      17. 17. 17. 16. 0. 16. 0. 17. 0. 17. 0. 17. 17. 17. 17. 0. 16. 17.
      0. 18. 16. 17. 17. 17. 17. 17. 17. 17. 35. 68. 51. 33. 35. 17. 34.
      17. 17. 17. 17. 18. 16. 51. 68. 0. 0. 0. 0. 0. 1. 0.</_>
    <_>
      26. 18. 4. 0. 2. 13. 41. 61. 64. 64. 68. 74. 73. 66. 60. 59. 64.
      68. 69. 65. 57. 54. 57. 62. 68. 75. 82. 81. 74. 68. 67. 69. 76.
      76. 73. 68. 69. 75. 78. 76. 70. 65. 58. 54. 58. 64. 65. 63. 55.
      52. 51. 57. 64. 70. 75. 78. 74. 68. 64. 67. 73. 76. 71. 64. 61.
      62. 57. 61. 53. 46. 44. 47. 52. 55. 49. 48. 43. 50. 56. 50. 48.
      52. 55. 59. 56. 48. 47. 45. 51. 58. 48. 47. 43. 53. 50. 55. 51.
      43. 44. 42. 48. 50. 47. 44. 39. 38. 40. 44. 44. 40. 35. 33. 32.
      38. 51. 58. 61. 59. 48. 48. 45. 54. 55. 57. 47. 43. 43. 43. 42.
      37. 34. 28. 28. 30. 28. 13. 6. 0. 7. 27. 54. 77. 255. 255. 19. 14.
      2. 1. 5. 17. 44. 62. 64. 64. 67. 71. 70. 65. 62. 61. 64. 66. 67.
      63. 58. 56. 58. 60. 70. 75. 79. 78. 74. 70. 69. 71. 75. 75. 73.
      70. 70. 74. 76. 75. 67. 64. 59. 57. 59. 63. 64. 62. 53. 51. 52.
      58. 66. 72. 76. 79. 73. 69. 67. 69. 73. 74. 71. 67. 61. 63. 59.
      60. 51. 49. 41. 48. 54. 53. 49. 43. 47. 52. 53. 55. 43. 51. 55.
      62. 56. 54. 43. 47. 52. 54. 55. 49. 45. 47. 53. 54. 48. 45. 41.
      47. 49. 51. 49. 41. 40. 40. 42. 46. 47. 43. 38. 35. 37. 42. 48.
      58. 61. 58. 51. 42. 51. 50. 57. 52. 49. 44. 45. 42. 39. 41. 33.
      32. 32. 42. 29. 25. 4. 5. 3. 22. 52. 71. 252. 255. 23. 16. 3. 0.
      6. 24. 55. 75. 255. 255. 255. 255. 255. 255. 254. 254. 255. 255.
      255. 255. 254. 254. 255. 255. 254. 255. 255. 255. 255. 254. 254.
      254. 255. 255. 255. 253. 254. 255. 255. 255. 255. 255. 255. 254.
      254. 255. 255. 255. 255. 255. 253. 254. 255. 255. 254. 255. 255.
      254. 253. 254. 255. 255. 254. 253. 255. 252. 255. 254. 255. 252.
      83. 83. 82. 255. 252. 87. 81. 83. 85. 250. 255. 253. 255. 255.
      255. 254. 84. 86. 83. 254. 254. 254. 81. 84. 85. 255. 255. 85. 80.
      77. 83. 80. 253. 84. 78. 76. 77. 81. 82. 80. 76. 73. 74. 72. 84.
      255. 252. 255. 255. 255. 82. 84. 255. 255. 253. 255. 252. 255. 85.
      77. 72. 67. 67. 68. 71. 51. 29. 8. 8. 23. 51. 74. 255. 255. 28.
      22. 7. 2. 9. 27. 58. 77. 255. 255. 255. 254. 254. 255. 255. 255.
      254. 254. 254. 255. 255. 255. 255. 255. 255. 255. 255. 255. 255.
      255. 255. 255. 255. 255. 255. 255. 255. 255. 255. 255. 254. 255.
      255. 255. 255. 255. 255. 255. 255. 254. 254. 255. 255. 255. 255.
      255. 255. 255. 255. 255. 255. 255. 255. 255. 255. 255. 251. 255.
      254. 254. 255. 253. 254. 254. 255. 253. 253. 255. 255. 255. 255.
      255. 250. 255. 254. 254. 255. 251. 255. 254. 255. 255. 253. 255.
      255. 254. 255. 252. 255. 255. 254. 255. 254. 255. 255. 254. 254.
      255. 255. 255. 254. 254. 254. 253. 255. 254. 255. 250. 253. 254.
      252. 255. 254. 253. 255. 251. 255. 255. 253. 254. 255. 255. 255.
      255. 82. 66. 38. 10. 5. 11. 30. 61. 70. 81. 53. 41. 18. 6. 6. 21.
      51. 69. 255. 255. 255. 255. 255. 255. 255. 255. 255. 255. 255.
      255. 255. 255. 254. 254. 255. 255. 254. 254. 254. 255. 255. 255.
      255. 254. 255. 255. 255. 254. 254. 255. 254. 255. 255. 255. 254.
      255. 255. 255. 255. 255. 255. 255. 255. 255. 254. 254. 254. 254.
      255. 255. 255. 254. 254. 254. 251. 255. 254. 254. 255. 255. 252.
      254. 255. 255. 254. 255. 255. 255. 252. 255. 254. 255. 254. 254.
      255. 255. 254. 255. 253. 255. 255. 253. 255. 254. 253. 255. 255.
      254. 254. 253. 255. 255. 254. 252. 255. 255. 255. 255. 255. 255.
      255. 255. 254. 255. 255. 255. 253. 255. 255. 255. 255. 254. 255.
      255. 255. 255. 255. 251. 255. 255. 255. 252. 255. 255. 73. 60. 30.
      9. 7. 7. 32. 52. 73. 85. 61. 45. 18. 4. 5. 22. 56. 76. 255. 255.
      255. 255. 255. 255. 255. 254. 255. 255. 255. 255. 255. 255. 255.
      255. 255. 255. 255. 255. 255. 255. 255. 255. 255. 255. 255. 255.
      255. 255. 255. 255. 255. 255. 255. 255. 255. 255. 255. 255. 254.
      254. 254. 254. 255. 255. 255. 255. 255. 255. 255. 255. 255. 255.
      255. 255. 255. 253. 255. 255. 252. 255. 255. 255. 253. 255. 254.
      255. 253. 255. 255. 255. 255. 250. 255. 255. 255. 254. 255. 251.
      255. 255. 255. 255. 255. 255. 253. 255. 254. 255. 255. 255. 254.
      253. 255. 255. 253. 254. 255. 255. 255. 254. 254. 255. 255. 254.
      254. 255. 253. 253. 255. 254. 252. 255. 254. 252. 254. 255. 252.
      255. 254. 255. 254. 255. 255. 254. 76. 58. 28. 10. 0. 1. 15. 37.
      65. 76. 60. 44. 18. 6. 6. 19. 48. 67. 255. 255. 255. 255. 255.
      255. 255. 255. 254. 254. 254. 255. 255. 255. 255. 255. 255. 255.
      255. 255. 255. 255. 255. 254. 254. 255. 255. 255. 254. 255. 255.
      255. 255. 254. 254. 255. 255. 254. 254. 255. 255. 255. 255. 255.
      255. 255. 255. 254. 255. 255. 255. 255. 255. 255. 255. 255. 252.
      255. 255. 255. 255. 251. 254. 252. 255. 255. 253. 253. 255. 255.
      254. 255. 255. 255. 255. 254. 255. 252. 255. 255. 255. 252. 255.
      254. 254. 254. 255. 253. 255. 254. 255. 252. 255. 255. 254. 254.
      254. 255. 255. 255. 255. 255. 255. 255. 254. 254. 255. 253. 255.
      255. 255. 254. 255. 255. 255. 255. 255. 255. 255. 251. 255. 255.
      253. 255. 254. 253. 74. 55. 23. 6. 0. 7. 17. 48. 68. 80. 56. 39.
      12. 3. 5. 20. 52. 73. 255. 254. 254. 255. 255. 255. 255. 255. 255.
      255. 255. 255. 255. 255. 255. 255. 255. 255. 255. 255. 255. 255.
      255. 255. 254. 255. 255. 255. 255. 255. 255. 255. 255. 255. 255.
      255. 255. 255. 255. 255. 254. 254. 254. 254. 255. 255. 255. 255.
      255. 255. 255. 255. 255. 255. 255. 255. 255. 253. 255. 254. 255.
      255. 255. 255. 255. 252. 255. 254. 254. 255. 255. 253. 254. 254.
      255. 255. 254. 255. 254. 255. 254. 255. 255. 254. 255. 255. 254.
      255. 255. 255. 253. 255. 253. 255. 255. 254. 255. 255. 255. 254.
      254. 255. 255. 255. 254. 255. 255. 255. 255. 254. 255. 255. 255.
      253. 255. 251. 255. 254. 255. 255. 255. 252. 255. 255. 254. 255.
      73. 54. 25. 8. 1. 2. 13. 34. 70. 75. 50. 33. 8. 3. 8. 28. 55. 75.
      255. 255. 255. 255. 253. 255. 255. 255. 255. 255. 255. 255. 255.
      255. 255. 255. 255. 255. 255. 255. 255. 255. 255. 255. 255. 255.
      255. 255. 255. 255. 255. 255. 255. 255. 255. 255. 255. 255. 255.
      255. 255. 255. 255. 255. 255. 255. 255. 255. 255. 255. 255. 255.
      255. 255. 255. 255. 255. 255. 255. 255. 255. 255. 255. 255. 255.
      255. 255. 255. 255. 255. 255. 255. 255. 255. 255. 255. 255. 255.
      255. 255. 255. 255. 255. 255. 255. 255. 255. 255. 255. 255. 255.
      255. 255. 255. 255. 255. 255. 255. 255. 255. 255. 255. 255. 255.
      255. 255. 255. 255. 255. 255. 255. 255. 255. 255. 255. 255. 255.
      255. 255. 255. 255. 255. 255. 254. 255. 254. 74. 59. 31. 10. 3. 2.
      17. 44. 66. 81. 52. 35. 11. 5. 6. 20. 45. 66. 77. 255. 254. 255.
      255. 255. 254. 255. 255. 255. 255. 255. 255. 255. 255. 255. 255.
      255. 255. 255. 255. 255. 255. 255. 255. 255. 255. 255. 255. 255.
      255. 255. 255. 255. 255. 255. 255. 255. 255. 255. 255. 255. 255.
      255. 255. 255. 255. 255. 255. 255. 255. 255. 255. 255. 255. 255.
      255. 255. 255. 255. 255. 255. 255. 255. 255. 255. 255. 255. 255.
      255. 255. 255. 255. 255. 255. 255. 255. 255. 255. 255. 255. 255.
      255. 255. 255. 255. 255. 255. 255. 255. 255. 255. 255. 255. 255.
      255. 255. 255. 255. 255. 255. 255. 255. 255. 255. 255. 255. 255.
      255. 255. 255. 255. 255. 255. 255. 255. 255. 255. 255. 255. 255.
      252. 252. 255. 255. 255. 76. 64. 36. 16. 5. 4. 20. 53. 70. 83. 46.
      31. 8. 3. 4. 17. 43. 68. 83. 253. 252. 255. 253. 255. 254. 254.
      255. 255. 255. 255. 255. 255. 255. 255. 255. 255. 255. 255. 255.
      255. 255. 255. 255. 255. 255. 255. 255. 255. 255. 255. 255. 255.
      255. 255. 255. 255. 255. 255. 255. 255. 255. 255. 255. 255. 255.
      255. 255. 255. 255. 255. 255. 255. 255. 255. 255. 255. 255. 255.
      255. 255. 255. 255. 255. 255. 255. 255. 255. 255. 255. 255. 255.
      255. 255. 255. 255. 255. 255. 255. 255. 255. 255. 255. 255. 255.
      255. 255. 255. 255. 255. 255. 255. 255. 255. 255. 255. 255. 255.
      255. 255. 255. 255. 255. 255. 255. 255. 255. 255. 255. 255. 255.
      255. 255. 255. 255. 255. 255. 255. 255. 252. 255. 255. 254. 255.
      255. 255. 73. 57. 21. 7. 4. 20. 45. 67. 255. 62. 44. 16. 5. 0. 7.
      30. 57. 76. 255. 255. 252. 255. 253. 255. 255. 255. 255. 255. 255.
      255. 255. 255. 255. 255. 255. 255. 255. 255. 255. 255. 255. 255.
      255. 255. 255. 255. 255. 255. 255. 255. 255. 255. 255. 255. 255.
      255. 255. 255. 255. 255. 255. 255. 255. 255. 255. 255. 255. 255.
      255. 255. 255. 255. 255. 255. 255. 255. 255. 255. 255. 255. 255.
      255. 255. 255. 255. 255. 255. 255. 255. 255. 255. 255. 255. 255.
      255. 255. 255. 255. 255. 255. 255. 255. 255. 255. 255. 255. 255.
      255. 255. 255. 255. 255. 255. 255. 255. 255. 255. 255. 255. 255.
      255. 255. 255. 255. 255. 255. 255. 255. 255. 255. 255. 255. 255.
      255. 255. 255. 255. 253. 255. 251. 255. 255. 253. 255. 74. 49. 20.
      3. 9. 22. 52. 79. 251. 58. 41. 14. 4. 1. 10. 34. 63. 82. 254. 252.
      255. 255. 253. 255. 255. 255. 255. 255. 255. 255. 255. 255. 255.
      255. 255. 255. 255. 255. 255. 255. 255. 255. 255. 255. 255. 255.
      255. 255. 255. 255. 255. 255. 255. 255. 255. 255. 255. 255. 255.
      255. 255. 255. 255. 255. 255. 255. 255. 255. 255. 255. 255. 255.
      255. 255. 255. 255. 255. 255. 255. 255. 255. 255. 255. 255. 255.
      255. 255. 255. 255. 255. 255. 255. 255. 255. 255. 255. 255. 255.
      255. 255. 255. 255. 255. 255. 255. 255. 255. 255. 255. 255. 255.
      255. 255. 255. 255. 255. 255. 255. 255. 255. 255. 255. 255. 255.
      255. 255. 255. 255. 255. 255. 255. 255. 255. 255. 255. 255. 255.
      255. 255. 255. 252. 254. 255. 78. 65. 42. 17. 4. 5. 16. 45. 64.
      81. 51. 37. 11. 3. 3. 12. 36. 66. 80. 255. 255. 252. 254. 255.
      252. 255. 255. 255. 255. 255. 255. 255. 255. 255. 255. 255. 255.
      255. 255. 255. 255. 255. 255. 255. 255. 255. 255. 255. 255. 255.
      255. 255. 255. 255. 255. 255. 255. 255. 255. 255. 255. 255. 255.
      255. 255. 255. 255. 255. 255. 255. 255. 255. 255. 255. 255. 255.
      255. 255. 255. 255. 255. 255. 255. 255. 255. 255. 255. 255. 255.
      255. 255. 255. 255. 255. 255. 255. 255. 255. 255. 255. 255. 255.
      255. 255. 255. 255. 255. 255. 255. 255. 255. 255. 255. 255. 255.
      255. 255. 255. 255. 255. 255. 255. 255. 255. 255. 255. 255. 255.
      255. 255. 255. 255. 255. 255. 255. 255. 255. 255. 252. 255. 254.
      255. 254. 255. 82. 65. 37. 11. 4. 4. 14. 39. 64. 70. 51. 40. 14.
      4. 3. 11. 34. 63. 81. 255. 255. 254. 255. 252. 255. 255. 255. 255.
      255. 255. 255. 255. 255. 255. 255. 255. 255. 255. 255. 255. 255.
      255. 255. 255. 255. 255. 255. 255. 255. 255. 255. 255. 255. 255.
      255. 255. 255. 255. 255. 255. 255. 255. 255. 255. 255. 255. 255.
      255. 255. 255. 255. 255. 255. 255. 255. 255. 255. 255. 255. 255.
      255. 255. 255. 255. 255. 255. 255. 255. 255. 255. 255. 255. 255.
      255. 255. 255. 255. 255. 255. 255. 255. 255. 255. 255. 255. 255.
      255. 255. 255. 255. 255. 255. 255. 255. 255. 255. 255. 255. 255.
      255. 255. 255. 255. 255. 255. 255. 255. 255. 255. 255. 255. 255.
      255. 255. 255. 255. 255. 255. 255. 255. 255. 250. 255. 254. 76.
      62. 31. 12. 0. 5. 7. 32. 65. 76. 55. 44. 18. 6. 3. 11. 34. 65. 82.
      255. 254. 255. 254. 254. 255. 252. 255. 255. 255. 255. 255. 255.
      255. 255. 255. 255. 255. 255. 255. 255. 255. 255. 255. 255. 255.
      255. 255. 255. 255. 255. 255. 255. 255. 255. 255. 255. 255. 255.
      255. 255. 255. 255. 255. 255. 255. 255. 255. 255. 255. 255. 255.
      255. 255. 255. 255. 255. 255. 255. 255. 255. 255. 255. 255. 255.
      255. 255. 255. 255. 255. 255. 255. 255. 255. 255. 255. 255. 255.
      255. 255. 255. 255. 255. 255. 255. 255. 255. 255. 255. 255. 255.
      255. 255. 255. 255. 255. 255. 255. 255. 255. 255. 255. 255. 255.
      255. 255. 255. 255. 255. 255. 255. 255. 255. 255. 255. 255. 255.
      255. 255. 254. 254. 255. 255. 254. 255. 80. 67. 42. 16. 5. 2. 6.
      26. 55. 69. 77. 64. 35. 11. 2. 8. 25. 57. 77. 253. 255. 254. 255.
      254. 254. 255. 255. 255. 255. 255. 255. 255. 255. 255. 255. 255.
      255. 255. 255. 255. 255. 255. 255. 255. 255. 255. 255. 255. 255.
      255. 255. 255. 255. 255. 255. 255. 255. 255. 255. 255. 255. 255.
      255. 255. 255. 255. 255. 255. 255. 255. 255. 255. 255. 255. 255.
      255. 255. 255. 255. 255. 255. 255. 255. 255. 255. 255. 255. 255.
      255. 255. 255. 255. 255. 255. 255. 255. 255. 255. 255. 255. 255.
      255. 255. 255. 255. 255. 255. 255. 255. 255. 255. 255. 255. 255.
      255. 255. 255. 255. 255. 255. 255. 255. 255. 255. 255. 255. 255.
      255. 255. 255. 255. 255. 255. 255. 255. 255. 255. 255. 255. 255.
      255. 254. 255. 255. 77. 66. 34. 12. 2. 1. 9. 31. 61. 73. 71. 60.
      32. 10. 3. 11. 30. 61. 76. 255. 254. 255. 255. 254. 255. 252. 255.
      255. 255. 255. 255. 255. 255. 255. 255. 255. 255. 255. 255. 255.
      255. 255. 255. 255. 255. 255. 255. 255. 255. 255. 255. 255. 255.
      255. 255. 255. 255. 255. 255. 255. 255. 255. 255. 255. 255. 255.
      255. 255. 255. 255. 255. 255. 255. 255. 255. 255. 255. 255. 255.
      255. 255. 255. 255. 255. 255. 255. 255. 255. 255. 255. 255. 255.
      255. 255. 255. 255. 255. 255. 255. 255. 255. 255. 255. 255. 255.
      255. 255. 255. 255. 255. 255. 255. 255. 255. 255. 255. 255. 255.
      255. 255. 255. 255. 255. 255. 255. 255. 255. 255. 255. 255. 255.
      255. 255. 255. 255. 255. 255. 255. 255. 253. 255. 254. 255. 255.
      84. 67. 50. 23. 8. 1. 5. 22. 52. 64. 82. 69. 39. 12. 1. 4. 15. 42.
      65. 74. 255. 255. 251. 255. 253. 255. 255. 255. 255. 255. 255.
      255. 255. 255. 255. 255. 255. 255. 255. 255. 255. 255. 255. 255.
      255. 255. 255. 255. 255. 255. 255. 255. 255. 255. 255. 255. 255.
      255. 255. 255. 255. 255. 255. 255. 255. 255. 255. 255. 255. 255.
      255. 255. 255. 255. 255. 255. 255. 255. 255. 255. 255. 255. 255.
      255. 255. 255. 255. 255. 255. 255. 255. 255. 255. 255. 255. 255.
      255. 255. 255. 255. 255. 255. 255. 255. 255. 255. 255. 255. 255.
      255. 255. 255. 255. 255. 255. 255. 255. 255. 255. 255. 255. 255.
      255. 255. 255. 255. 255. 255. 255. 255. 255. 255. 255. 255. 255.
      255. 255. 255. 254. 255. 254. 255. 253. 254. 82. 72. 52. 23. 7. 2.
      7. 25. 57. 72. 75. 64. 36. 13. 4. 7. 14. 36. 63. 75. 255. 253.
      255. 255. 254. 253. 255. 255. 255. 255. 255. 255. 255. 255. 255.
      255. 255. 255. 255. 255. 255. 255. 255. 255. 255. 255. 255. 255.
      255. 255. 255. 255. 255. 255. 255. 255. 255. 255. 255. 255. 255.
      255. 255. 255. 255. 255. 255. 255. 255. 255. 255. 255. 255. 255.
      255. 255. 255. 255. 255. 255. 255. 255. 255. 255. 255. 255. 255.
      255. 255. 255. 255. 255. 255. 255. 255. 255. 255. 255. 255. 255.
      255. 255. 255. 255. 255. 255. 255. 255. 255. 255. 255. 255. 255.
      255. 255. 255. 255. 255. 255. 255. 255. 255. 255. 255. 255. 255.
      255. 255. 255. 255. 255. 255. 255. 255. 255. 255. 255. 255. 253.
      255. 255. 255. 254. 255. 84. 70. 59. 28. 10. 2. 2. 16. 44. 59. 71.
      58. 30. 8. 0. 1. 5. 24. 53. 76. 251. 255. 255. 254. 255. 255. 255.
      255. 255. 255. 255. 255. 255. 255. 255. 255. 255. 255. 255. 255.
      255. 255. 255. 255. 255. 255. 255. 255. 255. 255. 255. 255. 255.
      255. 255. 255. 255. 255. 255. 255. 255. 255. 255. 255. 255. 255.
      255. 255. 255. 255. 255. 255. 255. 255. 255. 255. 255. 255. 255.
      255. 255. 255. 255. 255. 255. 255. 255. 255. 255. 255. 255. 255.
      255. 255. 255. 255. 255. 255. 255. 255. 255. 255. 255. 255. 255.
      255. 255. 255. 255. 255. 255. 255. 255. 255. 255. 255. 255. 255.
      255. 255. 255. 255. 255. 255. 255. 255. 255. 255. 255. 255. 255.
      255. 255. 255. 255. 255. 255. 255. 255. 252. 255. 255. 255. 253.
      255. 78. 59. 28. 9. 3. 6. 20. 48. 63. 69. 55. 27. 7. 1. 3. 8. 30.
      62. 77. 255. 254. 250. 255. 255. 252. 255. 255. 255. 255. 255.
      255. 255. 255. 255. 255. 255. 255. 255. 255. 255. 255. 255. 255.
      255. 255. 255. 255. 255. 255. 255. 255. 255. 255. 255. 255. 255.
      255. 255. 255. 255. 255. 255. 255. 255. 255. 255. 255. 255. 255.
      255. 255. 255. 255. 255. 255. 255. 255. 255. 255. 255. 255. 255.
      255. 255. 255. 255. 255. 255. 255. 255. 255. 255. 255. 255. 255.
      255. 255. 255. 255. 255. 255. 255. 255. 255. 255. 255. 255. 255.
      255. 255. 255. 255. 255. 255. 255. 255. 255. 255. 255. 255. 255.
      255. 255. 255. 255. 255. 255. 255. 255. 255. 255. 255. 255. 255.
      255. 255. 255. 255. 253. 255. 254. 255. 255. 255. 75. 58. 27. 8.
      1. 5. 20. 50. 64. 65. 50. 23. 5. 0. 1. 9. 34. 60. 79. 254. 254.
      255. 252. 251. 255. 255. 255. 255. 255. 255. 255. 255. 255. 255.
      255. 255. 255. 255. 255. 255. 255. 255. 255. 255. 255. 255. 255.
      255. 255. 255. 255. 255. 255. 255. 255. 255. 255. 255. 255. 255.
      255. 255. 255. 255. 255. 255. 255. 255. 255. 255. 255. 255. 255.
      255. 255. 255. 255. 255. 255. 255. 255. 255. 255. 255. 255. 255.
      255. 255. 255. 255. 255. 255. 255. 255. 255. 255. 255. 255. 255.
      255. 255. 255. 255. 255. 255. 255. 255. 255. 255. 255. 255. 255.
      255. 255. 255. 255. 255. 255. 255. 255. 255. 255. 255. 255. 255.
      255. 255. 255. 255. 255. 255. 255. 255. 255. 255. 255. 255. 253.
      255. 254. 255. 254. 254. 252. 77. 62. 30. 11. 3. 7. 22. 50. 63.
      72. 58. 31. 13. 5. 4. 13. 40. 67. 255. 253. 254. 254. 255. 255.
      255. 255. 255. 255. 255. 255. 255. 255. 255. 255. 255. 255. 255.
      255. 255. 255. 255. 255. 255. 255. 255. 255. 255. 255. 255. 255.
      255. 255. 255. 255. 255. 255. 255. 255. 255. 255. 255. 255. 255.
      255. 255. 255. 255. 255. 255. 255. 255. 255. 255. 255. 255. 255.
      255. 255. 255. 255. 255. 255. 255. 255. 255. 255. 255. 255. 255.
      255. 255. 255. 255. 255. 255. 255. 255. 255. 255. 255. 255. 255.
      255. 255. 255. 255. 255. 255. 255. 255. 255. 255. 255. 255. 255.
      255. 255. 255. 255. 255. 255. 255. 255. 255. 255. 255. 255. 255.
      255. 255. 255. 255. 255. 255. 255. 255. 255. 255. 254. 255. 255.
      253. 254. 255. 76. 59. 28. 8. 1. 5. 20. 46. 57. 74. 66. 43. 16. 8.
      3. 19. 44. 71. 252. 255. 254. 255. 255. 253. 255. 255. 253. 255.
      255. 255. 255. 254. 255. 254. 255. 255. 255. 254. 255. 254. 255.
      254. 255. 255. 255. 255. 255. 255. 253. 255. 255. 255. 255. 255.
      254. 254. 255. 255. 255. 255. 255. 255. 255. 255. 255. 255. 255.
      255. 254. 254. 255. 255. 255. 255. 255. 254. 255. 255. 255. 255.
      255. 255. 255. 254. 254. 255. 255. 255. 255. 253. 255. 255. 255.
      255. 255. 255. 254. 254. 255. 255. 255. 253. 255. 255. 255. 254.
      255. 255. 254. 254. 255. 255. 255. 255. 254. 254. 255. 255. 255.
      255. 255. 254. 255. 255. 255. 255. 255. 255. 255. 255. 255. 254.
      254. 255. 255. 255. 254. 255. 252. 255. 255. 255. 253. 255. 74.
      54. 24. 6. 0. 3. 12. 34. 52. 77. 69. 53. 24. 6. 5. 12. 43. 67. 84.
      255. 254. 255. 254. 255. 251. 253. 255. 253. 254. 255. 254. 254.
      255. 252. 255. 255. 250. 255. 255. 254. 255. 255. 255. 255. 254.
      255. 255. 255. 255. 255. 253. 255. 255. 255. 255. 254. 255. 255.
      255. 255. 255. 255. 254. 254. 255. 254. 255. 255. 255. 255. 255.
      255. 254. 254. 255. 255. 255. 255. 255. 255. 255. 252. 253. 254.
      255. 255. 255. 255. 255. 255. 255. 254. 254. 255. 255. 255. 254.
      255. 253. 254. 253. 255. 254. 255. 255. 255. 255. 255. 255. 255.
      255. 255. 255. 255. 255. 255. 255. 255. 255. 255. 255. 255. 255.
      255. 254. 255. 255. 255. 255. 255. 255. 255. 255. 255. 255. 255.
      255. 254. 255. 255. 255. 253. 255. 255. 73. 57. 28. 9. 1. 3. 11.
      35. 56. 80. 75. 53. 22. 4. 1. 11. 35. 64. 82. 252. 254. 255. 255.
      253. 255. 255. 255. 255. 255. 255. 255. 254. 254. 255. 255. 255.
      255. 254. 255. 255. 253. 255. 255. 255. 255. 255. 253. 253. 254.
      252. 255. 255. 254. 254. 255. 255. 252. 255. 255. 255. 255. 255.
      255. 255. 255. 255. 255. 255. 255. 255. 255. 255. 255. 254. 255.
      255. 255. 255. 255. 255. 255. 255. 255. 255. 255. 255. 254. 254.
      254. 255. 255. 254. 254. 255. 255. 255. 255. 255. 255. 255. 255.
      255. 255. 253. 255. 255. 255. 255. 255. 255. 255. 254. 255. 255.
      255. 255. 255. 255. 254. 255. 255. 255. 255. 254. 254. 254. 255.
      255. 255. 254. 255. 255. 255. 254. 254. 255. 255. 255. 254. 254.
      253. 255. 253. 254. 75. 53. 24. 4. 0. 1. 10. 35. 54. 86. 70. 47.
      21. 10. 0. 13. 38. 65. 78. 78. 75. 72. 79. 83. 252. 77. 75. 80.
      77. 253. 84. 75. 79. 78. 81. 253. 255. 81. 80. 66. 62. 61. 64. 70.
      77. 80. 81. 82. 85. 255. 255. 252. 85. 83. 250. 255. 255. 255.
      255. 254. 253. 254. 255. 255. 254. 255. 255. 254. 255. 255. 255.
      255. 255. 255. 255. 255. 254. 254. 255. 255. 255. 254. 254. 253.
      255. 255. 255. 255. 255. 253. 254. 255. 255. 255. 253. 253. 255.
      252. 255. 251. 255. 83. 83. 81. 255. 255. 255. 255. 254. 254. 255.
      255. 255. 255. 254. 254. 255. 255. 255. 255. 254. 253. 255. 255.
      255. 255. 254. 255. 255. 255. 255. 254. 254. 255. 255. 255. 254.
      253. 255. 255. 255. 255. 255. 253. 75. 56. 29. 8. 2. 4. 9. 29. 43.
      72. 66. 41. 10. 5. 3. 5. 26. 39. 43. 42. 36. 37. 41. 46. 49. 47.
      46. 40. 44. 48. 48. 49. 40. 42. 46. 52. 51. 51. 42. 37. 34. 30.
      33. 38. 42. 43. 42. 42. 44. 49. 52. 56. 50. 46. 50. 52. 56. 60.
      57. 53. 52. 55. 58. 57. 55. 48. 51. 57. 63. 64. 59. 53. 50. 57.
      56. 53. 50. 52. 56. 57. 55. 49. 50. 53. 59. 62. 60. 55. 51. 57.
      62. 67. 68. 63. 59. 60. 64. 71. 76. 68. 61. 50. 45. 48. 48. 51.
      56. 58. 57. 60. 66. 71. 71. 64. 62. 64. 69. 73. 73. 68. 64. 66.
      71. 77. 78. 74. 70. 71. 74. 73. 69. 64. 65. 71. 75. 71. 65. 63.
      64. 76. 81. 75. 69. 70. 67. 60. 35. 11. 1. 1. 8. 35. 51. 79. 64.
      33. 14. 0. 1. 9. 6. 14. 19. 16. 15. 14. 13. 16. 17. 17. 17. 14.
      17. 22. 22. 9. 17. 12. 19. 15. 23. 23. 14. 11. 3. 7. 9. 11. 12.
      13. 12. 14. 16. 20. 23. 27. 22. 18. 22. 26. 34. 31. 27. 21. 19.
      23. 26. 25. 21. 21. 21. 24. 29. 31. 27. 24. 24. 27. 26. 22. 18.
      19. 25. 27. 25. 19. 19. 21. 27. 31. 31. 25. 20. 22. 28. 34. 34.
      28. 24. 26. 30. 39. 34. 33. 26. 19. 18. 13. 18. 20. 26. 28. 26.
      26. 31. 35. 36. 30. 28. 28. 35. 42. 42. 37. 31. 31. 37. 43. 44.
      38. 33. 33. 37. 41. 35. 30. 30. 37. 42. 38. 31. 29. 35. 39. 43.
      37. 36. 35. 33. 34. 22. 10. 5. 5. 11. 39. 53. 75. 64. 48. 20. 7.
      4. 7. 10. 10. 18. 15. 14. 12. 13. 8. 16. 13. 17. 16. 19. 25. 19.
      21. 12. 13. 15. 21. 21. 20. 15. 12. 14. 13. 14. 13. 12. 11. 12.
      15. 16. 17. 21. 24. 22. 21. 24. 29. 34. 32. 28. 22. 20. 22. 25.
      22. 17. 6. 9. 17. 27. 28. 19. 10. 6. 15. 17. 16. 10. 8. 13. 18.
      18. 12. 9. 7. 10. 17. 21. 23. 22. 26. 28. 29. 27. 24. 24. 27. 29.
      29. 32. 23. 22. 20. 13. 14. 5. 8. 13. 18. 20. 19. 21. 26. 31. 27.
      23. 22. 27. 34. 36. 30. 24. 19. 22. 25. 24. 19. 13. 13. 16. 18.
      15. 10. 9. 13. 18. 17. 12. 11. 10. 11. 16. 22. 19. 25. 32. 30. 21.
      8. 2. 3. 14. 47. 62. 254. 79. 60. 48. 32. 24. 24. 33. 41. 43. 45.
      45. 40. 37. 37. 38. 43. 41. 45. 47. 50. 47. 45. 40. 41. 43. 43.
      48. 41. 40. 36. 37. 41. 42. 41. 38. 37. 39. 40. 41. 39. 43. 47.
      46. 46. 52. 54. 56. 51. 47. 42. 40. 42. 43. 39. 33. 31. 30. 32.
      37. 38. 32. 27. 27. 28. 34. 35. 29. 25. 28. 34. 36. 33. 28. 23.
      24. 29. 35. 40. 43. 43. 42. 38. 35. 35. 38. 41. 41. 35. 32. 31.
      36. 38. 37. 32. 30. 27. 30. 35. 36. 31. 26. 28. 33. 38. 33. 29.
      33. 39. 40. 36. 30. 27. 26. 26. 25. 20. 15. 15. 17. 21. 21. 18.
      15. 17. 21. 22. 21. 15. 17. 12. 17. 20. 27. 31. 34. 31. 27. 20.
      18. 22. 32. 57. 64. 255. 78. 68. 57. 40. 33. 38. 55. 68. 73. 80.
      81. 74. 67. 65. 68. 75. 78. 76. 76. 83. 255. 81. 74. 71. 72. 75.
      255. 78. 71. 66. 68. 72. 81. 74. 68. 66. 68. 76. 78. 73. 72. 76.
      81. 255. 255. 255. 255. 255. 255. 79. 79. 79. 77. 70. 61. 50. 49.
      58. 67. 67. 55. 40. 35. 48. 59. 62. 49. 37. 44. 57. 64. 57. 41.
      30. 33. 46. 61. 69. 75. 81. 75. 68. 61. 64. 70. 78. 71. 63. 54.
      54. 61. 71. 68. 59. 46. 39. 51. 62. 64. 52. 40. 47. 59. 66. 59.
      54. 59. 67. 72. 64. 53. 40. 37. 37. 34. 27. 20. 16. 20. 26. 29.
      22. 17. 19. 25. 29. 27. 20. 15. 15. 19. 25. 38. 54. 61. 53. 36.
      27. 19. 17. 27. 51. 63.</_>
    <_>
      0. 3. 0. 0. 0. 0. 2. 0. 0. 0. 0. 0. 0. 0. 0. 0. 0. 0. 0. 0. 0. 0.
      0. 0. 0. 0. 0. 0. 0. 0. 0. 0. 0. 0. 0. 0. 0. 0. 0. 0. 0. 0. 0. 0.
      0. 0. 0. 0. 0. 0. 0. 0. 0. 0. 0. 0. 0. 0. 0. 0. 0. 0. 0. 0. 0. 0.
      0. 0. 0. 0. 0. 0. 0. 0. 0. 0. 0. 0. 0. 0. 0. 0. 0. 0. 0. 0. 0. 0.
      0. 0. 0. 0. 0. 0. 0. 0. 0. 0. 0. 0. 0. 0. 0. 0. 0. 0. 0. 0. 0. 0.
      0. 0. 0. 0. 0. 0. 0. 0. 0. 0. 0. 0. 0. 0. 0. 0. 0. 0. 0. 0. 0. 0.
      0. 0. 0. 0. 0. 0. 0. 1. 1. 11. 40. 41. 1. 17. 19. 25. 31. 30. 27.
      30. 29. 29. 29. 29. 29. 29. 29. 29. 23. 24. 23. 24. 28. 29. 28.
      28. 29. 29. 29. 29. 29. 29. 29. 29. 29. 29. 29. 29. 29. 29. 29.
      29. 29. 29. 29. 29. 29. 29. 29. 29. 28. 28. 29. 28. 24. 23. 24.
      23. 29. 29. 29. 29. 29. 29. 29. 29. 29. 29. 29. 29. 29. 29. 29.
      29. 29. 29. 29. 29. 29. 29. 29. 29. 29. 29. 29. 29. 29. 29. 29.
      29. 23. 24. 23. 24. 28. 29. 28. 28. 29. 29. 29. 29. 29. 29. 29.
      29. 29. 29. 29. 29. 29. 29. 29. 29. 29. 29. 29. 29. 29. 29. 29.
      29. 28. 28. 29. 28. 24. 23. 24. 23. 29. 29. 29. 29. 29. 29. 29.
      29. 30. 23. 22. 19. 8. 11. 39. 40. 0. 21. 41. 54. 65. 64. 64. 64.
      65. 65. 65. 65. 65. 65. 65. 65. 59. 58. 58. 60. 65. 67. 66. 66.
      65. 65. 65. 65. 65. 65. 65. 65. 65. 65. 65. 65. 65. 65. 65. 65.
      65. 65. 65. 65. 65. 65. 65. 65. 66. 66. 67. 65. 60. 58. 58. 59.
      65. 65. 65. 65. 65. 65. 65. 65. 65. 65. 65. 65. 65. 65. 65. 65.
      65. 65. 65. 65. 65. 65. 65. 65. 65. 65. 65. 65. 65. 65. 65. 65.
      59. 58. 58. 60. 65. 67. 66. 66. 65. 65. 65. 65. 65. 65. 65. 65.
      65. 65. 65. 65. 65. 65. 65. 65. 65. 65. 65. 65. 65. 65. 65. 65.
      66. 66. 67. 65. 60. 58. 58. 59. 65. 65. 65. 65. 65. 65. 65. 65.
      62. 59. 46. 19. 11. 15. 40. 40. 0. 24. 55. 72. 86. 84. 86. 86. 85.
      85. 85. 85. 85. 85. 85. 85. 77. 77. 76. 78. 82. 84. 83. 82. 85.
      85. 85. 85. 85. 85. 85. 85. 85. 85. 85. 85. 85. 85. 85. 85. 85.
      85. 85. 85. 85. 85. 85. 85. 82. 83. 84. 82. 78. 76. 77. 77. 85.
      85. 85. 85. 85. 85. 85. 85. 85. 85. 85. 85. 85. 85. 85. 85. 85.
      85. 85. 85. 85. 85. 85. 85. 85. 85. 85. 85. 85. 85. 85. 85. 77.
      77. 76. 78. 82. 84. 83. 82. 85. 85. 85. 85. 85. 85. 85. 85. 85.
      85. 85. 85. 85. 85. 85. 85. 85. 85. 85. 85. 85. 85. 85. 85. 82.
      83. 84. 82. 78. 76. 77. 77. 85. 85. 85. 85. 85. 85. 85. 85. 86.
      76. 62. 21. 13. 8. 42. 40. 0. 24. 56. 77. 254. 255. 254. 253. 255.
      255. 255. 255. 255. 255. 255. 255. 255. 255. 254. 254. 255. 255.
      255. 255. 255. 255. 255. 255. 255. 255. 255. 255. 255. 255. 255.
      255. 255. 255. 255. 255. 255. 255. 255. 255. 255. 255. 255. 255.
      255. 255. 255. 255. 254. 254. 255. 255. 255. 255. 255. 255. 255.
      255. 255. 255. 255. 255. 255. 255. 255. 255. 255. 255. 255. 255.
      255. 255. 255. 255. 255. 255. 255. 255. 255. 255. 255. 255. 255.
      255. 255. 255. 254. 254. 255. 255. 255. 255. 255. 255. 255. 255.
      255. 255. 255. 255. 255. 255. 255. 255. 255. 255. 255. 255. 255.
      255. 255. 255. 255. 255. 255. 255. 255. 255. 255. 255. 254. 254.
      255. 255. 255. 255. 255. 255. 255. 255. 255. 255. 255. 74. 65. 32.
      8. 13. 40. 41. 0. 23. 59. 76. 255. 255. 255. 255. 255. 255. 255.
      255. 255. 255. 255. 255. 255. 255. 255. 255. 255. 255. 254. 255.
      255. 255. 255. 255. 255. 255. 255. 255. 255. 255. 255. 255. 255.
      255. 255. 255. 255. 255. 255. 255. 255. 255. 255. 255. 255. 254.
      255. 255. 255. 255. 255. 255. 255. 255. 255. 255. 255. 255. 255.
      255. 255. 255. 255. 255. 255. 255. 255. 255. 255. 255. 255. 255.
      255. 255. 255. 255. 255. 255. 255. 255. 255. 255. 255. 255. 255.
      255. 255. 255. 255. 255. 254. 255. 255. 255. 255. 255. 255. 255.
      255. 255. 255. 255. 255. 255. 255. 255. 255. 255. 255. 255. 255.
      255. 255. 255. 255. 255. 255. 254. 255. 255. 255. 255. 255. 255.
      255. 255. 255. 255. 255. 255. 255. 255. 255. 74. 70. 34. 12. 10.
      40. 40. 0. 18. 59. 75. 254. 253. 255. 254. 255. 255. 255. 255.
      255. 255. 255. 255. 254. 255. 255. 254. 255. 255. 254. 255. 255.
      255. 255. 255. 255. 255. 255. 255. 255. 255. 255. 255. 255. 255.
      255. 255. 255. 255. 255. 255. 255. 255. 255. 255. 255. 254. 255.
      255. 254. 255. 255. 254. 255. 255. 255. 255. 255. 255. 255. 255.
      255. 255. 255. 255. 255. 255. 255. 255. 255. 255. 255. 255. 255.
      255. 255. 255. 255. 255. 255. 255. 255. 255. 255. 255. 254. 255.
      255. 254. 255. 255. 254. 255. 255. 255. 255. 255. 255. 255. 255.
      255. 255. 255. 255. 255. 255. 255. 255. 255. 255. 255. 255. 255.
      255. 255. 255. 255. 255. 254. 255. 255. 254. 255. 255. 254. 255.
      255. 255. 255. 255. 255. 255. 255. 254. 79. 68. 27. 11. 15. 39.
      40. 0. 23. 59. 74. 255. 255. 253. 255. 255. 255. 255. 255. 255.
      255. 255. 255. 254. 255. 254. 254. 255. 255. 255. 255. 255. 255.
      255. 255. 255. 255. 255. 255. 255. 255. 255. 255. 255. 255. 255.
      255. 255. 255. 255. 255. 255. 255. 255. 255. 255. 255. 255. 255.
      254. 254. 255. 254. 255. 255. 255. 255. 255. 255. 255. 255. 255.
      255. 255. 255. 255. 255. 255. 255. 255. 255. 255. 255. 255. 255.
      255. 255. 255. 255. 255. 255. 255. 255. 255. 255. 254. 255. 254.
      254. 255. 255. 255. 255. 255. 255. 255. 255. 255. 255. 255. 255.
      255. 255. 255. 255. 255. 255. 255. 255. 255. 255. 255. 255. 255.
      255. 255. 255. 255. 255. 255. 255. 254. 254. 255. 254. 255. 255.
      255. 255. 255. 255. 255. 255. 255. 77. 67. 32. 10. 13. 37. 43. 0.
      22. 58. 75. 255. 255. 255. 255. 255. 255. 255. 255. 255. 255. 255.
      255. 255. 255. 255. 255. 255. 255. 255. 255. 255. 255. 255. 255.
      255. 255. 255. 255. 255. 255. 255. 255. 255. 255. 255. 255. 255.
      255. 255. 255. 255. 255. 255. 255. 255. 255. 255. 255. 255. 255.
      255. 255. 255. 255. 255. 255. 255. 255. 255. 255. 255. 255. 255.
      255. 255. 255. 255. 255. 255. 255. 255. 255. 255. 255. 255. 255.
      255. 255. 255. 255. 255. 255. 255. 255. 255. 255. 255. 255. 255.
      255. 255. 255. 255. 255. 255. 255. 255. 255. 255. 255. 255. 255.
      255. 255. 255. 255. 255. 255. 255. 255. 255. 255. 255. 255. 255.
      255. 255. 255. 255. 255. 255. 255. 255. 255. 255. 255. 255. 255.
      255. 255. 255. 255. 255. 76. 67. 31. 11. 12. 39. 41. 0. 22. 58.
      75. 255. 255. 255. 255. 255. 255. 255. 255. 255. 255. 255. 255.
      255. 255. 255. 255. 255. 255. 255. 255. 255. 255. 255. 255. 255.
      255. 255. 255. 255. 255. 255. 255. 255. 255. 255. 255. 255. 255.
      255. 255. 255. 255. 255. 255. 255. 255. 255. 255. 255. 255. 255.
      255. 255. 255. 255. 255. 255. 255. 255. 255. 255. 255. 255. 255.
      255. 255. 255. 255. 255. 255. 255. 255. 255. 255. 255. 255. 255.
      255. 255. 255. 255. 255. 255. 255. 255. 255. 255. 255. 255. 255.
      255. 255. 255. 255. 255. 255. 255. 255. 255. 255. 255. 255. 255.
      255. 255. 255. 255. 255. 255. 255. 255. 255. 255. 255. 255. 255.
      255. 255. 255. 255. 255. 255. 255. 255. 255. 255. 255. 255. 255.
      255. 255. 255. 255. 76. 67. 31. 11. 12. 39. 41. 0. 22. 58. 75.
      255. 255. 255. 255. 255. 255. 255. 255. 255. 255. 255. 255. 255.
      255. 255. 255. 255. 255. 255. 255. 255. 255. 255. 255. 255. 255.
      255. 255. 255. 255. 255. 255. 255. 255. 255. 255. 255. 255. 255.
      255. 255. 255. 255. 255. 255. 255. 255. 255. 255. 255. 255. 255.
      255. 255. 255. 255. 255. 255. 255. 255. 255. 255. 255. 255. 255.
      255. 255. 255. 255. 255. 255. 255. 255. 255. 255. 255. 255. 255.
      255. 255. 255. 255. 255. 255. 255. 255. 255. 255. 255. 255. 255.
      255. 255. 255. 255. 255. 255. 255. 255. 255. 255. 255. 255. 255.
      255. 255. 255. 255. 255. 255. 255. 255. 255. 255. 255. 255. 255.
      255. 255. 255. 255. 255. 255. 255. 255. 255. 255. 255. 255. 255.
      255. 255. 255. 76. 67. 31. 11. 12. 39. 41. 0. 22. 58. 75. 255.
      255. 255. 255. 255. 255. 255. 255. 255. 255. 255. 255. 255. 255.
      255. 255. 255. 255. 255. 255. 255. 255. 255. 255. 255. 255. 255.
      255. 255. 255. 255. 255. 255. 255. 255. 255. 255. 255. 255. 255.
      255. 255. 255. 255. 255. 255. 255. 255. 255. 255. 255. 255. 255.
      255. 255. 255. 255. 255. 255. 255. 255. 255. 255. 255. 255. 255.
      255. 255. 255. 255. 255. 255. 255. 255. 255. 255. 255. 255. 255.
      255. 255. 255. 255. 255. 255. 255. 255. 255. 255. 255. 255. 255.
      255. 255. 255. 255. 255. 255. 255. 255. 255. 255. 255. 255. 255.
      255. 255. 255. 255. 255. 255. 255. 255. 255. 255. 255. 255. 255.
      255. 255. 255. 255. 255. 255. 255. 255. 255. 255. 255. 255. 255.
      255. 255. 76. 67. 31. 11. 12. 39. 41. 0. 22. 58. 75. 255. 255.
      255. 255. 255. 255. 255. 255. 255. 255. 255. 255. 255. 255. 255.
      255. 255. 255. 255. 255. 255. 255. 255. 255. 255. 255. 255. 255.
      255. 255. 255. 255. 255. 255. 255. 255. 255. 255. 255. 255. 255.
      255. 255. 255. 255. 255. 255. 255. 255. 255. 255. 255. 255. 255.
      255. 255. 255. 255. 255. 255. 255. 255. 255. 255. 255. 255. 255.
      255. 255. 255. 255. 255. 255. 255. 255. 255. 255. 255. 255. 255.
      255. 255. 255. 255. 255. 255. 255. 255. 255. 255. 255. 255. 255.
      255. 255. 255. 255. 255. 255. 255. 255. 255. 255. 255. 255. 255.
      255. 255. 255. 255. 255. 255. 255. 255. 255. 255. 255. 255. 255.
      255. 255. 255. 255. 255. 255. 255. 255. 255. 255. 255. 255. 255.
      255. 76. 67. 31. 11. 12. 39. 41. 0. 22. 58. 75. 255. 255. 255.
      255. 255. 255. 255. 255. 255. 255. 255. 255. 255. 255. 255. 255.
      255. 255. 255. 255. 255. 255. 255. 255. 255. 255. 255. 255. 255.
      255. 255. 255. 255. 255. 255. 255. 255. 255. 255. 255. 255. 255.
      255. 255. 255. 255. 255. 255. 255. 255. 255. 255. 255. 255. 255.
      255. 255. 255. 255. 255. 255. 255. 255. 255. 255. 255. 255. 255.
      255. 255. 255. 255. 255. 255. 255. 255. 255. 255. 255. 255. 255.
      255. 255. 255. 255. 255. 255. 255. 255. 255. 255. 255. 255. 255.
      255. 255. 255. 255. 255. 255. 255. 255. 255. 255. 255. 255. 255.
      255. 255. 255. 255. 255. 255. 255. 255. 255. 255. 255. 255. 255.
      255. 255. 255. 255. 255. 255. 255. 255. 255. 255. 255. 255. 255.
      76. 67. 31. 11. 12. 39. 41. 0. 22. 58. 75. 255. 255. 255. 255.
      255. 255. 255. 255. 255. 255. 255. 255. 255. 255. 255. 255. 255.
      255. 255. 255. 255. 255. 255. 255. 255. 255. 255. 255. 255. 255.
      255. 255. 255. 255. 255. 255. 255. 255. 255. 255. 255. 255. 255.
      255. 255. 255. 255. 255. 255. 255. 255. 255. 255. 255. 255. 255.
      255. 255. 255. 255. 255. 255. 255. 255. 255. 255. 255. 255. 255.
      255. 255. 255. 255. 255. 255. 255. 255. 255. 255. 255. 255. 255.
      255. 255. 255. 255. 255. 255. 255. 255. 255. 255. 255. 255. 255.
      255. 255. 255. 255. 255. 255. 255. 255. 255. 255. 255. 255. 255.
      255. 255. 255. 255. 255. 255. 255. 255. 255. 255. 255. 255. 255.
      255. 255. 255. 255. 255. 255. 255. 255. 255. 255. 255. 255. 76.
      67. 31. 11. 12. 39. 41. 0. 22. 58. 75. 255. 255. 255. 255. 255.
      255. 255. 255. 255. 255. 255. 255. 255. 255. 255. 255. 255. 255.
      255. 255. 255. 255. 255. 255. 255. 255. 255. 255. 255. 255. 255.
      255. 255. 255. 255. 255. 255. 255. 255. 255. 255. 255. 255. 255.
      255. 255. 255. 255. 255. 255. 255. 255. 255. 255. 255. 255. 255.
      255. 255. 255. 255. 255. 255. 255. 255. 255. 255. 255. 255. 255.
      255. 255. 255. 255. 255. 255. 255. 255. 255. 255. 255. 255. 255.
      255. 255. 255. 255. 255. 255. 255. 255. 255. 255. 255. 255. 255.
      255. 255. 255. 255. 255. 255. 255. 255. 255. 255. 255. 255. 255.
      255. 255. 255. 255. 255. 255. 255. 255. 255. 255. 255. 255. 255.
      255. 255. 255. 255. 255. 255. 255. 255. 255. 255. 255. 76. 67. 31.
      11. 12. 39. 41. 0. 22. 58. 75. 255. 255. 255. 255. 255. 255. 255.
      255. 255. 255. 255. 255. 255. 255. 255. 255. 255. 255. 255. 255.
      255. 255. 255. 255. 255. 255. 255. 255. 255. 255. 255. 255. 255.
      255. 255. 255. 255. 255. 255. 255. 255. 255. 255. 255. 255. 255.
      255. 255. 255. 255. 255. 255. 255. 255. 255. 255. 255. 255. 255.
      255. 255. 255. 255. 255. 255. 255. 255. 255. 255. 255. 255. 255.
      255. 255. 255. 255. 255. 255. 255. 255. 255. 255. 255. 255. 255.
      255. 255. 255. 255. 255. 255. 255. 255. 255. 255. 255. 255. 255.
      255. 255. 255. 255. 255. 255. 255. 255. 255. 255. 255. 255. 255.
      255. 255. 255. 255. 255. 255. 255. 255. 255. 255. 255. 255. 255.
      255. 255. 255. 255. 255. 255. 255. 255. 255. 76. 67. 31. 11. 12.
      39. 41. 0. 22. 58. 75. 255. 255. 255. 255. 255. 255. 255. 255.
      255. 255. 255. 255. 255. 255. 255. 255. 255. 255. 255. 255. 255.
      255. 255. 255. 255. 255. 255. 255. 255. 255. 255. 255. 255. 255.
      255. 255. 255. 255. 255. 255. 255. 255. 255. 255. 255. 255. 255.
      255. 255. 255. 255. 255. 255. 255. 255. 255. 255. 255. 255. 255.
      255. 255. 255. 255. 255. 255. 255. 255. 255. 255. 255. 255. 255.
      255. 255. 255. 255. 255. 255. 255. 255. 255. 255. 255. 255. 255.
      255. 255. 255. 255. 255. 255. 255. 255. 255. 255. 255. 255. 255.
      255. 255. 255. 255. 255. 255. 255. 255. 255. 255. 255. 255. 255.
      255. 255. 255. 255. 255. 255. 255. 255. 255. 255. 255. 255. 255.
      255. 255. 255. 255. 255. 255. 255. 255. 76. 67. 31. 11. 12. 39.
      41. 0. 22. 58. 75. 255. 255. 255. 255. 255. 255. 255. 255. 255.
      255. 255. 255. 255. 255. 255. 255. 255. 255. 255. 255. 255. 255.
      255. 255. 255. 255. 255. 255. 255. 255. 255. 255. 255. 255. 255.
      255. 255. 255. 255. 255. 255. 255. 255. 255. 255. 255. 255. 255.
      255. 255. 255. 255. 255. 255. 255. 255. 255. 255. 255. 255. 255.
      255. 255. 255. 255. 255. 255. 255. 255. 255. 255. 255. 255. 255.
      255. 255. 255. 255. 255. 255. 255. 255. 255. 255. 255. 255. 255.
      255. 255. 255. 255. 255. 255. 255. 255. 255. 255. 255. 255. 255.
      255. 255. 255. 255. 255. 255. 255. 255. 255. 255. 255. 255. 255.
      255. 255. 255. 255. 255. 255. 255. 255. 255. 255. 255. 255. 255.
      255. 255. 255. 255. 255. 255. 255. 76. 67. 31. 11. 12. 39. 41. 0.
      22. 58. 75. 255. 255. 255. 255. 255. 255. 255. 255. 255. 255. 255.
      255. 255. 255. 255. 255. 255. 255. 255. 255. 255. 255. 255. 255.
      255. 255. 255. 255. 255. 255. 255. 255. 255. 255. 255. 255. 255.
      255. 255. 255. 255. 255. 255. 255. 255. 255. 255. 255. 255. 255.
      255. 255. 255. 255. 255. 255. 255. 255. 255. 255. 255. 255. 255.
      255. 255. 255. 255. 255. 255. 255. 255. 255. 255. 255. 255. 255.
      255. 255. 255. 255. 255. 255. 255. 255. 255. 255. 255. 255. 255.
      255. 255. 255. 255. 255. 255. 255. 255. 255. 255. 255. 255. 255.
      255. 255. 255. 255. 255. 255. 255. 255. 255. 255. 255. 255. 255.
      255. 255. 255. 255. 255. 255. 255. 255. 255. 255. 255. 255. 255.
      255. 255. 255. 255. 255. 76. 67. 31. 11. 12. 39. 41. 0. 22. 58.
      75. 255. 255. 255. 255. 255. 255. 255. 255. 255. 255. 255. 255.
      255. 255. 255. 255. 255. 255. 255. 255. 255. 255. 255. 255. 255.
      255. 255. 255. 255. 255. 255. 255. 255. 255. 255. 255. 255. 255.
      255. 255. 255. 255. 255. 255. 255. 255. 255. 255. 255. 255. 255.
      255. 255. 255. 255. 255. 255. 255. 255. 255. 255. 255. 255. 255.
      255. 255. 255. 255. 255. 255. 255. 255. 255. 255. 255. 255. 255.
      255. 255. 255. 255. 255. 255. 255. 255. 255. 255. 255. 255. 255.
      255. 255. 255. 255. 255. 255. 255. 255. 255. 255. 255. 255. 255.
      255. 255. 255. 255. 255. 255. 255. 255. 255. 255. 255. 255. 255.
      255. 255. 255. 255. 255. 255. 255. 255. 255. 255. 255. 255. 255.
      255. 255. 255. 255. 76. 67. 31. 11. 12. 39. 41. 0. 22. 58. 75.
      255. 255. 255. 255. 255. 255. 255. 255. 255. 255. 255. 255. 255.
      255. 255. 255. 255. 255. 255. 255. 255. 255. 255. 255. 255. 255.
      255. 255. 255. 255. 255. 255. 255. 255. 255. 255. 255. 255. 255.
      255. 255. 255. 255. 255. 255. 255. 255. 255. 255. 255. 255. 255.
      255. 255. 255. 255. 255. 255. 255. 255. 255. 255. 255. 255. 255.
      255. 255. 255. 255. 255. 255. 255. 255. 255. 255. 255. 255. 255.
      255. 255. 255. 255. 255. 255. 255. 255. 255. 255. 255. 255. 255.
      255. 255. 255. 255. 255. 255. 255. 255. 255. 255. 255. 255. 255.
      255. 255. 255. 255. 255. 255. 255. 255. 255. 255. 255. 255. 255.
      255. 255. 255. 255. 255. 255. 255. 255. 255. 255. 255. 255. 255.
      255. 255. 255. 76. 67. 31. 11. 12. 39. 41. 0. 22. 58. 75. 255.
      255. 255. 255. 255. 255. 255. 255. 255. 255. 255. 255. 255. 255.
      255. 255. 255. 255. 255. 255. 255. 255. 255. 255. 255. 255. 255.
      255. 255. 255. 255. 255. 255. 255. 255. 255. 255. 255. 255. 255.
      255. 255. 255. 255. 255. 255. 255. 255. 255. 255. 255. 255. 255.
      255. 255. 255. 255. 255. 255. 255. 255. 255. 255. 255. 255. 255.
      255. 255. 255. 255. 255. 255. 255. 255. 255. 255. 255. 255. 255.
      255. 255. 255. 255. 255. 255. 255. 255. 255. 255. 255. 255. 255.
      255. 255. 255. 255. 255. 255. 255. 255. 255. 255. 255. 255. 255.
      255. 255. 255. 255. 255. 255. 255. 255. 255. 255. 255. 255. 255.
      255. 255. 255. 255. 255. 255. 255. 255. 255. 255. 255. 255. 255.
      255. 255. 76. 67. 31. 11. 12. 39. 41. 0. 22. 58. 75. 255. 255.
      255. 255. 255. 255. 255. 255. 255. 255. 255. 255. 255. 255. 255.
      255. 255. 255. 255. 255. 255. 255. 255. 255. 255. 255. 255. 255.
      255. 255. 255. 255. 255. 255. 255. 255. 255. 255. 255. 255. 255.
      255. 255. 255. 255. 255. 255. 255. 255. 255. 255. 255. 255. 255.
      255. 255. 255. 255. 255. 255. 255. 255. 255. 255. 255. 255. 255.
      255. 255. 255. 255. 255. 255. 255. 255. 255. 255. 255. 255. 255.
      255. 255. 255. 255. 255. 255. 255. 255. 255. 255. 255. 255. 255.
      255. 255. 255. 255. 255. 255. 255. 255. 255. 255. 255. 255. 255.
      255. 255. 255. 255. 255. 255. 255. 255. 255. 255. 255. 255. 255.
      255. 255. 255. 255. 255. 255. 255. 255. 255. 255. 255. 255. 255.
      255. 76. 67. 31. 11. 12. 39. 41. 1. 20. 59. 74. 255. 255. 255.
      253. 255. 255. 255. 255. 255. 255. 255. 255. 255. 255. 255. 255.
      255. 255. 255. 255. 255. 255. 255. 255. 255. 255. 255. 255. 255.
      255. 255. 255. 255. 255. 255. 255. 255. 255. 255. 255. 255. 255.
      255. 255. 255. 255. 255. 255. 255. 255. 255. 255. 255. 255. 255.
      255. 255. 255. 255. 255. 255. 255. 255. 255. 255. 255. 255. 255.
      255. 255. 255. 255. 255. 255. 255. 255. 255. 255. 255. 255. 255.
      255. 255. 255. 255. 255. 255. 255. 255. 255. 255. 255. 255. 255.
      255. 255. 255. 255. 255. 255. 255. 255. 255. 255. 255. 255. 255.
      255. 255. 255. 255. 255. 255. 255. 255. 255. 255. 255. 255. 255.
      255. 255. 255. 255. 255. 255. 255. 255. 255. 255. 255. 255. 254.
      79. 67. 29. 13. 12. 37. 42. 0. 23. 58. 76. 253. 255. 254. 255.
      255. 255. 255. 255. 255. 255. 255. 255. 255. 255. 255. 255. 255.
      255. 255. 255. 255. 255. 255. 255. 255. 255. 255. 255. 255. 255.
      255. 255. 255. 255. 255. 255. 255. 255. 255. 255. 255. 255. 255.
      255. 255. 255. 255. 255. 255. 255. 255. 255. 255. 255. 255. 255.
      255. 255. 255. 255. 255. 255. 255. 255. 255. 255. 255. 255. 255.
      255. 255. 255. 255. 255. 255. 255. 255. 255. 255. 255. 255. 255.
      255. 255. 255. 255. 255. 255. 255. 255. 255. 255. 255. 255. 255.
      255. 255. 255. 255. 255. 255. 255. 255. 255. 255. 255. 255. 255.
      255. 255. 255. 255. 255. 255. 255. 255. 255. 255. 255. 255. 255.
      255. 255. 255. 255. 255. 255. 255. 255. 255. 255. 255. 255. 75.
      65. 34. 7. 12. 39. 42. 2. 20. 57. 75. 255. 252. 254. 253. 255.
      255. 255. 255. 255. 255. 255. 255. 255. 255. 255. 255. 255. 255.
      255. 255. 255. 255. 255. 255. 255. 255. 255. 255. 255. 255. 255.
      255. 255. 255. 255. 255. 255. 255. 255. 255. 255. 255. 255. 255.
      255. 255. 255. 255. 255. 255. 255. 255. 255. 255. 255. 255. 255.
      255. 255. 255. 255. 255. 255. 255. 255. 255. 255. 255. 255. 255.
      255. 255. 255. 255. 255. 255. 255. 255. 255. 255. 255. 255. 255.
      255. 255. 255. 255. 255. 255. 255. 255. 255. 255. 255. 255. 255.
      255. 255. 255. 255. 255. 255. 255. 255. 255. 255. 255. 255. 255.
      255. 255. 255. 255. 255. 255. 255. 255. 255. 255. 255. 255. 255.
      255. 255. 255. 255. 255. 255. 255. 255. 255. 255. 255. 77. 69. 32.
      8. 13. 42. 39. 0. 20. 57. 77. 92. 89. 93. 92. 91. 91. 91. 91. 91.
      91. 91. 91. 91. 91. 91. 91. 91. 91. 91. 91. 91. 91. 91. 91. 91.
      91. 91. 91. 91. 91. 91. 91. 91. 91. 91. 91. 91. 91. 91. 91. 91.
      91. 91. 91. 91. 91. 91. 91. 91. 91. 91. 91. 91. 91. 91. 91. 91.
      91. 91. 91. 91. 91. 91. 91. 91. 91. 91. 91. 91. 91. 91. 91. 91.
      91. 91. 91. 91. 91. 91. 91. 91. 91. 91. 91. 91. 91. 91. 91. 91.
      91. 91. 91. 91. 91. 91. 91. 91. 91. 91. 91. 91. 91. 91. 91. 91.
      91. 91. 91. 91. 91. 91. 91. 91. 91. 91. 91. 91. 91. 91. 91. 91.
      91. 91. 91. 91. 91. 91. 91. 91. 91. 91. 91. 91. 73. 58. 22. 10.
      13. 36. 41. 0. 21. 39. 55. 74. 76. 72. 73. 74. 74. 74. 74. 74. 74.
      74. 74. 74. 74. 74. 74. 74. 74. 74. 74. 74. 74. 74. 74. 74. 74.
      74. 74. 74. 74. 74. 74. 74. 74. 74. 74. 74. 74. 74. 74. 74. 74.
      74. 74. 74. 74. 74. 74. 74. 74. 74. 74. 74. 74. 74. 74. 74. 74.
      74. 74. 74. 74. 74. 74. 74. 74. 74. 74. 74. 74. 74. 74. 74. 74.
      74. 74. 74. 74. 74. 74. 74. 74. 74. 74. 74. 74. 74. 74. 74. 74.
      74. 74. 74. 74. 74. 74. 74. 74. 74. 74. 74. 74. 74. 74. 74. 74.
      74. 74. 74. 74. 74. 74. 74. 74. 74. 74. 74. 74. 74. 74. 74. 74.
      74. 74. 74. 74. 74. 74. 74. 74. 74. 74. 74. 58. 48. 20. 11. 11.
      39. 43. 0. 18. 20. 20. 40. 38. 36. 40. 38. 38. 38. 38. 38. 38. 38.
      38. 38. 38. 38. 38. 38. 38. 38. 38. 38. 38. 38. 38. 38. 38. 38.
      38. 38. 38. 38. 38. 38. 38. 38. 38. 38. 38. 38. 38. 38. 38. 38.
      38. 38. 38. 38. 38. 38. 38. 38. 38. 38. 38. 38. 38. 38. 38. 38.
      38. 38. 38. 38. 38. 38. 38. 38. 38. 38. 38. 38. 38. 38. 38. 38.
      38. 38. 38. 38. 38. 38. 38. 38. 38. 38. 38. 38. 38. 38. 38. 38.
      38. 38. 38. 38. 38. 38. 38. 38. 38. 38. 38. 38. 38. 38. 38. 38.
      38. 38. 38. 38. 38. 38. 38. 38. 38. 38. 38. 38. 38. 38. 38. 38.
      38. 38. 38. 38. 38. 38. 38. 38. 38. 38. 30. 17. 23. 9. 15. 37. 38.
      19. 23. 23. 18. 21. 16. 21. 20. 20. 20. 20. 20. 20. 20. 20. 20.
      20. 20. 20. 20. 20. 20. 20. 20. 20. 20. 20. 20. 20. 20. 20. 20.
      20. 20. 20. 20. 20. 20. 20. 20. 20. 20. 20. 20. 20. 20. 20. 20.
      20. 20. 20. 20. 20. 20. 20. 20. 20. 20. 20. 20. 20. 20. 20. 20.
      20. 20. 20. 20. 20. 20. 20. 20. 20. 20. 20. 20. 20. 20. 20. 20.
      20. 20. 20. 20. 20. 20. 20. 20. 20. 20. 20. 20. 20. 20. 20. 20.
      20. 20. 20. 20. 20. 20. 20. 20. 20. 20. 20. 20. 20. 20. 20. 20.
      20. 20. 20. 20. 20. 20. 20. 20. 20. 20. 20. 20. 20. 20. 20. 20.
      20. 20. 20. 20. 20. 20. 20. 20. 20. 19. 25. 18. 16. 20. 39. 53.
      49. 50. 46. 50. 50. 49. 50. 47. 49. 49. 49. 49. 49. 49. 49. 49.
      49. 49. 49. 49. 49. 49. 49. 49. 49. 49. 49. 49. 49. 49. 49. 49.
      49. 49. 49. 49. 49. 49. 49. 49. 49. 49. 49. 49. 49. 49. 49. 49.
      49. 49. 49. 49. 49. 49. 49. 49. 49. 49. 49. 49. 49. 49. 49. 49.
      49. 49. 49. 49. 49. 49. 49. 49. 49. 49. 49. 49. 49. 49. 49. 49.
      49. 49. 49. 49. 49. 49. 49. 49. 49. 49. 49. 49. 49. 49. 49. 49.
      49. 49. 49. 49. 49. 49. 49. 49. 49. 49. 49. 49. 49. 49. 49. 49.
      49. 49. 49. 49. 49. 49. 49. 49. 49. 49. 49. 49. 49. 49. 49. 49.
      49. 49. 49. 49. 49. 49. 49. 49. 49. 48. 48. 50. 51. 48. 60. 56.
      56. 56. 56. 56. 56. 56. 56. 56. 56. 56. 56. 56. 56. 56. 56. 56.
      56. 49. 49. 56. 56. 56. 56. 56. 56. 56. 56. 56. 56. 56. 56. 56.
      56. 56. 56. 56. 56. 56. 56. 56. 56. 56. 56. 56. 56. 56. 56. 56.
      56. 56. 56. 56. 56. 49. 49. 56. 56. 56. 56. 56. 56. 56. 56. 56.
      56. 56. 56. 56. 56. 56. 56. 56. 56. 56. 56. 56. 56. 56. 56. 56.
      56. 56. 56. 56. 56. 56. 56. 56. 56. 49. 49. 56. 56. 56. 56. 56.
      56. 56. 56. 56. 56. 56. 56. 56. 56. 56. 56. 56. 56. 56. 56. 56.
      56. 56. 56. 56. 56. 56. 56. 56. 56. 56. 56. 56. 56. 49. 49. 56.
