<?xml version="1.0"?>
<opencv_storage>
<my_svm type_id="opencv-ml-svm">
  <svm_type>C_SVC</svm_type>
  <kernel><type>LINEAR</type></kernel>
  <C>1.</C>
  <term_criteria><epsilon>2.2204460492503131e-016</epsilon>
    <iterations>1000</iterations></term_criteria>
  <var_all>76800</var_all>
  <var_count>76800</var_count>
  <class_count>2</class_count>
  <class_labels type_id="opencv-matrix">
    <rows>1</rows>
    <cols>2</cols>
    <dt>i</dt>
    <data>
      0 1</data></class_labels>
  <sv_total>2</sv_total>
  <support_vectors>
    <_>
      131. 131. 132. 133. 134. 134. 135. 135. 136. 136. 136. 137. 137.
      137. 138. 138. 138. 138. 139. 139. 140. 140. 140. 141. 142. 142.
      142. 143. 143. 144. 144. 144. 143. 143. 143. 143. 143. 143. 143.
      143. 146. 146. 146. 146. 146. 146. 146. 146. 144. 144. 144. 144.
      144. 144. 144. 144. 146. 146. 146. 146. 146. 146. 146. 146. 143.
      143. 143. 143. 143. 143. 143. 143. 146. 146. 146. 146. 146. 146.
      146. 146. 143. 143. 144. 144. 144. 144. 143. 143. 139. 146. 145.
      139. 137. 143. 143. 139. 139. 141. 144. 146. 145. 142. 138. 135.
      143. 143. 144. 144. 144. 145. 145. 145. 142. 142. 142. 142. 142.
      142. 142. 143. 145. 145. 145. 145. 145. 145. 145. 145. 149. 149.
      149. 149. 147. 146. 144. 143. 145. 144. 143. 142. 141. 140. 139.
      138. 143. 143. 143. 142. 140. 140. 143. 146. 145. 144. 143. 142.
      142. 143. 144. 145. 144. 144. 145. 145. 146. 146. 146. 146. 143.
      143. 143. 143. 144. 144. 144. 144. 146. 135. 155. 140. 152. 136.
      140. 143. 146. 146. 145. 145. 146. 146. 146. 146. 145. 145. 145.
      145. 145. 145. 145. 145. 145. 145. 145. 145. 145. 145. 145. 145.
      145. 145. 145. 145. 145. 145. 145. 145. 145. 145. 145. 145. 145.
      145. 145. 145. 143. 143. 143. 143. 143. 143. 143. 143. 143. 143.
      143. 143. 143. 143. 143. 143. 141. 141. 141. 141. 141. 141. 141.
      141. 142. 142. 142. 142. 142. 142. 142. 142. 143. 143. 143. 143.
      143. 143. 143. 143. 143. 143. 143. 143. 143. 143. 143. 143. 143.
      143. 143. 143. 143. 143. 143. 143. 144. 144. 144. 144. 144. 144.
      144. 144. 143. 143. 143. 143. 143. 143. 143. 143. 142. 142. 142.
      142. 142. 142. 142. 142. 141. 141. 141. 141. 141. 141. 141. 141.
      141. 140. 140. 140. 139. 139. 138. 138. 131. 131. 132. 133. 134.
      135. 135. 136. 136. 136. 136. 137. 137. 138. 138. 138. 140. 140.
      141. 141. 141. 142. 142. 142. 142. 142. 143. 143. 144. 144. 144.
      145. 144. 144. 144. 144. 144. 144. 144. 144. 146. 146. 146. 146.
      146. 146. 146. 146. 145. 145. 145. 145. 145. 145. 145. 145. 146.
      146. 146. 146. 146. 146. 146. 146. 144. 144. 144. 144. 144. 144.
      144. 144. 146. 146. 146. 146. 146. 146. 146. 146. 143. 143. 144.
      144. 144. 144. 143. 143. 137. 145. 147. 142. 141. 146. 148. 147.
      145. 144. 142. 142. 143. 146. 149. 152. 142. 142. 143. 143. 143.
      143. 143. 143. 142. 142. 142. 142. 142. 142. 142. 142. 144. 144.
      144. 144. 144. 144. 144. 144. 142. 143. 143. 144. 143. 143. 141.
      141. 146. 146. 146. 145. 145. 145. 145. 144. 145. 147. 149. 149.
      147. 145. 145. 146. 147. 148. 148. 148. 148. 148. 148. 147. 138.
      139. 139. 140. 141. 142. 142. 143. 148. 147. 147. 146. 146. 145.
      144. 144. 148. 139. 152. 139. 155. 145. 150. 147. 146. 146. 145.
      145. 146. 146. 146. 146. 145. 145. 145. 145. 145. 145. 145. 145.
      145. 145. 145. 145. 145. 145. 145. 145. 145. 145. 145. 145. 145.
      145. 145. 145. 145. 145. 145. 145. 145. 145. 145. 145. 143. 143.
      143. 143. 143. 143. 143. 143. 143. 143. 143. 143. 143. 143. 143.
      143. 142. 142. 142. 142. 142. 142. 142. 142. 142. 142. 142. 142.
      142. 142. 142. 142. 143. 143. 143. 143. 143. 143. 143. 143. 143.
      143. 143. 143. 143. 143. 143. 143. 143. 143. 143. 143. 143. 143.
      143. 143. 144. 144. 144. 144. 144. 144. 144. 144. 143. 143. 143.
      143. 143. 143. 143. 143. 142. 142. 142. 142. 142. 142. 142. 142.
      141. 141. 141. 141. 141. 141. 141. 141. 141. 141. 140. 140. 139.
      139. 139. 138. 132. 132. 133. 134. 135. 135. 136. 137. 137. 137.
      137. 138. 138. 139. 139. 139. 142. 142. 142. 143. 143. 144. 144.
      144. 143. 143. 143. 144. 144. 145. 145. 145. 146. 146. 146. 146.
      146. 146. 146. 146. 147. 147. 147. 147. 147. 147. 147. 147. 147.
      147. 147. 147. 147. 147. 147. 147. 147. 147. 147. 147. 147. 147.
      147. 147. 146. 146. 146. 146. 146. 146. 146. 146. 146. 146. 146.
      146. 146. 146. 146. 146. 145. 145. 145. 145. 145. 145. 145. 145.
      140. 145. 147. 144. 141. 144. 147. 146. 147. 145. 142. 139. 139.
      140. 143. 145. 147. 147. 147. 147. 147. 147. 147. 147. 146. 146.
      146. 146. 146. 146. 146. 146. 144. 144. 144. 144. 144. 144. 144.
      144. 146. 146. 148. 149. 149. 149. 148. 148. 143. 143. 143. 144.
      144. 145. 145. 145. 141. 144. 148. 148. 145. 142. 141. 141. 143.
      144. 145. 146. 146. 145. 144. 143. 144. 144. 145. 146. 146. 147.
      148. 148. 133. 135. 138. 141. 143. 146. 149. 150. 148. 143. 144.
      133. 145. 139. 144. 134. 146. 146. 146. 146. 146. 146. 145. 145.
      145. 145. 145. 145. 145. 145. 145. 145. 145. 145. 145. 145. 145.
      145. 145. 145. 145. 145. 145. 145. 145. 145. 145. 145. 145. 145.
      145. 145. 145. 145. 145. 145. 144. 144. 144. 144. 144. 144. 144.
      144. 144. 144. 144. 144. 144. 144. 144. 144. 144. 144. 144. 144.
      144. 144. 144. 144. 143. 143. 143. 143. 143. 143. 143. 143. 144.
      144. 144. 144. 144. 144. 144. 144. 144. 144. 144. 144. 144. 144.
      144. 144. 144. 144. 144. 144. 144. 144. 144. 144. 145. 145. 145.
      145. 145. 145. 145. 145. 144. 144. 144. 144. 144. 144. 144. 144.
      143. 143. 143. 143. 143. 143. 143. 143. 142. 142. 142. 142. 142.
      142. 142. 142. 142. 141. 141. 141. 140. 140. 139. 139. 133. 133.
      134. 135. 135. 136. 137. 137. 138. 138. 138. 139. 139. 139. 140.
      140. 142. 142. 143. 143. 144. 144. 144. 144. 144. 144. 144. 145.
      145. 146. 146. 146. 148. 148. 148. 148. 148. 148. 148. 148. 148.
      148. 148. 148. 148. 148. 148. 148. 149. 149. 149. 149. 149. 149.
      149. 149. 148. 148. 148. 148. 148. 148. 148. 148. 148. 148. 148.
      148. 148. 148. 148. 148. 146. 146. 146. 146. 146. 146. 146. 146.
      145. 145. 145. 145. 145. 145. 145. 145. 147. 146. 144. 144. 143.
      144. 142. 139. 142. 144. 146. 147. 146. 144. 141. 139. 142. 142.
      142. 142. 141. 141. 141. 141. 144. 144. 144. 143. 143. 143. 142.
      142. 143. 143. 143. 143. 143. 143. 143. 143. 140. 141. 142. 142.
      143. 142. 141. 141. 145. 145. 145. 145. 145. 145. 145. 145. 145.
      147. 149. 148. 145. 143. 143. 143. 147. 146. 145. 144. 144. 145.
      146. 147. 143. 143. 143. 143. 142. 142. 142. 142. 157. 156. 154.
      151. 147. 144. 143. 142. 142. 148. 143. 145. 154. 153. 164. 155.
      146. 146. 146. 146. 146. 146. 145. 145. 145. 145. 145. 145. 145.
      145. 145. 145. 145. 145. 145. 145. 145. 145. 145. 145. 145. 145.
      145. 145. 145. 145. 145. 145. 145. 145. 145. 145. 145. 145. 145.
      145. 144. 144. 144. 144. 144. 144. 144. 144. 144. 144. 144. 144.
      144. 144. 144. 144. 144. 144. 144. 144. 144. 144. 144. 144. 143.
      143. 143. 143. 143. 143. 143. 143. 144. 144. 144. 144. 144. 144.
      144. 144. 144. 144. 144. 144. 144. 144. 144. 144. 144. 144. 144.
      144. 144. 144. 144. 144. 145. 145. 145. 145. 145. 145. 145. 145.
      145. 145. 145. 145. 145. 145. 145. 145. 144. 144. 144. 144. 144.
      144. 144. 144. 143. 143. 143. 143. 143. 143. 143. 143. 142. 142.
      142. 141. 141. 141. 140. 140. 134. 134. 135. 135. 136. 137. 138.
      138. 139. 139. 139. 139. 140. 140. 141. 141. 141. 142. 142. 142.
      143. 143. 144. 144. 145. 145. 145. 146. 146. 147. 147. 147. 149.
      149. 149. 149. 149. 149. 149. 149. 148. 148. 148. 148. 148. 148.
      148. 148. 150. 150. 150. 150. 150. 150. 150. 150. 148. 148. 148.
      148. 148. 148. 148. 148. 149. 149. 149. 149. 149. 149. 149. 149.
      147. 147. 147. 147. 147. 147. 147. 147. 146. 146. 146. 146. 146.
      146. 146. 146. 147. 143. 142. 147. 151. 152. 148. 144. 141. 142.
      145. 148. 149. 149. 149. 148. 150. 150. 149. 149. 147. 146. 146.
      146. 150. 150. 150. 149. 149. 148. 148. 147. 149. 149. 149. 149.
      149. 149. 149. 149. 157. 157. 157. 157. 155. 154. 152. 151. 156.
      155. 155. 154. 153. 152. 151. 151. 156. 156. 155. 152. 149. 150.
      153. 156. 158. 155. 151. 148. 148. 151. 155. 158. 158. 157. 155.
      154. 154. 152. 150. 150. 140. 141. 144. 146. 147. 149. 152. 153.
      145. 156. 140. 152. 145. 132. 139. 131. 147. 147. 146. 146. 147.
      147. 147. 147. 146. 146. 146. 146. 146. 146. 146. 146. 146. 146.
      146. 146. 146. 146. 146. 146. 146. 146. 146. 146. 146. 146. 146.
      146. 146. 146. 146. 146. 146. 146. 146. 146. 145. 145. 145. 145.
      145. 145. 145. 145. 145. 145. 145. 145. 145. 145. 145. 145. 143.
      143. 143. 143. 143. 143. 143. 143. 143. 143. 143. 143. 143. 143.
      143. 143. 144. 144. 144. 144. 144. 144. 144. 144. 144. 144. 144.
      144. 144. 144. 144. 144. 144. 144. 144. 144. 144. 144. 144. 144.
      146. 146. 146. 146. 146. 146. 146. 146. 146. 146. 146. 146. 146.
      146. 146. 146. 145. 145. 145. 145. 145. 145. 145. 145. 143. 143.
      143. 143. 143. 143. 143. 143. 143. 143. 143. 142. 142. 142. 141.
      141. 134. 135. 135. 136. 137. 138. 139. 139. 139. 140. 140. 140.
      141. 141. 142. 142. 142. 142. 142. 143. 143. 144. 144. 144. 146.
      146. 146. 147. 147. 148. 148. 148. 149. 149. 149. 149. 149. 149.
      149. 149. 149. 149. 149. 149. 149. 149. 149. 149. 150. 150. 150.
      150. 150. 150. 150. 150. 149. 149. 149. 149. 149. 149. 149. 149.
      149. 149. 149. 149. 149. 149. 149. 149. 147. 147. 147. 147. 147.
      147. 147. 147. 146. 146. 146. 146. 146. 146. 146. 146. 143. 141.
      144. 149. 149. 145. 144. 146. 161. 157. 151. 145. 143. 144. 147.
      149. 154. 154. 153. 152. 150. 150. 149. 149. 145. 144. 144. 143.
      142. 141. 141. 140. 133. 133. 133. 133. 133. 133. 133. 133. 119.
      119. 119. 118. 117. 115. 113. 112. 107. 106. 105. 104. 102. 101.
      100. 99. 79. 78. 75. 72. 70. 72. 78. 82. 80. 77. 73. 70. 70. 73.
      77. 80. 88. 87. 85. 84. 83. 82. 79. 79. 99. 102. 108. 116. 122.
      129. 136. 139. 136. 147. 128. 167. 161. 144. 150. 145. 147. 147.
      146. 146. 147. 147. 147. 147. 146. 146. 146. 146. 146. 146. 146.
      146. 146. 146. 146. 146. 146. 146. 146. 146. 146. 146. 146. 146.
      146. 146. 146. 146. 146. 146. 146. 146. 146. 146. 146. 146. 145.
      145. 145. 145. 145. 145. 145. 145. 145. 145. 145. 145. 145. 145.
      145. 145. 143. 143. 143. 143. 143. 143. 143. 143. 144. 144. 144.
      144. 144. 144. 144. 144. 145. 145. 145. 145. 145. 145. 145. 145.
      145. 145. 145. 145. 145. 145. 145. 145. 145. 145. 145. 145. 145.
      145. 145. 145. 146. 146. 146. 146. 146. 146. 146. 146. 147. 147.
      147. 147. 147. 147. 147. 147. 146. 146. 146. 146. 146. 146. 146.
      146. 144. 144. 144. 144. 144. 144. 144. 144. 144. 144. 144. 143.
      143. 142. 142. 142. 135. 135. 136. 137. 138. 139. 140. 140. 140.
      140. 141. 141. 142. 142. 142. 143. 144. 144. 144. 145. 145. 145.
      146. 146. 146. 147. 147. 147. 148. 148. 149. 149. 148. 148. 148.
      148. 148. 148. 148. 148. 150. 150. 150. 150. 150. 150. 150. 150.
      150. 150. 150. 150. 150. 150. 150. 150. 150. 150. 150. 150. 150.
      150. 150. 150. 148. 148. 148. 148. 148. 148. 148. 148. 148. 148.
      148. 148. 148. 148. 148. 148. 147. 147. 147. 147. 147. 147. 147.
      147. 142. 145. 149. 143. 124. 105. 105. 115. 91. 86. 78. 70. 66.
      66. 68. 70. 64. 63. 63. 62. 61. 60. 59. 58. 53. 52. 52. 51. 50.
      49. 48. 48. 38. 38. 38. 38. 38. 38. 38. 38. 48. 48. 48. 48. 48.
      47. 45. 44. 48. 48. 47. 46. 46. 45. 45. 44. 61. 61. 61. 59. 58.
      60. 64. 68. 61. 61. 60. 60. 60. 60. 61. 61. 58. 58. 57. 57. 57.
      56. 56. 56. 47. 45. 42. 38. 34. 30. 27. 25. 45. 55. 42. 124. 143.
      137. 150. 151. 148. 148. 148. 148. 148. 148. 148. 148. 147. 147.
      147. 147. 147. 147. 147. 147. 147. 147. 147. 147. 147. 147. 147.
      147. 147. 147. 147. 147. 147. 147. 147. 147. 147. 147. 147. 147.
      147. 147. 147. 147. 146. 146. 146. 146. 146. 146. 146. 146. 146.
      146. 146. 146. 146. 146. 146. 146. 144. 144. 144. 144. 144. 144.
      144. 144. 144. 144. 144. 144. 144. 144. 144. 144. 145. 145. 145.
      145. 145. 145. 145. 145. 145. 145. 145. 145. 145. 145. 145. 145.
      145. 145. 145. 145. 145. 145. 145. 145. 147. 147. 147. 147. 147.
      147. 147. 147. 148. 148. 148. 148. 148. 148. 148. 148. 146. 146.
      146. 146. 146. 146. 146. 146. 145. 145. 145. 145. 145. 145. 145.
      145. 145. 145. 144. 144. 144. 143. 143. 143. 135. 136. 137. 137.
      138. 139. 140. 140. 140. 141. 141. 141. 142. 142. 143. 143. 145.
      146. 146. 146. 147. 147. 148. 148. 147. 147. 147. 148. 148. 149.
      149. 149. 148. 148. 148. 148. 148. 148. 148. 148. 150. 150. 150.
      150. 150. 150. 150. 150. 149. 149. 149. 149. 149. 149. 149. 149.
      150. 150. 150. 150. 150. 150. 150. 150. 148. 148. 148. 148. 148.
      148. 148. 148. 148. 148. 148. 148. 148. 148. 148. 148. 147. 147.
      147. 147. 147. 147. 147. 147. 143. 151. 154. 134. 93. 59. 57. 73.
      76. 77. 79. 81. 82. 83. 84. 84. 82. 82. 81. 80. 79. 78. 77. 76.
      82. 82. 81. 80. 79. 78. 77. 77. 77. 77. 77. 77. 77. 77. 77. 77.
      75. 75. 76. 77. 78. 77. 77. 76. 75. 75. 75. 75. 76. 76. 76. 76.
      70. 72. 75. 75. 74. 75. 78. 80. 70. 72. 75. 77. 77. 75. 72. 70.
      71. 71. 72. 73. 74. 75. 75. 75. 71. 71. 70. 70. 69. 68. 67. 67.
      72. 72. 48. 141. 161. 145. 147. 141. 148. 148. 148. 148. 148. 148.
      148. 148. 147. 147. 147. 147. 147. 147. 147. 147. 147. 147. 147.
      147. 147. 147. 147. 147. 147. 147. 147. 147. 147. 147. 147. 147.
      147. 147. 147. 147. 147. 147. 147. 147. 146. 146. 146. 146. 146.
      146. 146. 146. 146. 146. 146. 146. 146. 146. 146. 146. 146. 146.
      146. 146. 146. 146. 146. 146. 144. 144. 144. 144. 144. 144. 144.
      144. 145. 145. 145. 145. 145. 145. 145. 145. 145. 145. 145. 145.
      145. 145. 145. 145. 145. 145. 145. 145. 145. 145. 145. 145. 147.
      147. 147. 147. 147. 147. 147. 147. 148. 148. 148. 148. 148. 148.
      148. 148. 147. 147. 147. 147. 147. 147. 147. 147. 145. 145. 145.
      145. 145. 145. 145. 145. 145. 145. 145. 144. 144. 143. 143. 143.
      137. 137. 137. 138. 138. 139. 139. 139. 142. 142. 142. 143. 143.
      144. 144. 144. 146. 146. 146. 147. 147. 147. 148. 148. 147. 147.
      147. 148. 148. 149. 149. 149. 151. 151. 151. 151. 151. 151. 151.
      151. 151. 151. 151. 151. 151. 151. 151. 151. 151. 151. 151. 151.
      151. 151. 151. 151. 151. 151. 151. 151. 151. 151. 151. 151. 149.
      149. 149. 149. 149. 149. 149. 149. 149. 149. 149. 149. 149. 149.
      149. 149. 149. 149. 149. 148. 148. 147. 147. 147. 148. 144. 152.
      151. 83. 80. 89. 86. 88. 87. 86. 85. 84. 84. 85. 85. 88. 86. 83.
      81. 79. 78. 79. 79. 81. 81. 80. 80. 80. 79. 79. 79. 78. 78. 79.
      79. 79. 79. 80. 80. 78. 79. 79. 80. 80. 79. 79. 78. 75. 75. 75.
      75. 75. 75. 75. 75. 75. 75. 75. 75. 75. 75. 75. 75. 69. 70. 71.
      73. 73. 71. 70. 69. 76. 74. 72. 72. 74. 74. 72. 70. 69. 74. 71.
      72. 78. 72. 69. 81. 74. 77. 61. 133. 152. 147. 152. 147. 148. 148.
      148. 148. 148. 148. 148. 148. 147. 147. 147. 147. 147. 147. 147.
      147. 147. 147. 147. 147. 147. 147. 147. 147. 147. 147. 147. 147.
      147. 147. 147. 147. 147. 147. 147. 147. 147. 147. 147. 147. 147.
      147. 147. 147. 147. 147. 147. 147. 146. 146. 146. 146. 146. 146.
      146. 146. 145. 145. 145. 145. 145. 145. 145. 145. 146. 146. 146.
      146. 146. 146. 146. 146. 147. 147. 147. 147. 147. 147. 147. 147.
      147. 147. 147. 147. 147. 147. 147. 147. 147. 147. 147. 147. 147.
      147. 147. 147. 148. 148. 148. 148. 148. 148. 148. 148. 148. 148.
      148. 148. 148. 148. 148. 148. 147. 147. 147. 147. 147. 147. 147.
      147. 147. 147. 147. 147. 147. 147. 147. 147. 146. 146. 146. 146.
      146. 146. 146. 146. 137. 137. 138. 138. 139. 139. 139. 140. 142.
      142. 143. 143. 143. 144. 144. 144. 146. 146. 146. 147. 147. 148.
      148. 148. 147. 147. 148. 148. 148. 149. 149. 149. 151. 151. 151.
      151. 151. 151. 151. 151. 151. 151. 151. 151. 151. 151. 151. 151.
      151. 151. 151. 151. 151. 151. 151. 151. 151. 151. 151. 151. 151.
      151. 151. 151. 149. 149. 149. 149. 149. 149. 149. 149. 149. 149.
      149. 149. 149. 149. 149. 149. 149. 149. 149. 148. 148. 148. 147.
      147. 149. 146. 152. 148. 78. 77. 84. 79. 74. 73. 72. 71. 70. 71.
      71. 71. 71. 69. 67. 66. 65. 65. 65. 66. 64. 64. 64. 63. 63. 62.
      62. 62. 53. 53. 53. 53. 52. 52. 51. 51. 52. 52. 53. 54. 54. 53.
      52. 52. 57. 57. 57. 57. 57. 57. 57. 57. 55. 55. 55. 55. 55. 55.
      55. 55. 57. 58. 59. 60. 60. 59. 58. 57. 58. 57. 56. 58. 60. 62.
      61. 60. 57. 62. 59. 60. 66. 60. 58. 70. 76. 79. 62. 134. 153. 147.
      152. 147. 148. 148. 148. 148. 148. 148. 148. 148. 147. 147. 147.
      147. 147. 147. 147. 147. 147. 147. 147. 147. 147. 147. 147. 147.
      147. 147. 147. 147. 147. 147. 147. 147. 147. 147. 147. 147. 147.
      147. 147. 147. 147. 147. 147. 147. 147. 147. 147. 147. 146. 146.
      146. 146. 146. 146. 146. 146. 145. 145. 145. 145. 145. 145. 145.
      145. 146. 146. 146. 146. 146. 146. 146. 146. 147. 147. 147. 147.
      147. 147. 147. 147. 147. 147. 147. 147. 147. 147. 147. 147. 147.
      147. 147. 147. 147. 147. 147. 147. 148. 148. 148. 148. 148. 148.
      148. 148. 148. 148. 148. 148. 148. 148. 148. 148. 147. 147. 147.
      147. 147. 147. 147. 147. 147. 147. 147. 147. 147. 147. 147. 147.
      146. 146. 146. 146. 146. 146. 146. 146. 138. 138. 138. 139. 139.
      140. 140. 140. 142. 143. 143. 143. 144. 144. 145. 145. 146. 146.
      147. 147. 148. 148. 148. 149. 147. 148. 148. 148. 149. 149. 150.
      150. 151. 151. 151. 151. 151. 151. 151. 151. 151. 151. 151. 151.
      151. 151. 151. 151. 151. 151. 151. 151. 151. 151. 151. 151. 151.
      151. 151. 151. 151. 151. 151. 151. 150. 150. 150. 150. 150. 150.
      150. 150. 150. 150. 150. 150. 150. 150. 150. 150. 149. 149. 149.
      149. 147. 147. 148. 147. 150. 148. 151. 142. 73. 74. 80. 70. 61.
      60. 59. 58. 57. 57. 58. 58. 58. 57. 55. 55. 55. 55. 56. 57. 58.
      57. 57. 57. 56. 56. 55. 55. 61. 61. 60. 60. 59. 58. 58. 57. 59.
      60. 60. 61. 61. 60. 60. 59. 54. 54. 54. 54. 54. 54. 54. 54. 55.
      55. 55. 55. 55. 55. 55. 55. 56. 56. 57. 58. 58. 57. 56. 56. 56.
      54. 54. 55. 58. 60. 59. 57. 55. 60. 56. 57. 63. 57. 55. 68. 79.
      81. 64. 135. 153. 148. 151. 146. 149. 149. 149. 149. 149. 149.
      149. 149. 148. 148. 148. 148. 148. 148. 148. 148. 148. 148. 148.
      148. 148. 148. 148. 148. 148. 148. 148. 148. 148. 148. 148. 148.
      148. 148. 148. 148. 148. 148. 148. 148. 148. 148. 148. 148. 148.
      148. 148. 148. 146. 146. 146. 146. 146. 146. 146. 146. 146. 146.
      146. 146. 146. 146. 146. 146. 146. 146. 146. 146. 146. 146. 146.
      146. 147. 147. 147. 147. 147. 147. 147. 147. 147. 147. 147. 147.
      147. 147. 147. 147. 147. 147. 147. 147. 147. 147. 147. 147. 149.
      149. 149. 149. 149. 149. 149. 149. 149. 149. 149. 149. 149. 149.
      149. 149. 147. 147. 147. 147. 147. 147. 147. 147. 147. 147. 147.
      147. 147. 147. 147. 147. 146. 146. 146. 146. 146. 146. 146. 146.
      139. 139. 139. 140. 140. 141. 141. 141. 143. 143. 143. 144. 144.
      145. 145. 145. 147. 147. 147. 147. 148. 148. 149. 149. 148. 148.
      148. 149. 149. 150. 150. 150. 151. 151. 151. 151. 151. 151. 151.
      151. 151. 151. 151. 151. 151. 151. 151. 151. 151. 151. 151. 151.
      151. 151. 151. 151. 151. 151. 151. 151. 151. 151. 151. 151. 150.
      150. 150. 150. 150. 150. 150. 150. 150. 150. 150. 150. 150. 150.
      150. 150. 149. 149. 150. 149. 148. 147. 148. 148. 149. 149. 151.
      138. 70. 75. 80. 66. 59. 58. 57. 56. 55. 56. 56. 56. 58. 58. 57.
      57. 58. 59. 60. 60. 61. 61. 60. 60. 59. 59. 59. 58. 60. 60. 60.
      60. 60. 59. 59. 59. 59. 60. 61. 61. 61. 61. 60. 59. 61. 61. 61.
      61. 61. 61. 61. 61. 64. 64. 64. 64. 64. 64. 64. 64. 61. 62. 62.
      62. 62. 62. 62. 61. 64. 62. 60. 61. 62. 62. 61. 58. 59. 63. 59.
      59. 65. 60. 58. 71. 80. 83. 65. 136. 154. 148. 151. 146. 149. 149.
      149. 149. 149. 149. 149. 149. 148. 148. 148. 148. 148. 148. 148.
      148. 148. 148. 148. 148. 148. 148. 148. 148. 148. 148. 148. 148.
      148. 148. 148. 148. 148. 148. 148. 148. 148. 148. 148. 148. 148.
      148. 148. 148. 148. 148. 148. 148. 147. 147. 147. 147. 147. 147.
      147. 147. 147. 147. 147. 147. 147. 147. 147. 147. 147. 147. 147.
      147. 147. 147. 147. 147. 148. 148. 148. 148. 148. 148. 148. 148.
      148. 148. 148. 148. 148. 148. 148. 148. 148. 148. 148. 148. 148.
      148. 148. 148. 149. 149. 149. 149. 149. 149. 149. 149. 149. 149.
      149. 149. 149. 149. 149. 149. 148. 148. 148. 148. 148. 148. 148.
      148. 148. 148. 148. 148. 148. 148. 148. 148. 146. 146. 146. 146.
      146. 146. 146. 146. 140. 140. 140. 141. 141. 142. 142. 142. 143.
      143. 144. 144. 145. 145. 145. 146. 147. 147. 148. 148. 148. 149.
      149. 149. 148. 148. 149. 149. 150. 150. 150. 151. 152. 152. 152.
      152. 152. 152. 152. 152. 152. 152. 152. 152. 152. 152. 152. 152.
      152. 152. 152. 152. 152. 152. 152. 152. 152. 152. 152. 152. 152.
      152. 152. 152. 151. 151. 151. 151. 151. 151. 151. 151. 151. 151.
      151. 151. 151. 151. 151. 151. 151. 150. 150. 150. 148. 148. 148.
      148. 146. 150. 152. 136. 69. 81. 86. 67. 63. 62. 61. 60. 59. 59.
      60. 60. 61. 61. 62. 62. 63. 63. 63. 63. 60. 60. 60. 59. 59. 59.
      58. 58. 54. 54. 55. 55. 56. 57. 57. 57. 54. 55. 56. 56. 56. 56.
      55. 54. 59. 59. 59. 59. 59. 59. 59. 59. 56. 56. 56. 56. 56. 56.
      56. 56. 58. 58. 58. 57. 57. 58. 58. 58. 58. 57. 55. 56. 59. 60.
      58. 57. 57. 61. 56. 56. 62. 57. 56. 70. 80. 83. 65. 136. 154. 148.
      151. 146. 148. 148. 149. 149. 149. 149. 149. 149. 148. 148. 148.
      148. 148. 148. 148. 148. 148. 148. 148. 148. 148. 148. 148. 148.
      148. 148. 148. 148. 148. 148. 148. 148. 148. 148. 148. 148. 148.
      148. 148. 148. 148. 148. 148. 148. 148. 148. 148. 148. 147. 147.
      147. 147. 147. 147. 147. 147. 147. 147. 147. 147. 147. 147. 147.
      147. 147. 147. 147. 147. 147. 147. 147. 147. 148. 148. 148. 148.
      148. 148. 148. 148. 148. 148. 148. 148. 148. 148. 148. 148. 148.
      148. 148. 148. 148. 148. 148. 148. 149. 149. 149. 149. 149. 149.
      149. 149. 149. 149. 149. 149. 149. 149. 149. 149. 148. 148. 148.
      148. 148. 148. 148. 148. 148. 148. 148. 148. 148. 148. 148. 148.
      147. 147. 147. 147. 147. 147. 147. 147. 141. 141. 141. 142. 142.
      143. 143. 143. 144. 144. 144. 145. 145. 146. 146. 146. 147. 148.
      148. 148. 149. 149. 150. 150. 149. 149. 149. 150. 150. 151. 151.
      151. 152. 152. 152. 152. 152. 152. 152. 152. 152. 152. 152. 152.
      152. 152. 152. 152. 152. 152. 152. 152. 152. 152. 152. 152. 152.
      152. 152. 152. 152. 152. 152. 152. 151. 151. 151. 151. 151. 151.
      151. 151. 151. 151. 151. 151. 151. 151. 151. 151. 151. 151. 151.
      150. 149. 148. 149. 149. 144. 151. 153. 133. 68. 85. 90. 66. 63.
      62. 61. 60. 60. 60. 60. 61. 59. 59. 60. 60. 59. 57. 56. 55. 57.
      57. 56. 56. 55. 55. 54. 54. 57. 57. 57. 57. 58. 58. 58. 59. 55.
      55. 56. 57. 57. 56. 55. 55. 47. 47. 47. 47. 47. 47. 47. 47. 45.
      45. 45. 45. 45. 45. 45. 45. 49. 48. 47. 47. 47. 47. 48. 49. 46.
      46. 47. 50. 55. 59. 60. 59. 58. 61. 56. 55. 61. 57. 57. 71. 79.
      81. 64. 135. 153. 148. 151. 146. 149. 149. 150. 150. 150. 150.
      150. 150. 149. 149. 149. 149. 149. 149. 149. 149. 149. 149. 149.
      149. 149. 149. 149. 149. 149. 149. 149. 149. 149. 149. 149. 149.
      149. 149. 149. 149. 149. 149. 149. 149. 149. 149. 149. 149. 149.
      149. 149. 149. 148. 148. 148. 148. 148. 148. 148. 148. 148. 148.
      148. 148. 148. 148. 148. 148. 148. 148. 148. 148. 148. 148. 148.
      148. 149. 149. 149. 149. 149. 149. 149. 149. 149. 149. 149. 149.
      149. 149. 149. 149. 149. 149. 149. 149. 149. 149. 149. 149. 150.
      150. 150. 150. 150. 150. 150. 150. 150. 150. 150. 150. 150. 150.
      150. 150. 149. 149. 149. 149. 149. 149. 149. 149. 149. 149. 149.
      149. 149. 149. 149. 149. 147. 147. 147. 147. 147. 147. 147. 147.
      141. 142. 142. 142. 143. 143. 144. 144. 144. 144. 145. 145. 146.
      146. 146. 146. 148. 148. 148. 149. 149. 150. 150. 150. 149. 149.
      150. 150. 151. 151. 151. 151. 153. 153. 153. 153. 153. 153. 153.
      153. 153. 153. 153. 153. 153. 153. 153. 153. 153. 153. 153. 153.
      153. 153. 153. 153. 153. 153. 153. 153. 153. 153. 153. 153. 152.
      152. 152. 152. 152. 152. 152. 152. 152. 152. 152. 152. 152. 152.
      152. 152. 151. 151. 151. 151. 149. 149. 149. 149. 145. 154. 153.
      130. 64. 85. 90. 63. 62. 61. 60. 59. 58. 58. 59. 59. 58. 58. 58.
      57. 55. 52. 49. 48. 48. 48. 47. 47. 46. 46. 46. 45. 40. 40. 39.
      38. 37. 35. 35. 34. 32. 33. 34. 34. 34. 34. 33. 32. 33. 33. 33.
      33. 33. 33. 33. 33. 35. 35. 35. 35. 35. 35. 35. 35. 35. 34. 33.
      32. 32. 33. 34. 35. 43. 43. 45. 49. 56. 61. 62. 62. 60. 63. 58.
      57. 63. 59. 59. 73. 76. 79. 62. 134. 153. 147. 151. 146. 150. 150.
      150. 150. 150. 150. 150. 150. 149. 149. 149. 149. 149. 149. 149.
      149. 149. 149. 149. 149. 149. 149. 149. 149. 149. 149. 149. 149.
      149. 149. 149. 149. 149. 149. 149. 149. 149. 149. 149. 149. 149.
      149. 149. 149. 149. 149. 149. 149. 148. 148. 148. 148. 148. 148.
      148. 148. 149. 149. 149. 149. 149. 149. 149. 149. 148. 148. 148.
      148. 148. 148. 148. 148. 149. 149. 149. 149. 149. 149. 149. 149.
      149. 149. 149. 149. 149. 149. 149. 149. 149. 149. 149. 149. 149.
      149. 149. 149. 150. 150. 150. 150. 150. 150. 150. 150. 150. 150.
      150. 150. 150. 150. 150. 150. 149. 149. 149. 149. 149. 149. 149.
      149. 149. 149. 149. 149. 149. 149. 149. 149. 148. 148. 148. 148.
      148. 148. 148. 148. 142. 142. 142. 143. 143. 144. 144. 144. 144.
      144. 145. 145. 146. 146. 146. 147. 148. 148. 149. 149. 149. 150.
      150. 150. 149. 149. 150. 150. 151. 151. 151. 152. 153. 153. 153.
      153. 153. 153. 153. 153. 153. 153. 153. 153. 153. 153. 153. 153.
      153. 153. 153. 153. 153. 153. 153. 153. 153. 153. 153. 153. 153.
      153. 153. 153. 152. 152. 152. 152. 152. 152. 152. 152. 152. 152.
      152. 152. 152. 152. 152. 152. 152. 151. 151. 151. 149. 149. 149.
      149. 146. 155. 153. 128. 62. 84. 89. 59. 61. 60. 59. 58. 58. 58.
      58. 59. 61. 61. 60. 59. 55. 52. 48. 46. 35. 35. 35. 34. 34. 33.
      33. 33. 30. 29. 27. 24. 23. 21. 19. 19. 17. 18. 19. 19. 19. 19.
      18. 17. 19. 19. 19. 19. 19. 19. 19. 19. 19. 19. 19. 19. 19. 19.
      19. 19. 19. 18. 17. 16. 16. 17. 18. 19. 44. 44. 45. 48. 54. 57.
      58. 58. 58. 61. 55. 53. 59. 56. 56. 70. 74. 77. 61. 133. 152. 147.
      151. 146. 150. 150. 150. 150. 150. 150. 150. 150. 149. 149. 149.
      149. 149. 149. 149. 149. 149. 149. 149. 149. 149. 149. 149. 149.
      149. 149. 149. 149. 149. 149. 149. 149. 149. 149. 149. 149. 149.
      149. 149. 149. 149. 149. 149. 149. 149. 149. 149. 149. 148. 148.
      148. 148. 148. 148. 148. 148. 149. 149. 149. 149. 149. 149. 149.
      149. 148. 148. 148. 148. 148. 148. 148. 148. 149. 149. 149. 149.
      149. 149. 149. 149. 149. 149. 149. 149. 149. 149. 149. 149. 149.
      149. 149. 149. 149. 149. 149. 149. 150. 150. 150. 150. 150. 150.
      150. 150. 150. 150. 150. 150. 150. 150. 150. 150. 149. 149. 149.
      149. 149. 149. 149. 149. 149. 149. 149. 149. 149. 149. 149. 149.
      148. 148. 148. 148. 148. 148. 148. 148. 142. 142. 142. 143. 143.
      144. 144. 144. 147. 147. 147. 148. 148. 149. 149. 149. 149. 149.
      150. 150. 151. 151. 152. 152. 151. 151. 151. 152. 152. 152. 153.
      153. 153. 153. 153. 153. 153. 153. 153. 153. 153. 153. 153. 153.
      153. 153. 153. 153. 153. 153. 153. 153. 153. 153. 153. 153. 153.
      153. 153. 153. 153. 153. 153. 153. 153. 153. 153. 153. 153. 153.
      153. 153. 152. 152. 152. 152. 152. 152. 152. 152. 151. 151. 151.
      151. 151. 151. 151. 151. 153. 145. 155. 130. 56. 89. 86. 59. 62.
      61. 61. 61. 61. 62. 63. 64. 59. 65. 50. 58. 54. 59. 34. 37. 41.
      34. 42. 43. 54. 66. 63. 68. 80. 83. 88. 95. 104. 114. 121. 125.
      138. 140. 143. 145. 147. 149. 151. 152. 159. 159. 157. 157. 156.
      155. 154. 154. 153. 151. 149. 147. 144. 143. 142. 142. 136. 140.
      140. 141. 160. 169. 134. 58. 23. 39. 55. 59. 58. 59. 60. 58. 59.
      62. 57. 56. 62. 58. 58. 71. 76. 84. 60. 129. 156. 149. 149. 150.
      149. 149. 149. 149. 149. 149. 149. 149. 152. 152. 152. 152. 152.
      152. 152. 152. 151. 151. 151. 151. 151. 151. 151. 151. 151. 151.
      151. 151. 151. 151. 151. 151. 151. 151. 151. 151. 151. 151. 151.
      151. 150. 150. 150. 150. 150. 150. 150. 150. 150. 150. 150. 150.
      150. 150. 150. 150. 150. 150. 150. 150. 150. 150. 150. 150. 150.
      150. 150. 150. 150. 150. 150. 150. 150. 150. 150. 150. 150. 150.
      150. 150. 150. 150. 150. 150. 150. 150. 150. 150. 151. 151. 151.
      151. 151. 151. 151. 151. 152. 152. 152. 152. 152. 152. 152. 152.
      152. 152. 152. 152. 152. 152. 152. 152. 152. 152. 152. 152. 152.
      152. 152. 152. 150. 150. 150. 150. 150. 150. 150. 150. 149. 149.
      149. 149. 148. 148. 147. 147. 142. 142. 143. 143. 144. 144. 144.
      145. 147. 147. 148. 148. 148. 149. 149. 149. 149. 150. 150. 150.
      151. 151. 152. 152. 151. 151. 151. 152. 152. 153. 153. 153. 153.
      153. 153. 153. 153. 153. 153. 153. 153. 153. 153. 153. 153. 153.
      153. 153. 153. 153. 153. 153. 153. 153. 153. 153. 153. 153. 153.
      153. 153. 153. 153. 153. 153. 153. 153. 153. 153. 153. 153. 153.
      152. 152. 152. 152. 152. 152. 152. 152. 151. 151. 151. 151. 151.
      151. 151. 151. 153. 146. 155. 126. 58. 88. 85. 59. 62. 61. 61. 61.
      61. 62. 63. 64. 60. 64. 62. 63. 43. 33. 35. 117. 214. 212. 216.
      213. 212. 214. 213. 218. 210. 210. 210. 211. 213. 214. 216. 216.
      223. 222. 222. 222. 222. 221. 220. 219. 223. 223. 224. 225. 225.
      224. 222. 220. 221. 221. 222. 222. 224. 225. 226. 227. 229. 228.
      225. 213. 224. 229. 225. 164. 23. 39. 55. 59. 58. 59. 60. 58. 59.
      62. 57. 56. 62. 58. 58. 71. 76. 83. 59. 129. 156. 149. 149. 150.
      149. 149. 149. 149. 149. 149. 149. 149. 152. 152. 152. 152. 152.
      152. 152. 152. 151. 151. 151. 151. 151. 151. 151. 151. 151. 151.
      151. 151. 151. 151. 151. 151. 151. 151. 151. 151. 151. 151. 151.
      151. 150. 150. 150. 150. 150. 150. 150. 150. 150. 150. 150. 150.
      150. 150. 150. 150. 150. 150. 150. 150. 150. 150. 150. 150. 150.
      150. 150. 150. 150. 150. 150. 150. 150. 150. 150. 150. 150. 150.
      150. 150. 150. 150. 150. 150. 150. 150. 150. 150. 151. 151. 151.
      151. 151. 151. 151. 151. 152. 152. 152. 152. 152. 152. 152. 152.
      152. 152. 152. 152. 152. 152. 152. 152. 152. 152. 152. 152. 152.
      152. 152. 152. 150. 150. 150. 150. 150. 150. 150. 150. 150. 149.
      149. 149. 148. 148. 147. 147. 143. 143. 143. 144. 144. 145. 145.
      145. 147. 148. 148. 148. 149. 149. 150. 150. 150. 150. 150. 151.
      151. 152. 152. 152. 151. 151. 152. 152. 153. 153. 153. 154. 154.
      154. 154. 154. 154. 154. 154. 154. 154. 154. 154. 154. 154. 154.
      154. 154. 154. 154. 154. 154. 154. 154. 154. 154. 154. 154. 154.
      154. 154. 154. 154. 154. 154. 154. 154. 154. 154. 154. 154. 154.
      152. 152. 152. 152. 152. 152. 152. 152. 151. 151. 151. 151. 151.
      151. 151. 151. 152. 147. 155. 119. 60. 87. 85. 59. 62. 61. 61. 61.
      60. 61. 63. 64. 64. 58. 67. 67. 48. 25. 37. 202. 225. 227. 223.
      227. 224. 217. 226. 225. 226. 226. 225. 224. 225. 225. 225. 225.
      224. 224. 224. 224. 224. 224. 224. 224. 222. 223. 224. 225. 225.
      225. 224. 224. 217. 217. 217. 217. 218. 219. 219. 220. 215. 220.
      222. 219. 219. 215. 213. 144. 23. 38. 54. 58. 58. 59. 60. 59. 59.
      62. 57. 56. 62. 58. 58. 71. 77. 83. 58. 127. 156. 150. 149. 150.
      150. 150. 150. 150. 150. 150. 150. 150. 152. 152. 152. 152. 152.
      152. 152. 152. 151. 151. 151. 151. 151. 151. 151. 151. 151. 151.
      151. 151. 151. 151. 151. 151. 151. 151. 151. 151. 151. 151. 151.
      151. 150. 150. 150. 150. 150. 150. 150. 150. 150. 150. 150. 150.
      150. 150. 150. 150. 150. 150. 150. 150. 150. 150. 150. 150. 150.
      150. 150. 150. 150. 150. 150. 150. 150. 150. 150. 150. 150. 150.
      150. 150. 150. 150. 150. 150. 150. 150. 150. 150. 151. 151. 151.
      151. 151. 151. 151. 151. 152. 152. 152. 152. 152. 152. 152. 152.
      152. 152. 152. 152. 152. 152. 152. 152. 152. 152. 152. 152. 152.
      152. 152. 152. 150. 150. 150. 150. 150. 150. 150. 150. 150. 150.
      149. 149. 149. 148. 148. 148. 144. 144. 144. 145. 145. 146. 146.
      146. 148. 148. 148. 149. 149. 150. 150. 150. 150. 150. 151. 151.
      152. 152. 153. 153. 152. 152. 152. 152. 153. 153. 154. 154. 154.
      154. 154. 154. 154. 154. 154. 154. 154. 154. 154. 154. 154. 154.
      154. 154. 154. 154. 154. 154. 154. 154. 154. 154. 154. 154. 154.
      154. 154. 154. 154. 154. 154. 154. 154. 154. 154. 154. 154. 154.
      153. 153. 153. 153. 153. 153. 153. 153. 151. 151. 151. 151. 151.
      151. 151. 151. 151. 149. 156. 110. 63. 86. 84. 58. 62. 61. 61. 61.
      60. 61. 63. 64. 67. 52. 60. 64. 67. 44. 37. 230. 219. 224. 214.
      224. 229. 224. 226. 209. 217. 217. 218. 219. 220. 222. 222. 223.
      220. 220. 220. 220. 220. 220. 220. 219. 220. 220. 219. 219. 220.
      221. 223. 224. 220. 220. 220. 220. 220. 221. 221. 222. 222. 219.
      216. 217. 216. 214. 221. 173. 22. 37. 53. 58. 58. 59. 60. 59. 59.
      62. 57. 56. 62. 58. 58. 71. 77. 82. 56. 126. 155. 150. 150. 150.
      150. 150. 150. 150. 150. 150. 150. 150. 152. 152. 152. 152. 152.
      152. 152. 152. 151. 151. 151. 151. 151. 151. 151. 151. 151. 151.
      151. 151. 151. 151. 151. 151. 151. 151. 151. 151. 151. 151. 151.
      151. 150. 150. 150. 150. 150. 150. 150. 150. 150. 150. 150. 150.
      150. 150. 150. 150. 150. 150. 150. 150. 150. 150. 150. 150. 150.
      150. 150. 150. 150. 150. 150. 150. 150. 150. 150. 150. 150. 150.
      150. 150. 150. 150. 150. 150. 150. 150. 150. 150. 151. 151. 151.
      151. 151. 151. 151. 151. 153. 153. 153. 153. 153. 153. 153. 153.
      153. 153. 153. 153. 153. 153. 153. 153. 153. 153. 153. 153. 153.
      153. 153. 153. 150. 150. 150. 150. 150. 150. 150. 150. 150. 150.
      150. 149. 149. 149. 148. 148. 145. 145. 145. 146. 146. 147. 147.
      147. 148. 148. 149. 149. 150. 150. 150. 151. 151. 151. 151. 152.
      152. 153. 153. 153. 152. 152. 153. 153. 153. 154. 154. 154. 154.
      154. 154. 154. 154. 154. 154. 154. 154. 154. 154. 154. 154. 154.
      154. 154. 154. 154. 154. 154. 154. 154. 154. 154. 154. 154. 154.
      154. 154. 154. 154. 154. 154. 154. 154. 154. 154. 154. 154. 154.
      153. 153. 153. 153. 153. 153. 153. 153. 151. 151. 152. 152. 151.
      151. 152. 152. 150. 151. 156. 100. 66. 85. 85. 59. 62. 61. 61. 61.
      60. 61. 63. 64. 64. 57. 59. 58. 71. 53. 42. 230. 222. 228. 232.
      226. 224. 234. 241. 239. 236. 235. 234. 231. 229. 227. 225. 224.
      214. 212. 210. 206. 202. 199. 196. 195. 184. 181. 177. 174. 175.
      179. 184. 188. 180. 181. 183. 186. 189. 193. 197. 199. 197. 186.
      183. 226. 220. 214. 216. 150. 21. 37. 52. 57. 57. 59. 60. 59. 59.
      62. 57. 56. 62. 58. 58. 71. 77. 81. 54. 124. 155. 151. 150. 150.
      151. 151. 151. 151. 151. 151. 151. 151. 152. 152. 152. 152. 152.
      152. 152. 152. 152. 152. 152. 152. 152. 152. 152. 152. 152. 152.
      152. 152. 152. 152. 152. 152. 152. 152. 152. 152. 152. 152. 152.
      152. 151. 151. 151. 151. 151. 151. 151. 151. 151. 151. 151. 151.
      151. 151. 151. 151. 151. 151. 151. 151. 151. 151. 151. 151. 151.
      151. 151. 151. 151. 151. 151. 151. 151. 151. 151. 151. 151. 151.
      151. 151. 151. 151. 151. 151. 151. 151. 151. 151. 152. 152. 152.
      152. 152. 152. 152. 152. 153. 153. 153. 153. 153. 153. 153. 153.
      153. 153. 153. 153. 153. 153. 153. 153. 153. 153. 153. 153. 153.
      153. 153. 153. 151. 151. 151. 151. 151. 151. 151. 151. 151. 151.
      150. 150. 149. 149. 149. 149. 146. 146. 146. 147. 147. 148. 148.
      148. 149. 149. 149. 150. 150. 151. 151. 151. 151. 151. 152. 152.
      153. 153. 153. 154. 152. 153. 153. 153. 154. 154. 155. 155. 155.
      155. 155. 155. 155. 155. 155. 155. 155. 155. 155. 155. 155. 155.
      155. 155. 155. 155. 155. 155. 155. 155. 155. 155. 155. 155. 155.
      155. 155. 155. 155. 155. 155. 155. 155. 155. 155. 155. 155. 155.
      154. 154. 154. 154. 154. 154. 154. 154. 151. 151. 152. 152. 151.
      151. 152. 152. 149. 153. 157. 91. 69. 83. 84. 59. 62. 61. 61. 61.
      60. 61. 63. 64. 58. 68. 64. 55. 56. 40. 49. 232. 221. 225. 207.
      107. 35. 29. 23. 29. 27. 25. 25. 23. 20. 18. 15. 15. 17. 17. 16.
      16. 16. 16. 17. 17. 22. 20. 17. 17. 17. 17. 21. 24. 18. 18. 17.
      17. 17. 17. 19. 21. 20. 27. 54. 208. 220. 223. 219. 160. 20. 36.
      52. 57. 57. 59. 60. 59. 59. 62. 57. 56. 62. 58. 58. 71. 78. 80.
      52. 122. 154. 152. 151. 150. 151. 151. 151. 151. 151. 151. 151.
      151. 152. 152. 152. 152. 152. 152. 152. 152. 152. 152. 152. 152.
      152. 152. 152. 152. 152. 152. 152. 152. 152. 152. 152. 152. 152.
      152. 152. 152. 152. 152. 152. 152. 151. 151. 151. 151. 151. 151.
      151. 151. 151. 151. 151. 151. 151. 151. 151. 151. 151. 151. 151.
      151. 151. 151. 151. 151. 151. 151. 151. 151. 151. 151. 151. 151.
      151. 151. 151. 151. 151. 151. 151. 151. 151. 151. 151. 151. 151.
      151. 151. 151. 152. 152. 152. 152. 152. 152. 152. 152. 154. 154.
      154. 154. 154. 154. 154. 154. 154. 154. 154. 154. 154. 154. 154.
      154. 154. 154. 154. 154. 154. 154. 154. 154. 151. 151. 151. 151.
      151. 151. 151. 151. 151. 151. 151. 150. 150. 149. 149. 149. 146.
      147. 147. 147. 148. 148. 149. 149. 149. 149. 150. 150. 151. 151.
      151. 151. 152. 152. 152. 153. 153. 153. 154. 154. 153. 153. 153.
      154. 154. 155. 155. 155. 155. 155. 155. 155. 155. 155. 155. 155.
      155. 155. 155. 155. 155. 155. 155. 155. 155. 155. 155. 155. 155.
      155. 155. 155. 155. 155. 155. 155. 155. 155. 155. 155. 155. 155.
      155. 155. 155. 155. 155. 155. 154. 154. 154. 154. 154. 154. 154.
      154. 153. 153. 153. 153. 152. 152. 152. 152. 148. 155. 157. 83.
      71. 82. 83. 58. 62. 61. 61. 61. 60. 61. 63. 64. 57. 73. 59. 61.
      52. 29. 60. 231. 220. 221. 216. 79. 10. 27. 15. 34. 32. 31. 30.
      29. 29. 29. 28. 28. 34. 35. 36. 38. 39. 41. 42. 42. 37. 36. 33.
      32. 32. 33. 34. 35. 39. 38. 36. 34. 32. 30. 30. 29. 35. 27. 31.
      217. 211. 228. 218. 172. 20. 35. 51. 56. 57. 59. 60. 59. 59. 62.
      57. 56. 62. 58. 58. 71. 78. 79. 50. 121. 154. 152. 151. 150. 152.
      152. 152. 152. 152. 152. 152. 152. 152. 152. 152. 152. 152. 152.
      152. 152. 153. 153. 153. 153. 153. 153. 153. 153. 153. 153. 153.
      153. 153. 153. 153. 153. 153. 153. 153. 153. 153. 153. 153. 153.
      152. 152. 152. 152. 152. 152. 152. 152. 152. 152. 152. 152. 152.
      152. 152. 152. 152. 152. 152. 152. 152. 152. 152. 152. 152. 152.
      152. 152. 152. 152. 152. 152. 152. 152. 152. 152. 152. 152. 152.
      152. 152. 152. 152. 152. 152. 152. 152. 152. 153. 153. 153. 153.
      153. 153. 153. 153. 154. 154. 154. 154. 154. 154. 154. 154. 154.
      154. 154. 154. 154. 154. 154. 154. 154. 154. 154. 154. 154. 154.
      154. 154. 152. 152. 152. 152. 152. 152. 152. 152. 152. 152. 151.
      151. 150. 150. 149. 149. 147. 147. 147. 148. 148. 149. 149. 149.
      149. 149. 150. 150. 151. 151. 151. 152. 152. 152. 152. 153. 153.
      154. 154. 154. 153. 153. 154. 154. 154. 155. 155. 155. 155. 155.
      155. 155. 155. 155. 155. 155. 155. 155. 155. 155. 155. 155. 155.
      155. 155. 155. 155. 155. 155. 155. 155. 155. 155. 155. 155. 155.
      155. 155. 155. 155. 155. 155. 155. 155. 155. 155. 155. 155. 154.
      154. 154. 154. 154. 154. 154. 154. 153. 153. 153. 153. 152. 152.
      152. 152. 148. 156. 157. 80. 72. 82. 82. 58. 62. 61. 61. 61. 60.
      61. 63. 64. 60. 69. 47. 68. 62. 31. 68. 228. 219. 213. 209. 68.
      18. 70. 45. 58. 53. 53. 52. 52. 53. 53. 53. 53. 50. 49. 49. 48.
      47. 46. 46. 45. 48. 49. 50. 51. 50. 48. 46. 45. 47. 47. 47. 47.
      47. 48. 48. 49. 50. 37. 34. 239. 221. 230. 209. 169. 20. 35. 51.
      56. 57. 59. 60. 59. 59. 62. 57. 56. 62. 58. 58. 71. 78. 79. 49.
      120. 154. 152. 152. 150. 152. 152. 152. 152. 152. 152. 152. 152.
      152. 152. 152. 152. 152. 152. 152. 152. 153. 153. 153. 153. 153.
      153. 153. 153. 153. 153. 153. 153. 153. 153. 153. 153. 153. 153.
      153. 153. 153. 153. 153. 153. 152. 152. 152. 152. 152. 152. 152.
      152. 152. 152. 152. 152. 152. 152. 152. 152. 152. 152. 152. 152.
      152. 152. 152. 152. 152. 152. 152. 152. 152. 152. 152. 152. 152.
      152. 152. 152. 152. 152. 152. 152. 152. 152. 152. 152. 152. 152.
      152. 152. 153. 153. 153. 153. 153. 153. 153. 153. 154. 154. 154.
      154. 154. 154. 154. 154. 154. 154. 154. 154. 154. 154. 154. 154.
      154. 154. 154. 154. 154. 154. 154. 154. 152. 152. 152. 152. 152.
      152. 152. 152. 152. 152. 151. 151. 150. 150. 150. 149. 147. 147.
      147. 148. 148. 149. 149. 149. 149. 149. 150. 150. 151. 151. 152.
      152. 152. 152. 152. 153. 153. 154. 154. 154. 153. 153. 154. 154.
      155. 155. 155. 155. 156. 156. 156. 156. 156. 156. 156. 156. 157.
      157. 157. 157. 157. 157. 157. 157. 156. 156. 156. 156. 156. 156.
      156. 156. 156. 156. 156. 156. 156. 156. 156. 156. 156. 156. 156.
      156. 156. 156. 156. 156. 154. 154. 154. 154. 154. 154. 154. 154.
      154. 154. 154. 153. 153. 152. 152. 152. 151. 155. 150. 78. 73. 90.
      86. 58. 62. 62. 62. 62. 61. 61. 62. 62. 60. 57. 59. 61. 65. 23.
      96. 225. 217. 217. 211. 52. 22. 51. 60. 62. 61. 61. 61. 60. 60.
      60. 59. 59. 58. 58. 57. 57. 57. 56. 56. 56. 59. 59. 59. 59. 59.
      59. 59. 59. 56. 56. 57. 58. 59. 57. 52. 48. 47. 33. 38. 230. 227.
      226. 223. 168. 18. 39. 50. 53. 63. 64. 59. 61. 58. 63. 59. 59. 66.
      60. 58. 71. 76. 79. 65. 107. 159. 157. 150. 151. 152. 152. 152.
      152. 152. 152. 152. 152. 153. 153. 153. 153. 153. 153. 153. 153.
      153. 153. 153. 153. 153. 153. 153. 153. 152. 152. 152. 152. 152.
      152. 152. 152. 153. 153. 153. 153. 153. 153. 153. 153. 152. 152.
      152. 152. 152. 152. 152. 152. 151. 151. 151. 151. 151. 151. 151.
      151. 152. 152. 152. 152. 152. 152. 152. 152. 152. 152. 152. 152.
      152. 152. 152. 152. 152. 152. 152. 152. 152. 152. 152. 152. 153.
      153. 153. 153. 153. 153. 153. 153. 154. 154. 154. 154. 154. 154.
      154. 154. 154. 154. 154. 154. 154. 154. 154. 154. 154. 154. 154.
      154. 154. 154. 154. 154. 154. 154. 154. 154. 154. 154. 154. 154.
      153. 153. 153. 153. 153. 153. 153. 153. 152. 152. 152. 152. 152.
      152. 152. 152. 147. 147. 148. 148. 148. 149. 149. 149. 149. 150.
      150. 150. 151. 151. 152. 152. 152. 152. 153. 153. 153. 154. 154.
      154. 153. 153. 154. 154. 155. 155. 155. 156. 156. 156. 156. 156.
      156. 156. 156. 156. 157. 157. 157. 157. 157. 157. 157. 157. 156.
      156. 156. 156. 156. 156. 156. 156. 156. 156. 156. 156. 156. 156.
      156. 156. 156. 156. 156. 156. 156. 156. 156. 156. 154. 154. 154.
      154. 154. 154. 154. 154. 154. 154. 154. 153. 153. 153. 152. 152.
      151. 155. 148. 76. 75. 89. 84. 58. 62. 62. 62. 62. 61. 61. 62. 62.
      65. 62. 62. 67. 72. 31. 108. 227. 217. 217. 207. 49. 25. 54. 59.
      58. 61. 61. 61. 60. 60. 60. 59. 59. 63. 63. 63. 62. 62. 61. 61.
      61. 57. 57. 57. 57. 57. 57. 57. 57. 62. 63. 64. 64. 63. 62. 60.
      59. 47. 33. 38. 230. 227. 226. 224. 169. 18. 39. 49. 49. 59. 62.
      59. 61. 58. 63. 59. 59. 66. 60. 58. 71. 76. 79. 65. 106. 159. 157.
      150. 151. 152. 152. 152. 152. 152. 152. 152. 152. 153. 153. 153.
      153. 153. 153. 153. 153. 153. 153. 153. 153. 153. 153. 153. 153.
      152. 152. 152. 152. 152. 152. 152. 152. 153. 153. 153. 153. 153.
      153. 153. 153. 152. 152. 152. 152. 152. 152. 152. 152. 151. 151.
      151. 151. 151. 151. 151. 151. 152. 152. 152. 152. 152. 152. 152.
      152. 152. 152. 152. 152. 152. 152. 152. 152. 152. 152. 152. 152.
      152. 152. 152. 152. 153. 153. 153. 153. 153. 153. 153. 153. 154.
      154. 154. 154. 154. 154. 154. 154. 154. 154. 154. 154. 154. 154.
      154. 154. 154. 154. 154. 154. 154. 154. 154. 154. 154. 154. 154.
      154. 154. 154. 154. 154. 153. 153. 153. 153. 153. 153. 153. 153.
      152. 152. 152. 152. 152. 152. 152. 152. 147. 148. 148. 148. 149.
      149. 150. 150. 150. 150. 150. 151. 151. 152. 152. 152. 152. 153.
      153. 153. 154. 154. 155. 155. 154. 154. 154. 155. 155. 155. 156.
      156. 156. 156. 156. 156. 156. 156. 156. 156. 157. 157. 157. 157.
      157. 157. 157. 157. 156. 156. 156. 156. 156. 156. 156. 156. 156.
      156. 156. 156. 156. 156. 156. 156. 156. 156. 156. 156. 156. 156.
      156. 156. 155. 155. 155. 155. 155. 155. 155. 155. 155. 155. 154.
      154. 153. 153. 153. 152. 152. 157. 146. 74. 77. 89. 81. 60. 62.
      62. 62. 62. 62. 62. 62. 62. 62. 60. 57. 68. 74. 35. 119. 225. 218.
      216. 203. 44. 31. 57. 57. 51. 57. 57. 56. 56. 55. 54. 53. 53. 48.
      48. 47. 47. 46. 46. 46. 45. 50. 50. 50. 50. 50. 50. 50. 50. 45.
      48. 50. 49. 46. 45. 49. 52. 48. 36. 42. 227. 222. 222. 219. 169.
      19. 40. 46. 44. 54. 60. 59. 61. 58. 63. 59. 59. 66. 60. 58. 71.
      77. 80. 65. 106. 159. 156. 150. 152. 152. 152. 152. 152. 152. 152.
      152. 152. 153. 153. 153. 153. 153. 153. 153. 153. 154. 154. 154.
      154. 154. 154. 154. 154. 152. 152. 152. 152. 152. 152. 152. 152.
      153. 153. 153. 153. 153. 153. 153. 153. 152. 152. 152. 152. 152.
      152. 152. 152. 151. 151. 151. 151. 151. 151. 151. 151. 153. 153.
      153. 153. 153. 153. 153. 153. 153. 153. 153. 153. 153. 153. 153.
      153. 153. 153. 153. 153. 153. 153. 153. 153. 154. 154. 154. 154.
      154. 154. 154. 154. 155. 155. 155. 155. 155. 155. 155. 155. 155.
      155. 155. 155. 155. 155. 155. 155. 155. 155. 155. 155. 155. 155.
      155. 155. 155. 155. 155. 155. 155. 155. 155. 155. 154. 154. 154.
      154. 154. 154. 154. 154. 153. 153. 153. 153. 153. 153. 153. 153.
      148. 148. 148. 149. 149. 150. 150. 150. 150. 150. 151. 151. 152.
      152. 153. 153. 153. 153. 153. 154. 154. 155. 155. 155. 154. 154.
      155. 155. 155. 156. 156. 156. 156. 156. 156. 156. 156. 156. 156.
      156. 158. 158. 158. 158. 158. 158. 158. 158. 156. 156. 156. 156.
      156. 156. 156. 156. 156. 156. 156. 156. 156. 156. 156. 156. 156.
      156. 156. 156. 156. 156. 156. 156. 155. 155. 155. 155. 155. 155.
      155. 155. 155. 155. 155. 154. 154. 153. 153. 153. 152. 158. 142.
      70. 80. 89. 77. 62. 62. 62. 62. 62. 62. 62. 62. 62. 59. 58. 52.
      67. 73. 38. 131. 224. 219. 216. 199. 37. 39. 59. 53. 43. 33. 33.
      33. 32. 31. 30. 29. 28. 31. 31. 31. 30. 30. 29. 29. 29. 25. 25.
      25. 25. 25. 25. 25. 25. 27. 31. 33. 30. 26. 26. 33. 40. 48. 36.
      42. 227. 222. 222. 219. 170. 18. 40. 45. 39. 49. 59. 59. 61. 58.
      63. 59. 59. 66. 60. 58. 71. 78. 80. 64. 105. 158. 156. 150. 152.
      152. 152. 152. 152. 152. 152. 152. 152. 153. 153. 153. 153. 153.
      153. 153. 153. 154. 154. 154. 154. 154. 154. 154. 154. 153. 153.
      153. 153. 153. 153. 153. 153. 153. 153. 153. 153. 153. 153. 153.
      153. 152. 152. 152. 152. 152. 152. 152. 152. 152. 152. 152. 152.
      152. 152. 152. 152. 153. 153. 153. 153. 153. 153. 153. 153. 153.
      153. 153. 153. 153. 153. 153. 153. 153. 153. 153. 153. 153. 153.
      153. 153. 154. 154. 154. 154. 154. 154. 154. 154. 155. 155. 155.
      155. 155. 155. 155. 155. 155. 155. 155. 155. 155. 155. 155. 155.
      155. 155. 155. 155. 155. 155. 155. 155. 155. 155. 155. 155. 155.
      155. 155. 155. 154. 154. 154. 154. 154. 154. 154. 154. 153. 153.
      153. 153. 153. 153. 153. 153. 148. 148. 149. 149. 150. 150. 150.
      151. 151. 151. 151. 152. 152. 153. 153. 153. 153. 153. 154. 154.
      155. 155. 155. 156. 155. 155. 155. 155. 156. 156. 157. 157. 157.
      157. 157. 157. 157. 157. 157. 157. 158. 158. 158. 158. 158. 158.
      158. 158. 157. 157. 157. 157. 157. 157. 157. 157. 157. 157. 157.
      157. 157. 157. 157. 157. 157. 157. 157. 157. 157. 157. 157. 157.
      156. 156. 156. 156. 156. 156. 156. 156. 156. 155. 155. 155. 154.
      154. 153. 153. 152. 160. 140. 68. 84. 90. 73. 65. 62. 62. 62. 62.
      62. 62. 62. 62. 61. 63. 53. 71. 74. 42. 148. 224. 222. 218. 197.
      29. 46. 60. 51. 39. 35. 34. 34. 33. 31. 30. 30. 29. 33. 33. 33.
      32. 32. 32. 31. 31. 28. 28. 28. 28. 28. 28. 28. 28. 27. 31. 33.
      30. 26. 27. 35. 42. 47. 34. 41. 227. 222. 222. 219. 173. 18. 41.
      44. 35. 45. 58. 60. 60. 58. 63. 59. 59. 66. 60. 58. 71. 78. 80.
      64. 105. 157. 156. 151. 153. 152. 152. 152. 152. 152. 152. 152.
      152. 153. 153. 153. 153. 153. 153. 153. 153. 154. 154. 154. 154.
      154. 154. 154. 154. 153. 153. 153. 153. 153. 153. 153. 153. 153.
      153. 153. 153. 153. 153. 153. 153. 152. 152. 152. 152. 152. 152.
      152. 152. 152. 152. 152. 152. 152. 152. 152. 152. 153. 153. 153.
      153. 153. 153. 153. 153. 153. 153. 153. 153. 153. 153. 153. 153.
      153. 153. 153. 153. 153. 153. 153. 153. 155. 155. 155. 155. 155.
      155. 155. 155. 156. 156. 156. 156. 156. 156. 156. 156. 156. 156.
      156. 156. 156. 156. 156. 156. 156. 156. 156. 156. 156. 156. 156.
      156. 156. 156. 156. 156. 156. 156. 156. 156. 155. 155. 155. 155.
      155. 155. 155. 155. 153. 153. 153. 153. 153. 153. 153. 153. 149.
      149. 149. 150. 150. 151. 151. 151. 151. 151. 152. 152. 153. 153.
      153. 154. 154. 154. 154. 155. 155. 156. 156. 156. 155. 155. 155.
      156. 156. 157. 157. 157. 157. 157. 157. 157. 157. 157. 157. 157.
      159. 159. 159. 159. 159. 159. 159. 159. 157. 157. 157. 157. 157.
      157. 157. 157. 157. 157. 157. 157. 157. 157. 157. 157. 157. 157.
      157. 157. 157. 157. 157. 157. 156. 156. 156. 156. 156. 156. 156.
      156. 156. 156. 156. 155. 155. 154. 154. 154. 153. 162. 136. 65.
      87. 90. 69. 67. 62. 62. 62. 62. 62. 62. 62. 62. 58. 63. 50. 69.
      66. 39. 158. 223. 222. 218. 196. 24. 53. 62. 52. 42. 44. 44. 43.
      41. 40. 39. 38. 37. 36. 36. 36. 35. 35. 34. 34. 34. 38. 38. 38.
      38. 38. 38. 38. 38. 31. 33. 34. 32. 29. 31. 37. 42. 47. 34. 41.
      226. 222. 222. 220. 174. 18. 42. 45. 34. 44. 59. 61. 59. 58. 63.
      59. 59. 66. 60. 58. 71. 79. 81. 64. 104. 156. 155. 151. 154. 152.
      152. 152. 152. 152. 152. 152. 152. 153. 153. 153. 153. 153. 153.
      153. 153. 155. 155. 155. 155. 155. 155. 155. 155. 154. 154. 154.
      154. 154. 154. 154. 154. 153. 153. 153. 153. 153. 153. 153. 153.
      152. 152. 152. 152. 152. 152. 152. 152. 153. 153. 153. 153. 153.
      153. 153. 153. 154. 154. 154. 154. 154. 154. 154. 154. 154. 154.
      154. 154. 154. 154. 154. 154. 154. 154. 154. 154. 154. 154. 154.
      154. 155. 155. 155. 155. 155. 155. 155. 155. 156. 156. 156. 156.
      156. 156. 156. 156. 156. 156. 156. 156. 156. 156. 156. 156. 156.
      156. 156. 156. 156. 156. 156. 156. 156. 156. 156. 156. 156. 156.
      156. 156. 155. 155. 155. 155. 155. 155. 155. 155. 154. 154. 154.
      154. 154. 154. 154. 154. 149. 149. 150. 150. 151. 151. 151. 151.
      152. 152. 152. 153. 153. 153. 154. 154. 154. 154. 155. 155. 156.
      156. 156. 156. 155. 155. 156. 156. 157. 157. 158. 158. 158. 158.
      158. 158. 158. 158. 158. 158. 159. 159. 159. 159. 159. 159. 159.
      159. 158. 158. 158. 158. 158. 158. 158. 158. 158. 158. 158. 158.
      158. 158. 158. 158. 158. 158. 158. 158. 158. 158. 158. 158. 157.
      157. 157. 157. 157. 157. 157. 157. 156. 156. 156. 156. 155. 155.
      154. 154. 153. 163. 134. 62. 90. 90. 66. 68. 62. 62. 62. 62. 62.
      62. 62. 62. 56. 64. 48. 67. 58. 36. 164. 223. 225. 218. 193. 16.
      57. 64. 58. 51. 40. 40. 39. 37. 36. 34. 33. 33. 40. 40. 40. 39.
      39. 38. 38. 38. 33. 33. 33. 33. 33. 33. 33. 33. 38. 38. 37. 37.
      37. 39. 41. 43. 49. 33. 34. 226. 224. 226. 226. 175. 17. 43. 47.
      34. 44. 61. 62. 58. 58. 63. 59. 59. 66. 60. 58. 71. 79. 81. 64.
      103. 156. 155. 151. 154. 152. 152. 152. 152. 152. 152. 152. 152.
      153. 153. 153. 153. 153. 153. 153. 153. 155. 155. 155. 155. 155.
      155. 155. 155. 154. 154. 154. 154. 154. 154. 154. 154. 153. 153.
      153. 153. 153. 153. 153. 153. 152. 152. 152. 152. 152. 152. 152.
      152. 153. 153. 153. 153. 153. 153. 153. 153. 154. 154. 154. 154.
      154. 154. 154. 154. 154. 154. 154. 154. 154. 154. 154. 154. 154.
      154. 154. 154. 154. 154. 154. 154. 156. 156. 156. 156. 156. 156.
      156. 156. 157. 157. 157. 157. 157. 157. 157. 157. 157. 157. 157.
      157. 157. 157. 157. 157. 157. 157. 157. 157. 157. 157. 157. 157.
      157. 157. 157. 157. 157. 157. 157. 157. 156. 156. 156. 156. 156.
      156. 156. 156. 154. 154. 154. 154. 154. 154. 154. 154. 149. 149.
      150. 150. 151. 151. 151. 152. 152. 152. 152. 153. 153. 154. 154.
      154. 154. 154. 155. 155. 156. 156. 156. 157. 155. 156. 156. 156.
      157. 157. 158. 158. 158. 158. 158. 158. 158. 158. 158. 158. 159.
      159. 159. 159. 159. 159. 159. 159. 158. 158. 158. 158. 158. 158.
      158. 158. 158. 158. 158. 158. 158. 158. 158. 158. 158. 158. 158.
      158. 158. 158. 158. 158. 157. 157. 157. 157. 157. 157. 157. 157.
      157. 156. 156. 156. 155. 155. 154. 154. 153. 164. 133. 61. 91. 90.
      64. 69. 62. 62. 62. 62. 62. 62. 62. 62. 61. 71. 54. 72. 59. 38.
      173. 225. 221. 215. 191. 14. 60. 66. 63. 59. 62. 62. 60. 59. 57.
      56. 55. 54. 54. 53. 53. 53. 52. 52. 51. 51. 54. 54. 54. 54. 54.
      54. 54. 54. 54. 53. 51. 52. 54. 55. 55. 54. 49. 33. 33. 226. 224.
      226. 226. 175. 16. 43. 48. 35. 45. 62. 62. 57. 58. 63. 59. 59. 66.
      60. 58. 71. 80. 81. 64. 103. 156. 155. 151. 154. 152. 152. 152.
      152. 152. 152. 152. 152. 153. 153. 153. 153. 153. 153. 153. 153.
      155. 155. 155. 155. 155. 155. 155. 155. 154. 154. 154. 154. 154.
      154. 154. 154. 153. 153. 153. 153. 153. 153. 153. 153. 152. 152.
      152. 152. 152. 152. 152. 152. 153. 153. 153. 153. 153. 153. 153.
      153. 154. 154. 154. 154. 154. 154. 154. 154. 154. 154. 154. 154.
      154. 154. 154. 154. 154. 154. 154. 154. 154. 154. 154. 154. 156.
      156. 156. 156. 156. 156. 156. 156. 157. 157. 157. 157. 157. 157.
      157. 157. 157. 157. 157. 157. 157. 157. 157. 157. 157. 157. 157.
      157. 157. 157. 157. 157. 157. 157. 157. 157. 157. 157. 157. 157.
      156. 156. 156. 156. 156. 156. 156. 156. 154. 154. 154. 154. 154.
      154. 154. 154. 151. 151. 151. 152. 152. 152. 153. 153. 153. 153.
      154. 154. 155. 155. 155. 155. 154. 154. 155. 155. 156. 156. 157.
      157. 158. 158. 158. 158. 158. 158. 158. 158. 159. 159. 159. 159.
      159. 159. 159. 159. 159. 159. 159. 159. 159. 159. 159. 159. 159.
      159. 159. 159. 159. 159. 159. 159. 159. 159. 159. 158. 158. 157.
      157. 157. 157. 157. 157. 157. 157. 157. 157. 157. 157. 157. 157.
      157. 157. 157. 157. 157. 157. 157. 156. 156. 155. 155. 154. 154.
      157. 150. 132. 60. 89. 90. 64. 66. 64. 62. 60. 60. 61. 61. 59. 57.
      66. 56. 52. 58. 46. 36. 204. 229. 224. 218. 183. 24. 63. 70. 62.
      69. 65. 65. 65. 65. 64. 64. 63. 63. 62. 62. 61. 61. 60. 60. 60.
      59. 59. 59. 59. 59. 59. 59. 59. 59. 61. 60. 59. 59. 61. 61. 58.
      56. 53. 33. 37. 229. 224. 224. 222. 178. 17. 37. 53. 34. 42. 64.
      56. 62. 61. 59. 60. 63. 62. 59. 62. 68. 82. 80. 70. 95. 162. 153.
      155. 148. 154. 154. 154. 154. 154. 154. 154. 154. 154. 154. 154.
      154. 154. 154. 154. 154. 155. 155. 155. 155. 155. 155. 155. 155.
      155. 155. 155. 155. 155. 155. 155. 155. 154. 154. 154. 154. 154.
      154. 154. 154. 154. 154. 154. 154. 154. 154. 154. 154. 154. 154.
      154. 154. 154. 154. 154. 154. 156. 156. 156. 156. 156. 156. 156.
      156. 157. 157. 157. 157. 157. 157. 157. 157. 156. 156. 156. 157.
      157. 157. 158. 158. 157. 157. 157. 157. 157. 157. 157. 157. 157.
      157. 157. 157. 157. 157. 157. 157. 157. 157. 157. 157. 157. 157.
      157. 157. 157. 157. 157. 157. 157. 157. 157. 157. 158. 157. 156.
      155. 154. 154. 155. 155. 157. 157. 157. 157. 157. 157. 157. 157.
      156. 156. 156. 156. 156. 156. 156. 156. 151. 151. 151. 152. 152.
      153. 153. 153. 153. 153. 154. 154. 155. 155. 155. 156. 154. 155.
      155. 155. 156. 156. 157. 157. 158. 158. 158. 158. 158. 158. 158.
      158. 159. 159. 159. 159. 159. 159. 159. 159. 159. 159. 159. 159.
      159. 159. 159. 159. 159. 159. 159. 159. 159. 159. 159. 159. 159.
      159. 159. 158. 158. 158. 157. 157. 157. 157. 157. 157. 157. 157.
      157. 157. 157. 157. 157. 157. 157. 157. 157. 157. 157. 157. 156.
      156. 155. 155. 154. 154. 157. 151. 128. 62. 89. 91. 65. 66. 63.
      61. 60. 60. 62. 62. 61. 59. 65. 58. 53. 55. 41. 38. 210. 229. 223.
      218. 179. 24. 63. 71. 64. 70. 66. 65. 65. 65. 64. 64. 63. 63. 62.
      62. 61. 61. 60. 60. 60. 59. 59. 59. 59. 59. 59. 59. 59. 59. 61.
      60. 59. 59. 61. 61. 58. 56. 52. 33. 37. 229. 224. 224. 223. 178.
      17. 37. 53. 34. 42. 64. 56. 62. 61. 59. 60. 63. 62. 59. 62. 68.
      82. 80. 70. 95. 161. 153. 156. 148. 154. 154. 154. 154. 154. 154.
      154. 154. 154. 154. 154. 154. 154. 154. 154. 154. 155. 155. 155.
      155. 155. 155. 155. 155. 155. 155. 155. 155. 155. 155. 155. 155.
      154. 154. 154. 154. 154. 154. 154. 154. 154. 154. 154. 154. 154.
      154. 154. 154. 154. 154. 154. 154. 154. 154. 154. 154. 156. 156.
      156. 156. 156. 156. 156. 156. 157. 157. 157. 157. 157. 157. 157.
      157. 156. 156. 156. 157. 157. 158. 158. 158. 157. 157. 157. 157.
      157. 157. 157. 157. 157. 157. 157. 157. 157. 157. 157. 157. 157.
      157. 157. 157. 157. 157. 157. 157. 157. 157. 157. 157. 157. 157.
      157. 157. 158. 157. 156. 155. 154. 155. 155. 155. 157. 157. 157.
      157. 157. 157. 157. 157. 156. 156. 156. 156. 156. 156. 156. 156.
      151. 151. 152. 152. 153. 153. 153. 154. 154. 154. 154. 155. 155.
      155. 156. 156. 155. 155. 155. 156. 156. 157. 157. 157. 159. 159.
      159. 159. 159. 159. 159. 159. 160. 160. 160. 160. 160. 160. 160.
      160. 160. 160. 160. 160. 160. 160. 160. 160. 160. 160. 160. 160.
      160. 160. 160. 160. 160. 160. 159. 159. 158. 158. 158. 157. 157.
      157. 157. 157. 157. 157. 157. 157. 157. 157. 157. 157. 157. 157.
      157. 157. 157. 157. 156. 156. 155. 155. 154. 154. 156. 153. 122.
      66. 91. 92. 66. 66. 62. 61. 59. 60. 63. 64. 63. 61. 64. 59. 55.
      50. 36. 43. 221. 229. 223. 220. 170. 27. 63. 72. 66. 71. 66. 66.
      65. 65. 65. 64. 64. 64. 62. 62. 62. 61. 61. 60. 60. 60. 59. 59.
      59. 59. 59. 59. 59. 59. 61. 60. 59. 59. 61. 61. 57. 55. 51. 32.
      37. 228. 224. 223. 222. 178. 17. 37. 53. 34. 42. 64. 56. 62. 61.
      59. 60. 63. 62. 59. 62. 68. 82. 79. 70. 94. 161. 153. 156. 149.
      154. 154. 154. 154. 154. 154. 154. 154. 154. 154. 154. 154. 154.
      154. 154. 154. 155. 155. 155. 155. 155. 155. 155. 155. 155. 155.
      155. 155. 155. 155. 155. 155. 155. 155. 155. 155. 155. 155. 155.
      155. 155. 155. 155. 155. 155. 155. 155. 155. 155. 155. 155. 155.
      155. 155. 155. 155. 156. 156. 156. 156. 156. 156. 156. 156. 157.
      157. 157. 157. 157. 157. 157. 157. 156. 156. 157. 157. 158. 158.
      158. 159. 157. 157. 157. 157. 157. 157. 157. 157. 157. 157. 157.
      157. 157. 157. 157. 157. 157. 157. 157. 157. 157. 157. 157. 157.
      157. 157. 157. 157. 157. 157. 157. 157. 158. 157. 156. 155. 155.
      155. 155. 156. 157. 157. 157. 157. 157. 157. 157. 157. 156. 156.
      156. 156. 156. 156. 156. 156. 152. 152. 152. 152. 153. 153. 154.
      154. 154. 154. 155. 155. 155. 156. 156. 156. 155. 155. 156. 156.
      157. 157. 158. 158. 159. 159. 159. 159. 159. 159. 159. 159. 160.
      160. 160. 160. 160. 160. 160. 160. 160. 160. 160. 160. 160. 160.
      160. 160. 160. 160. 160. 160. 160. 160. 160. 160. 160. 160. 160.
      159. 159. 158. 158. 158. 158. 158. 158. 158. 158. 158. 158. 158.
      158. 158. 158. 158. 158. 158. 158. 158. 157. 157. 156. 156. 155.
      155. 154. 154. 156. 155. 113. 71. 93. 94. 68. 66. 62. 61. 60. 61.
      64. 65. 64. 63. 64. 59. 58. 49. 33. 49. 229. 228. 223. 223. 161.
      29. 63. 71. 65. 69. 66. 66. 66. 65. 65. 65. 64. 64. 63. 63. 62.
      62. 61. 61. 60. 60. 59. 59. 59. 59. 59. 59. 59. 59. 61. 60. 59.
      59. 61. 61. 57. 55. 50. 31. 37. 228. 224. 224. 223. 179. 17. 37.
      53. 34. 42. 64. 56. 62. 61. 59. 60. 63. 62. 59. 62. 68. 82. 79.
      69. 93. 161. 153. 157. 150. 154. 154. 154. 154. 154. 154. 154.
      154. 154. 154. 154. 154. 154. 154. 154. 154. 155. 155. 155. 155.
      155. 155. 155. 155. 155. 155. 155. 155. 155. 155. 155. 155. 155.
      155. 155. 155. 155. 155. 155. 155. 155. 155. 155. 155. 155. 155.
      155. 155. 155. 155. 155. 155. 155. 155. 155. 155. 156. 156. 156.
      156. 156. 156. 156. 156. 157. 157. 157. 157. 157. 157. 157. 157.
      157. 157. 157. 157. 158. 158. 159. 159. 158. 158. 158. 158. 158.
      158. 158. 158. 158. 158. 158. 158. 158. 158. 158. 158. 158. 158.
      158. 158. 158. 158. 158. 158. 158. 158. 158. 158. 158. 158. 158.
      158. 159. 158. 157. 156. 155. 155. 156. 156. 158. 158. 158. 158.
      158. 158. 158. 158. 156. 156. 156. 156. 156. 156. 156. 156. 152.
      152. 153. 153. 153. 154. 154. 154. 155. 155. 155. 155. 156. 156.
      157. 157. 156. 156. 156. 157. 157. 158. 158. 158. 159. 159. 159.
      159. 159. 159. 159. 159. 161. 161. 161. 161. 161. 161. 161. 161.
      161. 161. 161. 161. 161. 161. 161. 161. 161. 161. 161. 161. 161.
      161. 161. 161. 161. 160. 160. 160. 159. 159. 158. 158. 158. 158.
      158. 158. 158. 158. 158. 158. 158. 158. 158. 158. 158. 158. 158.
      158. 157. 157. 156. 156. 155. 155. 154. 154. 155. 158. 104. 76.
      94. 96. 70. 66. 63. 62. 61. 62. 65. 66. 65. 64. 64. 56. 60. 52.
      34. 54. 231. 226. 222. 223. 152. 32. 61. 69. 64. 66. 67. 67. 66.
      66. 65. 65. 65. 65. 63. 63. 63. 62. 62. 61. 61. 61. 59. 59. 59.
      59. 59. 59. 59. 59. 61. 60. 59. 59. 61. 61. 58. 56. 51. 31. 36.
      228. 224. 223. 222. 180. 17. 37. 53. 34. 42. 64. 56. 62. 61. 59.
      60. 63. 62. 59. 62. 68. 82. 79. 68. 92. 160. 153. 158. 152. 154.
      154. 154. 154. 154. 154. 154. 154. 154. 154. 154. 154. 154. 154.
      154. 154. 155. 155. 155. 155. 155. 155. 155. 155. 155. 155. 155.
      155. 155. 155. 155. 155. 156. 156. 156. 156. 156. 156. 156. 156.
      156. 156. 156. 156. 156. 156. 156. 156. 156. 156. 156. 156. 156.
      156. 156. 156. 157. 157. 157. 157. 157. 157. 157. 157. 157. 157.
      157. 157. 157. 157. 157. 157. 157. 157. 158. 158. 158. 159. 159.
      159. 158. 158. 158. 158. 158. 158. 158. 158. 158. 158. 158. 158.
      158. 158. 158. 158. 158. 158. 158. 158. 158. 158. 158. 158. 158.
      158. 158. 158. 158. 158. 158. 158. 159. 158. 157. 156. 156. 156.
      156. 157. 158. 158. 158. 158. 158. 158. 158. 158. 157. 157. 157.
      157. 157. 157. 157. 157. 152. 153. 153. 153. 154. 154. 155. 155.
      155. 155. 155. 156. 156. 157. 157. 157. 156. 156. 157. 157. 158.
      158. 158. 159. 160. 160. 160. 160. 160. 160. 160. 160. 161. 161.
      161. 161. 161. 161. 161. 161. 161. 161. 161. 161. 161. 161. 161.
      161. 161. 161. 161. 161. 161. 161. 161. 161. 161. 161. 161. 160.
      160. 159. 159. 159. 159. 159. 159. 159. 159. 159. 159. 159. 159.
      159. 159. 159. 159. 159. 159. 159. 157. 157. 156. 156. 155. 155.
      154. 154. 154. 160. 96. 81. 96. 98. 72. 65. 65. 63. 62. 63. 66.
      67. 65. 64. 65. 51. 61. 61. 36. 56. 232. 222. 222. 223. 141. 33.
      58. 68. 64. 64. 67. 67. 67. 66. 66. 65. 65. 65. 64. 63. 63. 63.
      62. 62. 61. 61. 59. 59. 59. 59. 59. 59. 59. 59. 61. 60. 59. 59.
      61. 61. 58. 56. 50. 31. 36. 228. 224. 223. 223. 180. 17. 37. 53.
      34. 42. 64. 56. 62. 61. 59. 60. 63. 62. 59. 62. 68. 82. 79. 68.
      92. 159. 153. 159. 153. 154. 154. 154. 154. 154. 154. 154. 154.
      154. 154. 154. 154. 154. 154. 154. 154. 155. 155. 155. 155. 155.
      155. 155. 155. 155. 155. 155. 155. 155. 155. 155. 155. 156. 156.
      156. 156. 156. 156. 156. 156. 156. 156. 156. 156. 156. 156. 156.
      156. 156. 156. 156. 156. 156. 156. 156. 156. 157. 157. 157. 157.
      157. 157. 157. 157. 157. 157. 157. 157. 157. 157. 157. 157. 157.
      158. 158. 158. 159. 159. 160. 160. 159. 159. 159. 159. 159. 159.
      159. 159. 159. 159. 159. 159. 159. 159. 159. 159. 159. 159. 159.
      159. 159. 159. 159. 159. 159. 159. 159. 159. 159. 159. 159. 159.
      160. 159. 158. 157. 156. 156. 157. 157. 159. 159. 159. 159. 159.
      159. 159. 159. 157. 157. 157. 157. 157. 157. 157. 157. 153. 153.
      153. 154. 154. 155. 155. 155. 155. 155. 156. 156. 157. 157. 158.
      158. 157. 157. 157. 158. 158. 158. 159. 159. 160. 160. 160. 160.
      160. 160. 160. 160. 162. 162. 162. 162. 162. 162. 162. 162. 162.
      162. 162. 162. 162. 162. 162. 162. 162. 162. 162. 162. 162. 162.
      162. 162. 161. 161. 161. 161. 160. 160. 159. 159. 159. 159. 159.
      159. 159. 159. 159. 159. 159. 159. 159. 159. 159. 159. 159. 159.
      157. 157. 156. 156. 155. 155. 154. 154. 154. 162. 89. 85. 98. 99.
      74. 65. 67. 65. 64. 64. 66. 66. 65. 63. 67. 46. 60. 70. 41. 56.
      231. 219. 219. 221. 130. 33. 57. 68. 66. 66. 68. 68. 67. 67. 65.
      65. 65. 65. 64. 64. 63. 63. 63. 62. 62. 62. 59. 59. 59. 59. 58.
      58. 58. 58. 61. 60. 59. 59. 61. 61. 58. 56. 50. 31. 37. 228. 223.
      223. 222. 181. 17. 37. 53. 34. 42. 64. 56. 62. 61. 59. 60. 63. 62.
      59. 62. 68. 82. 79. 67. 91. 159. 153. 159. 154. 154. 154. 154.
      154. 154. 154. 154. 154. 154. 154. 154. 154. 154. 154. 154. 154.
      155. 155. 155. 155. 155. 155. 155. 155. 155. 155. 155. 155. 155.
      155. 155. 155. 157. 157. 157. 157. 157. 157. 157. 157. 157. 157.
      157. 157. 157. 157. 157. 157. 157. 157. 157. 157. 157. 157. 157.
      157. 158. 158. 158. 158. 158. 158. 158. 158. 157. 157. 157. 157.
      157. 157. 157. 157. 158. 158. 158. 159. 159. 160. 160. 160. 159.
      159. 159. 159. 159. 159. 159. 159. 159. 159. 159. 159. 159. 159.
      159. 159. 159. 159. 159. 159. 159. 159. 159. 159. 159. 159. 159.
      159. 159. 159. 159. 159. 160. 159. 158. 157. 157. 157. 157. 158.
      159. 159. 159. 159. 159. 159. 159. 159. 158. 158. 158. 158. 158.
      158. 158. 158. 153. 153. 154. 154. 154. 155. 155. 155. 155. 156.
      156. 156. 157. 157. 158. 158. 157. 157. 157. 158. 158. 159. 159.
      159. 160. 160. 160. 160. 160. 160. 160. 160. 162. 162. 162. 162.
      162. 162. 162. 162. 162. 162. 162. 162. 162. 162. 162. 162. 162.
      162. 162. 162. 162. 162. 162. 162. 162. 161. 161. 161. 160. 160.
      159. 159. 159. 159. 159. 159. 159. 159. 159. 159. 159. 159. 159.
      159. 159. 159. 159. 159. 157. 157. 156. 156. 155. 155. 154. 154.
      154. 163. 86. 87. 98. 100. 74. 65. 69. 67. 65. 65. 66. 66. 64. 62.
      68. 42. 61. 76. 45. 56. 230. 217. 214. 220. 122. 32. 56. 69. 69.
      69. 68. 68. 67. 67. 65. 65. 66. 65. 64. 64. 64. 63. 63. 62. 62.
      62. 59. 59. 59. 59. 58. 58. 58. 58. 61. 60. 59. 59. 61. 61. 58.
      56. 49. 30. 37. 228. 223. 223. 222. 181. 17. 37. 53. 34. 42. 64.
      56. 62. 61. 59. 60. 63. 62. 59. 62. 68. 82. 78. 67. 91. 159. 153.
      160. 155. 154. 154. 154. 154. 154. 154. 154. 154. 154. 154. 154.
      154. 154. 154. 154. 154. 155. 155. 155. 155. 155. 155. 155. 155.
      155. 155. 155. 155. 155. 155. 155. 155. 157. 157. 157. 157. 157.
      157. 157. 157. 157. 157. 157. 157. 157. 157. 157. 157. 157. 157.
      157. 157. 157. 157. 157. 157. 158. 158. 158. 158. 158. 158. 158.
      158. 157. 157. 157. 157. 157. 157. 157. 157. 158. 158. 159. 159.
      159. 160. 160. 160. 159. 159. 159. 159. 159. 159. 159. 159. 159.
      159. 159. 159. 159. 159. 159. 159. 159. 159. 159. 159. 159. 159.
      159. 159. 159. 159. 159. 159. 159. 159. 159. 159. 160. 159. 158.
      157. 157. 157. 157. 158. 159. 159. 159. 159. 159. 159. 159. 159.
      158. 158. 158. 158. 158. 158. 158. 158. 153. 153. 154. 154. 155.
      155. 155. 155. 156. 156. 156. 157. 157. 157. 158. 158. 158. 158.
      159. 159. 159. 160. 160. 160. 160. 160. 160. 160. 160. 160. 160.
      160. 161. 161. 161. 161. 161. 161. 161. 161. 162. 162. 162. 162.
      162. 162. 162. 162. 162. 162. 162. 162. 162. 162. 162. 162. 160.
      160. 160. 160. 160. 160. 160. 160. 160. 160. 160. 159. 159. 159.
      158. 158. 158. 158. 158. 158. 158. 158. 158. 158. 158. 158. 157.
      157. 156. 156. 156. 156. 155. 150. 83. 96. 97. 93. 83. 60. 65. 65.
      65. 64. 64. 64. 63. 63. 60. 58. 74. 67. 41. 79. 227. 224. 215.
      223. 84. 33. 72. 57. 65. 75. 62. 65. 68. 68. 62. 58. 63. 71. 59.
      68. 69. 61. 62. 70. 69. 59. 58. 59. 63. 65. 62. 58. 59. 63. 65.
      61. 57. 56. 59. 61. 60. 59. 50. 36. 35. 226. 215. 227. 212. 182.
      14. 41. 47. 36. 44. 58. 59. 58. 61. 61. 61. 60. 61. 62. 63. 64.
      80. 78. 80. 74. 161. 155. 155. 152. 154. 154. 154. 154. 154. 154.
      154. 154. 154. 154. 154. 154. 154. 154. 154. 154. 155. 155. 155.
      155. 155. 155. 155. 155. 155. 155. 155. 155. 155. 155. 155. 155.
      155. 155. 155. 155. 155. 155. 155. 155. 157. 157. 157. 157. 157.
      157. 157. 157. 157. 157. 157. 157. 157. 157. 157. 157. 158. 158.
      158. 158. 158. 158. 158. 158. 158. 158. 158. 158. 158. 158. 158.
      158. 158. 158. 158. 158. 158. 158. 158. 158. 159. 159. 159. 159.
      159. 159. 159. 159. 159. 159. 159. 159. 159. 159. 159. 159. 159.
      159. 159. 159. 159. 159. 159. 159. 159. 159. 159. 159. 159. 159.
      159. 159. 159. 159. 159. 159. 159. 159. 159. 159. 158. 158. 158.
      158. 158. 158. 158. 158. 158. 158. 158. 158. 158. 158. 158. 158.
      153. 153. 154. 154. 155. 155. 155. 156. 156. 156. 156. 157. 157.
      158. 158. 158. 158. 158. 159. 159. 159. 160. 160. 160. 160. 160.
      160. 160. 160. 160. 160. 160. 161. 161. 161. 161. 161. 161. 161.
      161. 162. 162. 162. 162. 162. 162. 162. 162. 162. 162. 162. 162.
      162. 162. 162. 162. 160. 160. 160. 160. 160. 160. 160. 160. 160.
      160. 160. 159. 159. 159. 158. 158. 158. 158. 158. 158. 158. 158.
      158. 158. 158. 158. 157. 157. 156. 156. 156. 156. 156. 149. 82.
      95. 96. 91. 80. 59. 65. 65. 65. 64. 64. 63. 63. 63. 61. 54. 67.
      62. 42. 88. 227. 220. 218. 209. 67. 34. 55. 57. 68. 63. 75. 69.
      65. 68. 72. 70. 64. 58. 74. 65. 57. 58. 64. 66. 60. 51. 60. 59.
      59. 59. 57. 55. 56. 58. 55. 58. 63. 68. 69. 62. 51. 42. 55. 29.
      31. 228. 217. 223. 209. 196. 15. 42. 49. 38. 46. 59. 61. 60. 61.
      61. 60. 60. 61. 62. 63. 64. 80. 78. 79. 73. 161. 154. 155. 152.
      154. 154. 154. 154. 154. 154. 154. 154. 154. 154. 154. 154. 154.
      154. 154. 154. 155. 155. 155. 155. 155. 155. 155. 155. 155. 155.
      155. 155. 155. 155. 155. 155. 155. 155. 155. 155. 155. 155. 155.
      155. 157. 157. 157. 157. 157. 157. 157. 157. 157. 157. 157. 157.
      157. 157. 157. 157. 158. 158. 158. 158. 158. 158. 158. 158. 158.
      158. 158. 158. 158. 158. 158. 158. 158. 158. 158. 158. 158. 158.
      158. 158. 159. 159. 159. 159. 159. 159. 159. 159. 159. 159. 159.
      159. 159. 159. 159. 159. 159. 159. 159. 159. 159. 159. 159. 159.
      159. 159. 159. 159. 159. 159. 159. 159. 159. 159. 159. 159. 159.
      159. 159. 159. 158. 158. 158. 158. 158. 158. 158. 158. 158. 158.
      158. 158. 158. 158. 158. 158. 154. 154. 154. 155. 155. 155. 156.
      156. 156. 156. 157. 157. 158. 158. 158. 159. 158. 158. 159. 159.
      159. 160. 160. 160. 160. 160. 160. 160. 160. 160. 160. 160. 161.
      161. 161. 161. 161. 161. 161. 161. 162. 162. 162. 162. 162. 162.
      162. 162. 162. 162. 162. 162. 162. 162. 162. 162. 160. 160. 160.
      160. 160. 160. 160. 160. 160. 160. 160. 159. 159. 159. 158. 158.
      158. 158. 158. 158. 158. 158. 158. 158. 158. 158. 157. 157. 156.
      156. 156. 156. 158. 147. 79. 94. 94. 87. 77. 59. 65. 65. 64. 64.
      63. 63. 63. 62. 62. 50. 59. 54. 40. 100. 226. 217. 220. 202. 59.
      47. 61. 77. 77. 60. 71. 63. 55. 56. 63. 70. 70. 66. 65. 62. 64.
      67. 66. 62. 67. 76. 58. 57. 55. 56. 59. 63. 67. 67. 62. 58. 53.
      51. 55. 60. 65. 67. 51. 34. 41. 229. 221. 222. 207. 186. 16. 43.
      50. 39. 47. 60. 62. 61. 61. 61. 60. 60. 60. 61. 63. 63. 80. 77.
      79. 73. 160. 154. 155. 152. 154. 154. 154. 154. 154. 154. 154.
      154. 154. 154. 154. 154. 154. 154. 154. 154. 155. 155. 155. 155.
      155. 155. 155. 155. 155. 155. 155. 155. 155. 155. 155. 155. 155.
      155. 155. 155. 155. 155. 155. 155. 157. 157. 157. 157. 157. 157.
      157. 157. 157. 157. 157. 157. 157. 157. 157. 157. 158. 158. 158.
      158. 158. 158. 158. 158. 158. 158. 158. 158. 158. 158. 158. 158.
      159. 159. 159. 159. 159. 159. 159. 159. 160. 160. 160. 160. 160.
      160. 160. 160. 160. 160. 160. 160. 160. 160. 160. 160. 160. 160.
      160. 160. 160. 160. 160. 160. 160. 160. 160. 160. 160. 160. 160.
      160. 160. 160. 160. 160. 160. 160. 160. 160. 159. 159. 159. 159.
      159. 159. 159. 159. 159. 159. 159. 159. 159. 159. 159. 159. 154.
      154. 155. 155. 155. 156. 156. 156. 157. 157. 157. 157. 158. 158.
      159. 159. 158. 158. 159. 159. 159. 160. 160. 160. 160. 160. 160.
      160. 160. 160. 160. 160. 161. 161. 161. 161. 161. 161. 161. 161.
      162. 162. 162. 162. 162. 162. 162. 162. 162. 162. 162. 162. 162.
      162. 162. 162. 160. 160. 160. 160. 160. 160. 160. 160. 160. 160.
      160. 159. 159. 159. 158. 158. 158. 158. 158. 158. 158. 158. 158.
      158. 158. 158. 157. 157. 156. 156. 156. 156. 160. 144. 74. 93. 93.
      81. 73. 60. 64. 64. 64. 63. 63. 63. 62. 62. 63. 48. 54. 46. 32.
      107. 226. 221. 226. 214. 43. 32. 41. 61. 53. 60. 56. 61. 63. 61.
      59. 61. 65. 66. 62. 64. 65. 60. 54. 50. 51. 53. 61. 61. 56. 52.
      51. 52. 50. 45. 63. 63. 63. 62. 59. 56. 51. 48. 36. 30. 39. 211.
      211. 225. 220. 186. 16. 43. 49. 38. 46. 60. 61. 60. 61. 60. 60.
      60. 60. 61. 62. 63. 81. 77. 78. 71. 159. 153. 155. 152. 154. 154.
      154. 154. 154. 154. 154. 154. 154. 154. 154. 154. 154. 154. 154.
      154. 155. 155. 155. 155. 155. 155. 155. 155. 155. 155. 155. 155.
      155. 155. 155. 155. 155. 155. 155. 155. 155. 155. 155. 155. 157.
      157. 157. 157. 157. 157. 157. 157. 157. 157. 157. 157. 157. 157.
      157. 157. 158. 158. 158. 158. 158. 158. 158. 158. 158. 158. 158.
      158. 158. 158. 158. 158. 159. 159. 159. 159. 159. 159. 159. 159.
      160. 160. 160. 160. 160. 160. 160. 160. 160. 160. 160. 160. 160.
      160. 160. 160. 160. 160. 160. 160. 160. 160. 160. 160. 160. 160.
      160. 160. 160. 160. 160. 160. 160. 160. 160. 160. 160. 160. 160.
      160. 159. 159. 159. 159. 159. 159. 159. 159. 159. 159. 159. 159.
      159. 159. 159. 159. 155. 155. 155. 155. 156. 156. 157. 157. 157.
      157. 158. 158. 158. 159. 159. 159. 158. 158. 159. 159. 159. 160.
      160. 160. 160. 160. 160. 160. 160. 160. 160. 160. 162. 162. 162.
      162. 162. 162. 162. 162. 162. 162. 162. 162. 162. 162. 162. 162.
      162. 162. 162. 162. 162. 162. 162. 162. 160. 160. 160. 160. 160.
      160. 160. 160. 160. 160. 160. 159. 159. 159. 158. 158. 158. 158.
      158. 158. 158. 158. 158. 158. 158. 158. 157. 157. 156. 156. 156.
      156. 160. 139. 69. 91. 91. 77. 69. 62. 64. 64. 63. 63. 63. 62. 62.
      62. 62. 48. 54. 41. 25. 114. 225. 223. 203. 204. 35. 30. 63. 70.
      43. 66. 56. 62. 62. 56. 50. 46. 37. 27. 45. 48. 44. 40. 47. 56.
      48. 32. 31. 38. 42. 43. 49. 56. 56. 51. 35. 37. 41. 43. 44. 43.
      42. 41. 63. 39. 44. 215. 221. 225. 221. 193. 14. 41. 48. 37. 45.
      58. 60. 59. 60. 60. 59. 59. 60. 61. 62. 62. 81. 77. 77. 70. 158.
      152. 155. 152. 154. 154. 154. 154. 154. 154. 154. 154. 154. 154.
      154. 154. 154. 154. 154. 154. 155. 155. 155. 155. 155. 155. 155.
      155. 155. 155. 155. 155. 155. 155. 155. 155. 155. 155. 155. 155.
      155. 155. 155. 155. 157. 157. 157. 157. 157. 157. 157. 157. 157.
      157. 157. 157. 157. 157. 157. 157. 158. 158. 158. 158. 158. 158.
      158. 158. 158. 158. 158. 158. 158. 158. 158. 158. 159. 159. 159.
      159. 159. 159. 159. 159. 161. 161. 161. 161. 161. 161. 161. 161.
      161. 161. 161. 161. 161. 161. 161. 161. 161. 161. 161. 161. 161.
      161. 161. 161. 161. 161. 161. 161. 161. 161. 161. 161. 161. 161.
      161. 161. 161. 161. 161. 161. 159. 159. 159. 159. 159. 159. 159.
      159. 159. 159. 159. 159. 159. 159. 159. 159. 155. 155. 155. 156.
      156. 157. 157. 157. 157. 158. 158. 158. 159. 159. 160. 160. 158.
      158. 159. 159. 159. 160. 160. 160. 160. 160. 160. 160. 160. 160.
      160. 160. 162. 162. 162. 162. 162. 162. 162. 162. 162. 162. 162.
      162. 162. 162. 162. 162. 162. 162. 162. 162. 162. 162. 162. 162.
      160. 160. 160. 160. 160. 160. 160. 160. 160. 160. 160. 159. 159.
      159. 158. 158. 158. 158. 158. 158. 158. 158. 158. 158. 158. 158.
      157. 157. 156. 156. 156. 156. 160. 134. 63. 89. 90. 73. 67. 65.
      64. 63. 63. 63. 62. 62. 61. 61. 61. 47. 54. 39. 22. 124. 225. 222.
      224. 207. 35. 24. 56. 54. 39. 61. 65. 61. 54. 54. 71. 95. 102. 96.
      66. 78. 82. 74. 64. 62. 64. 65. 66. 72. 69. 54. 42. 38. 32. 22.
      35. 40. 46. 49. 47. 43. 39. 37. 30. 12. 33. 227. 230. 223. 215.
      193. 14. 41. 47. 36. 44. 58. 59. 58. 60. 59. 59. 59. 59. 60. 61.
      62. 81. 77. 76. 69. 156. 151. 154. 152. 154. 154. 154. 154. 154.
      154. 154. 154. 154. 154. 154. 154. 154. 154. 154. 154. 155. 155.
      155. 155. 155. 155. 155. 155. 155. 155. 155. 155. 155. 155. 155.
      155. 155. 155. 155. 155. 155. 155. 155. 155. 157. 157. 157. 157.
      157. 157. 157. 157. 157. 157. 157. 157. 157. 157. 157. 157. 158.
      158. 158. 158. 158. 158. 158. 158. 158. 158. 158. 158. 158. 158.
      158. 158. 160. 160. 160. 160. 160. 160. 160. 160. 161. 161. 161.
      161. 161. 161. 161. 161. 161. 161. 161. 161. 161. 161. 161. 161.
      161. 161. 161. 161. 161. 161. 161. 161. 161. 161. 161. 161. 161.
      161. 161. 161. 161. 161. 161. 161. 161. 161. 161. 161. 160. 160.
      160. 160. 160. 160. 160. 160. 160. 160. 160. 160. 160. 160. 160.
      160. 155. 155. 156. 156. 157. 157. 158. 158. 158. 158. 158. 159.
      159. 160. 160. 160. 158. 158. 159. 159. 159. 160. 160. 160. 160.
      160. 160. 160. 160. 160. 160. 160. 163. 163. 163. 163. 163. 163.
      163. 163. 162. 162. 162. 162. 162. 162. 162. 162. 162. 162. 162.
      162. 162. 162. 162. 162. 160. 160. 160. 160. 160. 160. 160. 160.
      160. 160. 160. 159. 159. 159. 158. 158. 158. 158. 158. 158. 158.
      158. 158. 158. 158. 158. 157. 157. 156. 156. 156. 156. 159. 130.
      58. 88. 89. 70. 66. 68. 63. 63. 63. 62. 62. 61. 61. 61. 60. 45.
      52. 41. 26. 138. 223. 214. 230. 176. 28. 19. 39. 41. 57. 44. 36.
      42. 38. 21. 12. 13. 10. 3. 30. 19. 17. 22. 20. 13. 14. 21. 28. 37.
      41. 35. 34. 42. 51. 51. 33. 34. 33. 29. 24. 20. 17. 17. 29. 24.
      48. 219. 226. 223. 222. 194. 15. 42. 48. 37. 45. 59. 60. 59. 59.
      59. 58. 58. 59. 60. 61. 62. 81. 77. 76. 68. 156. 151. 154. 153.
      154. 154. 154. 154. 154. 154. 154. 154. 154. 154. 154. 154. 154.
      154. 154. 154. 155. 155. 155. 155. 155. 155. 155. 155. 155. 155.
      155. 155. 155. 155. 155. 155. 155. 155. 155. 155. 155. 155. 155.
      155. 157. 157. 157. 157. 157. 157. 157. 157. 157. 157. 157. 157.
      157. 157. 157. 157. 158. 158. 158. 158. 158. 158. 158. 158. 158.
      158. 158. 158. 158. 158. 158. 158. 160. 160. 160. 160. 160. 160.
      160. 160. 162. 162. 162. 162. 162. 162. 162. 162. 162. 162. 162.
      162. 162. 162. 162. 162. 162. 162. 162. 162. 162. 162. 162. 162.
      162. 162. 162. 162. 162. 162. 162. 162. 162. 162. 162. 162. 162.
      162. 162. 162. 160. 160. 160. 160. 160. 160. 160. 160. 160. 160.
      160. 160. 160. 160. 160. 160. 155. 156. 156. 156. 157. 157. 158.
      158. 158. 158. 159. 159. 159. 160. 160. 160. 158. 158. 159. 159.
      159. 160. 160. 160. 160. 160. 160. 160. 160. 160. 160. 160. 163.
      163. 163. 163. 163. 163. 163. 163. 162. 162. 162. 162. 162. 162.
      162. 162. 162. 162. 162. 162. 162. 162. 162. 162. 160. 160. 160.
      160. 160. 160. 160. 160. 160. 160. 160. 159. 159. 159. 158. 158.
      158. 158. 158. 158. 158. 158. 158. 158. 158. 158. 157. 157. 156.
      156. 156. 156. 158. 127. 55. 87. 89. 69. 65. 69. 63. 63. 62. 62.
      62. 61. 61. 61. 60. 42. 50. 44. 30. 150. 223. 204. 97. 60. 33.
      112. 162. 150. 142. 53. 9. 75. 146. 176. 177. 177. 181. 182. 144.
      76. 55. 123. 194. 208. 199. 202. 195. 203. 194. 165. 144. 142.
      146. 144. 130. 95. 46. 21. 33. 94. 173. 228. 202. 200. 176. 234.
      210. 222. 225. 182. 16. 43. 50. 39. 47. 60. 62. 60. 59. 59. 58.
      58. 59. 60. 61. 61. 81. 77. 76. 68. 155. 151. 154. 153. 154. 154.
      154. 154. 154. 154. 154. 154. 154. 154. 154. 154. 154. 154. 154.
      154. 155. 155. 155. 155. 155. 155. 155. 155. 155. 155. 155. 155.
      155. 155. 155. 155. 155. 155. 155. 155. 155. 155. 155. 155. 157.
      157. 157. 157. 157. 157. 157. 157. 157. 157. 157. 157. 157. 157.
      157. 157. 158. 158. 158. 158. 158. 158. 158. 158. 158. 158. 158.
      158. 158. 158. 158. 158. 160. 160. 160. 160. 160. 160. 160. 160.
      162. 162. 162. 162. 162. 162. 162. 162. 162. 162. 162. 162. 162.
      162. 162. 162. 162. 162. 162. 162. 162. 162. 162. 162. 162. 162.
      162. 162. 162. 162. 162. 162. 162. 162. 162. 162. 162. 162. 162.
      162. 160. 160. 160. 160. 160. 160. 160. 160. 160. 160. 160. 160.
      160. 160. 160. 160. 154. 154. 155. 155. 156. 156. 157. 157. 158.
      158. 159. 159. 159. 160. 160. 160. 160. 160. 160. 160. 160. 160.
      160. 160. 161. 161. 161. 161. 161. 161. 161. 161. 162. 162. 162.
      162. 162. 162. 162. 162. 162. 162. 162. 162. 162. 162. 162. 162.
      163. 163. 163. 163. 163. 163. 163. 163. 162. 162. 162. 162. 162.
      162. 162. 162. 159. 159. 159. 159. 159. 159. 159. 159. 158. 158.
      158. 158. 158. 158. 158. 158. 159. 159. 159. 158. 158. 157. 157.
      157. 164. 114. 53. 87. 92. 58. 77. 58. 64. 63. 62. 61. 60. 61. 61.
      62. 63. 45. 51. 29. 14. 189. 142. 44. 72. 95. 217. 214. 208. 211.
      208. 153. 141. 175. 203. 210. 209. 210. 218. 201. 190. 200. 200.
      201. 209. 210. 212. 217. 215. 214. 210. 170. 184. 136. 198. 214.
      208. 215. 203. 188. 136. 64. 59. 87. 192. 223. 216. 216. 220. 215.
      215. 205. 10. 39. 48. 36. 44. 59. 62. 60. 59. 59. 59. 59. 59. 59.
      59. 59. 80. 81. 80. 67. 152. 149. 153. 150. 151. 151. 151. 151.
      152. 152. 153. 153. 154. 154. 154. 154. 154. 154. 154. 154. 154.
      154. 154. 154. 154. 154. 154. 154. 155. 155. 155. 155. 155. 155.
      155. 155. 155. 155. 155. 155. 155. 155. 155. 155. 156. 156. 156.
      156. 157. 157. 158. 158. 158. 158. 158. 158. 158. 158. 158. 158.
      158. 158. 158. 158. 158. 158. 158. 158. 159. 159. 159. 159. 159.
      159. 159. 159. 159. 159. 160. 160. 161. 161. 162. 162. 161. 161.
      161. 161. 161. 161. 161. 161. 162. 162. 162. 162. 162. 162. 162.
      162. 162. 162. 162. 162. 162. 162. 162. 162. 162. 162. 162. 162.
      162. 162. 162. 162. 162. 162. 162. 162. 162. 162. 162. 162. 163.
      163. 163. 163. 163. 163. 163. 163. 161. 161. 161. 161. 161. 161.
      161. 161. 154. 155. 155. 155. 156. 156. 157. 157. 158. 158. 159.
      159. 159. 160. 160. 160. 160. 160. 160. 160. 160. 160. 160. 160.
      161. 161. 161. 161. 161. 161. 161. 161. 162. 162. 162. 162. 162.
      162. 162. 162. 162. 162. 162. 162. 162. 162. 162. 162. 163. 163.
      163. 163. 163. 163. 163. 163. 162. 162. 162. 162. 162. 162. 162.
      162. 159. 159. 159. 159. 159. 159. 159. 159. 158. 158. 158. 158.
      158. 158. 158. 158. 159. 159. 158. 158. 158. 157. 157. 157. 163.
      113. 54. 86. 91. 59. 75. 59. 63. 63. 62. 62. 62. 61. 61. 60. 53.
      60. 43. 35. 35. 132. 81. 126. 187. 118. 161. 217. 218. 206. 202.
      204. 203. 197. 192. 205. 210. 211. 216. 189. 189. 207. 208. 196.
      204. 212. 215. 215. 214. 205. 188. 183. 211. 178. 211. 216. 222.
      212. 218. 216. 179. 94. 110. 153. 61. 163. 218. 220. 216. 218.
      214. 184. 8. 37. 47. 36. 43. 57. 60. 59. 59. 59. 59. 59. 59. 59.
      59. 59. 81. 81. 80. 68. 152. 149. 153. 150. 151. 151. 151. 151.
      152. 152. 153. 153. 154. 154. 154. 154. 154. 154. 154. 154. 154.
      154. 154. 154. 154. 154. 154. 154. 155. 155. 155. 155. 155. 155.
      155. 155. 155. 155. 155. 155. 155. 155. 155. 155. 156. 156. 156.
      156. 157. 157. 158. 158. 158. 158. 158. 158. 158. 158. 158. 158.
      158. 158. 158. 158. 158. 158. 158. 158. 159. 159. 159. 159. 159.
      159. 159. 159. 159. 159. 160. 160. 161. 161. 162. 162. 161. 161.
      161. 161. 161. 161. 161. 161. 162. 162. 162. 162. 162. 162. 162.
      162. 162. 162. 162. 162. 162. 162. 162. 162. 162. 162. 162. 162.
      162. 162. 162. 162. 162. 162. 162. 162. 162. 162. 162. 162. 163.
      163. 163. 163. 163. 163. 163. 163. 161. 161. 161. 161. 161. 161.
      161. 161. 155. 155. 155. 156. 156. 157. 157. 157. 158. 158. 159.
      159. 159. 160. 160. 160. 160. 160. 160. 160. 160. 160. 160. 160.
      161. 161. 161. 161. 161. 161. 161. 161. 162. 162. 162. 162. 162.
      162. 162. 162. 162. 162. 162. 162. 162. 162. 162. 162. 162. 162.
      162. 162. 162. 162. 162. 162. 162. 162. 162. 162. 162. 162. 162.
      162. 159. 159. 159. 159. 159. 159. 159. 159. 158. 158. 158. 158.
      158. 158. 158. 158. 159. 158. 158. 158. 157. 157. 156. 156. 162.
      109. 56. 86. 89. 60. 73. 60. 61. 62. 63. 64. 63. 62. 60. 59. 52.
      50. 56. 39. 29. 194. 156. 78. 121. 163. 219. 208. 225. 217. 218.
      175. 188. 183. 190. 220. 226. 223. 223. 201. 193. 212. 210. 193.
      198. 211. 212. 208. 218. 213. 200. 208. 213. 201. 201. 205. 220.
      212. 229. 227. 197. 190. 202. 225. 66. 151. 232. 224. 205. 226.
      223. 201. 7. 37. 47. 37. 43. 55. 58. 59. 59. 59. 59. 59. 59. 59.
      59. 59. 82. 82. 81. 68. 152. 150. 153. 149. 151. 151. 151. 151.
      152. 152. 153. 153. 154. 154. 154. 154. 154. 154. 154. 154. 154.
      154. 154. 154. 154. 154. 154. 154. 155. 155. 155. 155. 155. 155.
      155. 155. 155. 155. 155. 155. 155. 155. 155. 155. 156. 156. 156.
      156. 157. 157. 158. 158. 158. 158. 158. 158. 158. 158. 158. 158.
      158. 158. 158. 158. 158. 158. 158. 158. 159. 159. 159. 159. 159.
      159. 159. 159. 159. 159. 160. 160. 161. 161. 162. 162. 161. 161.
      161. 161. 161. 161. 161. 161. 162. 162. 162. 162. 162. 162. 162.
      162. 162. 162. 162. 162. 162. 162. 162. 162. 162. 162. 162. 162.
      162. 162. 162. 162. 162. 162. 162. 162. 162. 162. 162. 162. 163.
      163. 163. 163. 163. 163. 163. 163. 161. 161. 161. 161. 161. 161.
      161. 161. 155. 155. 156. 156. 157. 157. 158. 158. 158. 158. 159.
      159. 159. 160. 160. 160. 160. 160. 160. 160. 160. 160. 160. 160.
      161. 161. 161. 161. 161. 161. 161. 161. 162. 162. 162. 162. 162.
      162. 162. 162. 162. 162. 162. 162. 162. 162. 162. 162. 162. 162.
      162. 162. 162. 162. 162. 162. 162. 162. 162. 162. 162. 162. 162.
      162. 159. 159. 159. 159. 159. 159. 159. 159. 158. 158. 158. 158.
      158. 158. 158. 158. 158. 158. 158. 157. 157. 156. 156. 156. 160.
      105. 59. 84. 87. 62. 69. 61. 60. 61. 64. 65. 65. 62. 59. 57. 61.
      34. 60. 44. 15. 198. 185. 31. 17. 48. 62. 113. 194. 220. 224. 215.
      142. 162. 179. 208. 205. 179. 167. 142. 147. 172. 167. 143. 146.
      160. 159. 152. 123. 136. 120. 132. 123. 124. 115. 129. 113. 124.
      105. 106. 79. 107. 81. 114. 23. 28. 95. 122. 118. 127. 109. 104.
      15. 44. 50. 40. 45. 55. 57. 59. 59. 59. 59. 59. 59. 59. 59. 59.
      83. 83. 82. 69. 153. 150. 153. 149. 151. 151. 151. 151. 152. 152.
      153. 153. 154. 154. 154. 154. 154. 154. 154. 154. 154. 154. 154.
      154. 154. 154. 154. 154. 155. 155. 155. 155. 155. 155. 155. 155.
      155. 155. 155. 155. 155. 155. 155. 155. 156. 156. 156. 156. 157.
      157. 158. 158. 158. 158. 158. 158. 158. 158. 158. 158. 158. 158.
      158. 158. 158. 158. 158. 158. 159. 159. 159. 159. 159. 159. 159.
      159. 159. 159. 160. 160. 161. 161. 162. 162. 161. 161. 161. 161.
      161. 161. 161. 161. 163. 163. 163. 163. 163. 163. 163. 163. 163.
      163. 163. 163. 163. 163. 163. 163. 163. 163. 163. 163. 163. 163.
      163. 163. 163. 163. 163. 163. 163. 163. 163. 163. 163. 163. 163.
      163. 163. 163. 163. 163. 161. 161. 161. 161. 161. 161. 161. 161.
      156. 156. 156. 157. 157. 158. 158. 158. 158. 158. 159. 159. 159.
      160. 160. 160. 160. 160. 160. 160. 160. 160. 160. 160. 162. 162.
      162. 162. 162. 162. 162. 162. 162. 162. 162. 162. 162. 162. 162.
      162. 162. 162. 162. 162. 162. 162. 162. 162. 161. 161. 161. 161.
      161. 161. 161. 161. 162. 162. 162. 162. 162. 162. 162. 162. 159.
      159. 159. 159. 159. 159. 159. 159. 158. 158. 158. 158. 158. 158.
      158. 158. 157. 157. 157. 157. 156. 156. 155. 155. 159. 101. 63.
      83. 85. 64. 65. 62. 60. 61. 64. 65. 65. 62. 59. 57. 59. 45. 40.
      52. 27. 56. 46. 105. 66. 77. 3. 60. 50. 39. 0. 42. 12. 29. 16. 14.
      17. 15. 16. 1. 6. 11. 8. 8. 14. 9. 3. 9. 10. 30. 13. 7. 2. 15. 2.
      7. 2. 12. 1. 22. 47. 24. 21. 111. 88. 14. 5. 2. 3. 3. 4. 14. 31.
      51. 52. 42. 49. 57. 58. 60. 58. 58. 59. 59. 59. 59. 59. 59. 84.
      84. 83. 69. 153. 150. 153. 149. 151. 151. 151. 151. 152. 152. 153.
      153. 154. 154. 154. 154. 154. 154. 154. 154. 154. 154. 154. 154.
      154. 154. 154. 154. 155. 155. 155. 155. 155. 155. 155. 155. 155.
      155. 155. 155. 155. 155. 155. 155. 156. 156. 156. 156. 157. 157.
      158. 158. 158. 158. 158. 158. 158. 158. 158. 158. 158. 158. 158.
      158. 158. 158. 158. 158. 159. 159. 159. 159. 159. 159. 159. 159.
      159. 159. 160. 160. 161. 161. 162. 162. 162. 162. 162. 162. 162.
      162. 162. 162. 163. 163. 163. 163. 163. 163. 163. 163. 163. 163.
      163. 163. 163. 163. 163. 163. 163. 163. 163. 163. 163. 163. 163.
      163. 163. 163. 163. 163. 163. 163. 163. 163. 163. 163. 163. 163.
      163. 163. 163. 163. 162. 162. 162. 162. 162. 162. 162. 162. 156.
      156. 157. 157. 158. 158. 158. 159. 158. 158. 159. 159. 159. 160.
      160. 160. 160. 160. 160. 160. 160. 160. 160. 160. 162. 162. 162.
      162. 162. 162. 162. 162. 162. 162. 162. 162. 162. 162. 162. 162.
      162. 162. 162. 162. 162. 162. 162. 162. 161. 161. 161. 161. 161.
      161. 161. 161. 162. 162. 162. 162. 162. 162. 162. 162. 159. 159.
      159. 159. 159. 159. 159. 159. 158. 158. 158. 158. 158. 158. 158.
      158. 156. 156. 157. 156. 156. 155. 155. 155. 157. 96. 66. 82. 83.
      66. 61. 63. 61. 62. 63. 64. 63. 62. 60. 59. 45. 57. 35. 50. 52.
      22. 7. 106. 73. 99. 87. 61. 84. 28. 21. 46. 41. 76. 62. 44. 44.
      55. 83. 90. 72. 62. 61. 83. 97. 76. 61. 75. 104. 104. 76. 60. 58.
      93. 61. 57. 41. 73. 73. 42. 95. 35. 76. 126. 47. 24. 31. 36. 39.
      45. 40. 42. 44. 55. 48. 39. 50. 60. 59. 60. 58. 58. 59. 59. 59.
      59. 59. 59. 85. 85. 84. 70. 153. 150. 153. 149. 151. 151. 151.
      151. 152. 152. 153. 153. 154. 154. 154. 154. 154. 154. 154. 154.
      154. 154. 154. 154. 154. 154. 154. 154. 155. 155. 155. 155. 155.
      155. 155. 155. 155. 155. 155. 155. 155. 155. 155. 155. 156. 156.
      156. 156. 157. 157. 158. 158. 158. 158. 158. 158. 158. 158. 158.
      158. 158. 158. 158. 158. 158. 158. 158. 158. 159. 159. 159. 159.
      159. 159. 159. 159. 159. 159. 160. 160. 161. 161. 162. 162. 162.
      162. 162. 162. 162. 162. 162. 162. 164. 164. 164. 164. 164. 164.
      164. 164. 164. 164. 164. 164. 164. 164. 164. 164. 164. 164. 164.
      164. 164. 164. 164. 164. 164. 164. 164. 164. 164. 164. 164. 164.
      163. 163. 163. 163. 163. 163. 163. 163. 162. 162. 162. 162. 162.
      162. 162. 162. 157. 157. 157. 158. 158. 158. 159. 159. 158. 158.
      159. 159. 159. 160. 160. 160. 160. 160. 160. 160. 160. 160. 160.
      160. 163. 163. 163. 163. 163. 163. 163. 163. 162. 162. 162. 162.
      162. 162. 162. 162. 162. 162. 162. 162. 162. 162. 162. 162. 161.
      161. 161. 161. 161. 161. 161. 161. 162. 162. 162. 162. 162. 162.
      162. 162. 159. 159. 159. 159. 159. 159. 159. 159. 158. 158. 158.
      158. 158. 158. 158. 158. 156. 156. 156. 156. 155. 155. 155. 154.
      155. 92. 68. 81. 82. 67. 58. 64. 63. 63. 62. 62. 62. 61. 61. 60.
      48. 46. 43. 49. 47. 79. 53. 33. 124. 85. 96. 32. 126. 50. 50. 50.
      40. 85. 82. 69. 56. 39. 55. 74. 51. 36. 35. 64. 81. 53. 28. 34.
      62. 40. 26. 27. 52. 82. 54. 61. 33. 81. 61. 41. 80. 84. 139. 93.
      39. 54. 40. 33. 33. 33. 47. 53. 50. 52. 38. 30. 48. 61. 60. 60.
      59. 59. 59. 59. 59. 59. 59. 59. 86. 85. 84. 70. 153. 150. 153.
      149. 151. 151. 151. 151. 152. 152. 153. 153. 154. 154. 154. 154.
      154. 154. 154. 154. 154. 154. 154. 154. 154. 154. 154. 154. 155.
      155. 155. 155. 155. 155. 155. 155. 155. 155. 155. 155. 155. 155.
      155. 155. 156. 156. 156. 156. 157. 157. 158. 158. 158. 158. 158.
      158. 158. 158. 158. 158. 158. 158. 158. 158. 158. 158. 158. 158.
      159. 159. 159. 159. 159. 159. 159. 159. 159. 159. 160. 160. 161.
      161. 162. 162. 163. 163. 163. 163. 163. 163. 163. 163. 164. 164.
      164. 164. 164. 164. 164. 164. 164. 164. 164. 164. 164. 164. 164.
      164. 164. 164. 164. 164. 164. 164. 164. 164. 164. 164. 164. 164.
      164. 164. 164. 164. 163. 163. 163. 163. 163. 163. 163. 163. 163.
      163. 163. 163. 163. 163. 163. 163. 157. 157. 157. 158. 158. 159.
      159. 159. 158. 158. 159. 159. 159. 160. 160. 160. 160. 160. 160.
      160. 160. 160. 160. 160. 163. 163. 163. 163. 163. 163. 163. 163.
      162. 162. 162. 162. 162. 162. 162. 162. 162. 162. 162. 162. 162.
      162. 162. 162. 161. 161. 161. 161. 161. 161. 161. 161. 162. 162.
      162. 162. 162. 162. 162. 162. 159. 159. 159. 159. 159. 159. 159.
      159. 158. 158. 158. 158. 158. 158. 158. 158. 156. 156. 156. 156.
      155. 155. 154. 154. 154. 90. 69. 81. 81. 68. 56. 65. 64. 63. 62.
      61. 60. 61. 61. 62. 65. 32. 37. 59. 34. 53. 52. 36. 78. 116. 119.
      75. 89. 107. 55. 51. 85. 105. 92. 101. 110. 81. 70. 74. 60. 47.
      44. 69. 86. 58. 23. 19. 74. 41. 42. 49. 74. 80. 56. 82. 97. 104.
      26. 85. 70. 119. 139. 46. 31. 64. 49. 62. 69. 43. 51. 57. 50. 47.
      29. 23. 45. 61. 60. 59. 59. 59. 59. 59. 59. 59. 59. 59. 86. 86.
      84. 70. 154. 150. 153. 149. 151. 151. 151. 151. 152. 152. 153.
      153. 154. 154. 154. 154. 154. 154. 154. 154. 154. 154. 154. 154.
      154. 154. 154. 154. 155. 155. 155. 155. 155. 155. 155. 155. 155.
      155. 155. 155. 155. 155. 155. 155. 156. 156. 156. 156. 157. 157.
      158. 158. 158. 158. 158. 158. 158. 158. 158. 158. 158. 158. 158.
      158. 158. 158. 158. 158. 159. 159. 159. 159. 159. 159. 159. 159.
      159. 159. 160. 160. 161. 161. 162. 162. 163. 163. 163. 163. 163.
      163. 163. 163. 164. 164. 164. 164. 164. 164. 164. 164. 164. 164.
      164. 164. 164. 164. 164. 164. 164. 164. 164. 164. 164. 164. 164.
      164. 164. 164. 164. 164. 164. 164. 164. 164. 163. 163. 163. 163.
      163. 163. 163. 163. 163. 163. 163. 163. 163. 163. 163. 163. 157.
      157. 157. 158. 158. 159. 159. 159. 160. 160. 159. 159. 160. 161.
      162. 163. 162. 162. 162. 162. 162. 162. 162. 162. 163. 163. 163.
      163. 163. 163. 163. 163. 163. 163. 163. 163. 163. 163. 163. 163.
      163. 163. 163. 163. 163. 163. 163. 163. 162. 162. 162. 162. 162.
      162. 162. 162. 162. 162. 162. 162. 162. 162. 162. 162. 159. 159.
      159. 159. 159. 159. 159. 159. 161. 161. 160. 160. 159. 159. 158.
      158. 158. 157. 157. 156. 156. 156. 156. 156. 157. 74. 77. 81. 80.
      63. 67. 61. 61. 61. 61. 60. 60. 59. 59. 59. 52. 31. 18. 29. 52.
      64. 59. 52. 72. 105. 112. 122. 58. 108. 93. 54. 74. 99. 63. 62.
      111. 76. 84. 57. 57. 55. 99. 45. 51. 101. 56. 75. 56. 69. 67. 64.
      103. 59. 58. 115. 103. 47. 65. 101. 108. 134. 63. 41. 56. 56. 56.
      56. 56. 56. 56. 56. 56. 39. 25. 28. 45. 59. 59. 52. 58. 58. 58.
      58. 58. 58. 58. 58. 85. 79. 90. 70. 150. 150. 144. 152. 151. 151.
      151. 151. 152. 152. 153. 153. 154. 154. 154. 154. 154. 154. 154.
      154. 154. 154. 154. 154. 154. 154. 154. 154. 157. 157. 157. 157.
      157. 157. 157. 157. 157. 157. 157. 157. 157. 157. 157. 157. 157.
      157. 157. 158. 158. 159. 159. 159. 159. 159. 159. 159. 159. 159.
      159. 159. 160. 160. 160. 160. 160. 160. 160. 160. 159. 159. 159.
      159. 159. 159. 159. 159. 159. 159. 160. 160. 161. 161. 162. 162.
      163. 163. 163. 163. 163. 163. 163. 163. 164. 164. 164. 164. 164.
      164. 164. 164. 164. 164. 164. 164. 164. 164. 164. 164. 164. 164.
      164. 164. 164. 164. 164. 164. 164. 164. 164. 164. 164. 164. 164.
      164. 164. 164. 164. 164. 164. 164. 164. 164. 163. 163. 163. 163.
      163. 163. 163. 163. 157. 157. 157. 158. 158. 159. 159. 159. 160.
      160. 159. 159. 160. 161. 162. 163. 162. 162. 162. 162. 162. 162.
      162. 162. 163. 163. 163. 163. 163. 163. 163. 163. 163. 163. 163.
      163. 163. 163. 163. 163. 163. 163. 163. 163. 163. 163. 163. 163.
      162. 162. 162. 162. 162. 162. 162. 162. 162. 162. 162. 162. 162.
      162. 162. 162. 159. 159. 159. 159. 159. 159. 159. 159. 161. 161.
      160. 160. 159. 159. 158. 158. 158. 157. 157. 156. 156. 156. 156.
      156. 157. 73. 77. 81. 80. 64. 68. 62. 62. 62. 62. 61. 61. 60. 60.
      60. 42. 28. 21. 34. 55. 67. 69. 67. 54. 80. 106. 126. 72. 93. 90.
      75. 55. 109. 67. 81. 81. 87. 78. 48. 54. 60. 89. 35. 39. 104. 78.
      66. 35. 37. 68. 75. 83. 56. 77. 101. 55. 31. 116. 118. 132. 79.
      49. 56. 55. 55. 55. 55. 55. 55. 55. 55. 55. 41. 29. 31. 44. 57.
      61. 58. 58. 58. 58. 58. 58. 58. 58. 58. 86. 79. 90. 69. 150. 151.
      145. 152. 151. 151. 151. 151. 152. 152. 153. 153. 154. 154. 154.
      154. 154. 154. 154. 154. 154. 154. 154. 154. 154. 154. 154. 154.
      157. 157. 157. 157. 157. 157. 157. 157. 157. 157. 157. 157. 157.
      157. 157. 157. 157. 157. 157. 158. 158. 159. 159. 159. 159. 159.
      159. 159. 159. 159. 159. 159. 160. 160. 160. 160. 160. 160. 160.
      160. 159. 159. 159. 159. 159. 159. 159. 159. 159. 160. 160. 160.
      161. 161. 162. 162. 163. 163. 163. 163. 163. 163. 163. 163. 164.
      164. 164. 164. 164. 164. 164. 164. 164. 164. 164. 164. 164. 164.
      164. 164. 164. 164. 164. 164. 164. 164. 164. 164. 164. 164. 164.
      164. 164. 164. 164. 164. 164. 164. 164. 164. 164. 164. 164. 164.
      163. 163. 163. 163. 163. 163. 163. 163. 157. 157. 157. 158. 158.
      159. 159. 159. 160. 160. 159. 159. 160. 161. 162. 163. 162. 162.
      162. 162. 162. 162. 162. 162. 163. 163. 163. 163. 163. 163. 163.
      163. 163. 163. 163. 163. 163. 163. 163. 163. 163. 163. 163. 163.
      163. 163. 163. 163. 162. 162. 162. 162. 162. 162. 162. 162. 162.
      162. 162. 162. 162. 162. 162. 162. 159. 159. 159. 159. 159. 159.
      159. 159. 161. 161. 160. 160. 159. 159. 158. 158. 159. 158. 157.
      156. 156. 156. 156. 156. 156. 73. 77. 80. 80. 63. 68. 63. 62. 62.
      62. 62. 61. 61. 60. 60. 41. 31. 26. 35. 46. 52. 55. 56. 54. 54.
      89. 117. 96. 87. 92. 87. 72. 119. 81. 77. 65. 95. 97. 55. 62. 74.
      83. 33. 28. 94. 93. 44. 47. 31. 79. 90. 74. 66. 95. 71. 27. 66.
      131. 130. 92. 63. 30. 69. 59. 59. 59. 59. 59. 59. 59. 59. 49. 37.
      26. 27. 39. 52. 57. 57. 61. 61. 61. 61. 61. 61. 61. 61. 86. 80.
      89. 67. 149. 153. 147. 153. 151. 151. 151. 151. 152. 152. 153.
      153. 154. 154. 154. 154. 154. 154. 154. 154. 155. 155. 155. 155.
      155. 155. 155. 155. 157. 157. 157. 157. 157. 157. 157. 157. 157.
      157. 157. 157. 157. 157. 157. 157. 157. 157. 157. 158. 158. 159.
      159. 159. 159. 159. 159. 159. 159. 159. 159. 159. 160. 160. 160.
      160. 160. 160. 160. 160. 160. 160. 160. 160. 160. 160. 160. 160.
      160. 160. 160. 161. 161. 162. 162. 162. 163. 163. 163. 163. 163.
      163. 163. 163. 164. 164. 164. 164. 164. 164. 164. 164. 164. 164.
      164. 164. 164. 164. 164. 164. 164. 164. 164. 164. 164. 164. 164.
      164. 164. 164. 164. 164. 164. 164. 164. 164. 164. 164. 164. 164.
      164. 164. 164. 164. 163. 163. 163. 163. 163. 163. 163. 163. 157.
      157. 157. 158. 158. 159. 159. 159. 160. 160. 159. 159. 160. 161.
      162. 163. 162. 162. 162. 162. 162. 162. 162. 162. 163. 163. 163.
      163. 163. 163. 163. 163. 163. 163. 163. 163. 163. 163. 163. 163.
      163. 163. 163. 163. 163. 163. 163. 163. 162. 162. 162. 162. 162.
      162. 162. 162. 162. 162. 162. 162. 162. 162. 162. 162. 159. 159.
      159. 159. 159. 159. 159. 159. 161. 161. 160. 160. 159. 159. 158.
      158. 159. 158. 157. 156. 156. 156. 156. 156. 158. 74. 77. 79. 78.
      61. 66. 61. 61. 61. 61. 60. 60. 59. 59. 59. 54. 44. 39. 46. 55.
      58. 57. 58. 68. 42. 64. 84. 102. 87. 92. 78. 87. 93. 75. 36. 51.
