<?xml version="1.0"?>
<opencv_storage>
<my_svm type_id="opencv-ml-svm">
  <svm_type>C_SVC</svm_type>
  <kernel><type>LINEAR</type></kernel>
  <C>1.</C>
  <term_criteria><epsilon>2.2204460492503131e-016</epsilon>
    <iterations>1000</iterations></term_criteria>
  <var_all>14400</var_all>
  <var_count>14400</var_count>
  <class_count>2</class_count>
  <class_labels type_id="opencv-matrix">
    <rows>1</rows>
    <cols>2</cols>
    <dt>i</dt>
    <data>
      0 1</data></class_labels>
  <sv_total>52</sv_total>
  <support_vectors>
    <_>
      5. 1. 0. 3. 3. 3. 5. 12. 15. 41. 55. 61. 102. 120. 127. 124. 147.
      155. 143. 167. 173. 143. 169. 175. 143. 169. 175. 140. 166. 172.
      139. 166. 176. 138. 163. 173. 136. 158. 169. 138. 157. 165. 129.
      145. 152. 91. 103. 107. 39. 50. 54. 17. 24. 27. 13. 18. 19. 18.
      22. 23. 30. 36. 35. 57. 65. 64. 85. 98. 96. 109. 123. 121. 127.
      144. 140. 138. 153. 149. 156. 170. 164. 175. 188. 180. 198. 213.
      205. 214. 231. 220. 219. 242. 228. 221. 241. 228. 237. 248. 238.
      244. 253. 243. 245. 255. 246. 237. 253. 242. 235. 252. 239. 230.
      248. 235. 225. 244. 229. 225. 242. 228. 225. 241. 224. 227. 240.
      224. 232. 242. 225. 235. 245. 228. 237. 248. 228. 237. 248. 228.
      236. 249. 227. 237. 250. 228. 236. 248. 228. 237. 248. 228. 238.
      245. 230. 238. 243. 228. 238. 239. 229. 236. 239. 230. 235. 239.
      233. 234. 241. 238. 237. 248. 246. 235. 248. 250. 229. 245. 252.
      220. 240. 251. 211. 236. 252. 199. 231. 250. 186. 223. 245. 169.
      215. 239. 154. 209. 236. 145. 210. 238. 136. 206. 230. 115. 193.
      216. 101. 184. 205. 101. 189. 206. 113. 204. 219. 125. 217. 228.
      131. 225. 231. 135. 231. 231. 132. 228. 222. 125. 222. 208. 127.
      220. 199. 130. 219. 193. 135. 220. 188. 142. 224. 189. 146. 226.
      189. 146. 225. 182. 148. 220. 173. 142. 210. 157. 139. 201. 149.
      127. 190. 134. 118. 182. 122. 105. 175. 112. 98. 169. 106. 89.
      162. 100. 85. 152. 97. 83. 146. 96. 85. 140. 95. 78. 127. 89. 68.
      110. 85. 64. 99. 85. 46. 75. 72. 56. 80. 86. 55. 80. 90. 47. 73.
      87. 40. 63. 85. 32. 55. 81. 24. 48. 76. 21. 45. 75. 24. 45. 76.
      19. 40. 68. 14. 35. 57. 8. 26. 43. 4. 15. 29. 0. 8. 17. 2. 11. 15.
      13. 21. 28. 50. 58. 71. 123. 129. 142. 189. 188. 198. 232. 225.
      228. 237. 222. 219. 243. 223. 212. 248. 222. 208. 250. 222. 205.
      6. 4. 4. 0. 2. 3. 12. 21. 25. 65. 79. 85. 113. 132. 140. 130. 153.
      161. 146. 172. 179. 145. 171. 177. 147. 173. 179. 143. 169. 176.
      138. 165. 175. 137. 162. 172. 134. 156. 167. 136. 155. 163. 127.
      143. 150. 82. 94. 98. 38. 47. 50. 16. 23. 26. 14. 18. 19. 18. 22.
      23. 31. 36. 35. 56. 64. 63. 76. 89. 87. 92. 106. 104. 113. 127.
      125. 120. 135. 131. 146. 157. 154. 162. 174. 168. 186. 199. 191.
      206. 223. 212. 213. 235. 223. 218. 238. 226. 226. 240. 229. 234.
      245. 235. 240. 254. 243. 238. 254. 243. 236. 252. 241. 232. 250.
      237. 228. 245. 232. 222. 239. 225. 226. 241. 227. 228. 241. 225.
      231. 242. 226. 234. 246. 228. 236. 248. 230. 236. 248. 228. 237.
      249. 229. 239. 251. 231. 237. 249. 229. 237. 249. 231. 239. 246.
      231. 239. 243. 231. 239. 240. 230. 237. 240. 231. 236. 242. 237.
      236. 245. 242. 235. 247. 247. 233. 248. 251. 228. 246. 253. 220.
      242. 254. 209. 235. 251. 196. 229. 248. 181. 219. 243. 166. 214.
      238. 153. 209. 238. 142. 209. 236. 127. 201. 227. 109. 189. 212.
      95. 181. 203. 94. 186. 203. 108. 201. 216. 120. 215. 225. 128.
      224. 230. 130. 228. 228. 126. 225. 217. 120. 218. 202. 121. 217.
      193. 125. 217. 188. 134. 220. 186. 143. 226. 188. 148. 227. 186.
      146. 223. 179. 147. 219. 167. 140. 207. 152. 137. 198. 142. 125.
      186. 128. 115. 180. 118. 106. 174. 109. 98. 169. 106. 94. 164.
      103. 89. 157. 100. 86. 149. 99. 87. 142. 97. 82. 130. 94. 73. 115.
      90. 66. 102. 88. 52. 81. 78. 55. 81. 87. 55. 80. 90. 49. 75. 89.
      42. 67. 87. 33. 58. 84. 27. 51. 79. 25. 49. 79. 28. 49. 80. 22.
      43. 71. 17. 38. 60. 11. 27. 44. 3. 14. 28. 0. 7. 16. 3. 9. 14. 13.
      19. 26. 42. 50. 63. 119. 125. 138. 185. 184. 193. 233. 227. 228.
      238. 226. 222. 242. 224. 213. 249. 224. 208. 249. 224. 204. 0. 4.
      5. 0. 6. 9. 36. 48. 54. 107. 124. 133. 140. 162. 173. 148. 173.
      183. 158. 186. 193. 153. 181. 188. 152. 180. 187. 146. 174. 181.
      139. 166. 176. 138. 163. 173. 133. 156. 164. 134. 153. 160. 125.
      139. 145. 68. 79. 83. 32. 39. 42. 14. 19. 20. 11. 15. 16. 15. 19.
      20. 28. 32. 33. 52. 57. 58. 64. 74. 74. 66. 80. 79. 79. 93. 92.
      88. 102. 100. 105. 116. 114. 124. 135. 132. 152. 164. 158. 178.
      193. 185. 205. 225. 213. 214. 236. 224. 221. 240. 231. 223. 242.
      233. 230. 247. 238. 236. 251. 243. 237. 252. 244. 238. 254. 243.
      237. 251. 240. 229. 246. 233. 230. 244. 232. 229. 244. 230. 229.
      244. 230. 230. 246. 229. 232. 245. 229. 234. 246. 228. 236. 248.
      230. 237. 249. 231. 238. 250. 232. 238. 250. 232. 240. 247. 232.
      237. 244. 231. 237. 241. 230. 236. 241. 232. 237. 244. 239. 237.
      248. 246. 238. 251. 253. 232. 248. 254. 224. 245. 253. 215. 241.
      255. 205. 235. 252. 190. 227. 247. 173. 217. 241. 157. 211. 236.
      144. 206. 236. 131. 201. 230. 115. 192. 219. 97. 181. 206. 86.
      177. 198. 86. 181. 200. 98. 195. 209. 107. 208. 217. 116. 216.
      220. 117. 219. 214. 114. 216. 204. 111. 212. 191. 114. 211. 184.
      122. 216. 182. 133. 220. 182. 144. 226. 183. 147. 227. 180. 148.
      221. 171. 146. 215. 158. 136. 200. 140. 131. 189. 130. 119. 178.
      117. 114. 175. 111. 106. 173. 106. 99. 170. 104. 99. 169. 106. 95.
      163. 106. 93. 155. 103. 92. 147. 102. 90. 138. 102. 83. 125. 100.
      76. 112. 98. 57. 88. 85. 54. 83. 87. 52. 80. 87. 50. 77. 91. 44.
      71. 91. 36. 64. 88. 31. 58. 85. 30. 56. 86. 36. 60. 88. 30. 53.
      79. 24. 42. 65. 12. 28. 45. 1. 12. 26. 0. 4. 13. 1. 5. 10. 7. 13.
      18. 32. 41. 51. 104. 113. 123. 177. 180. 185. 232. 228. 227. 240.
      228. 222. 244. 227. 214. 251. 229. 211. 252. 229. 207. 8. 20. 22.
      15. 27. 31. 68. 86. 93. 133. 155. 166. 154. 180. 192. 156. 184.
      195. 163. 192. 201. 162. 190. 197. 158. 185. 195. 152. 179. 189.
      143. 170. 180. 141. 166. 176. 133. 155. 166. 129. 148. 155. 117.
      131. 137. 53. 65. 67. 21. 28. 31. 9. 13. 14. 10. 12. 13. 17. 19.
      20. 28. 32. 33. 47. 52. 53. 54. 64. 64. 52. 64. 64. 47. 61. 60.
      48. 60. 60. 50. 60. 60. 58. 66. 65. 101. 112. 109. 138. 152. 146.
      160. 179. 170. 195. 216. 207. 209. 232. 224. 214. 237. 229. 219.
      237. 230. 227. 243. 236. 230. 244. 238. 234. 247. 239. 235. 248.
      240. 236. 252. 241. 232. 248. 237. 231. 248. 235. 231. 248. 235.
      229. 246. 232. 230. 245. 231. 231. 244. 228. 234. 245. 229. 236.
      247. 231. 236. 250. 232. 239. 250. 234. 238. 248. 232. 237. 244.
      231. 235. 240. 231. 235. 242. 235. 237. 246. 243. 237. 251. 249.
      234. 251. 254. 229. 248. 255. 219. 244. 254. 208. 237. 252. 193.
      228. 248. 178. 220. 243. 164. 211. 238. 150. 206. 235. 135. 202.
      233. 118. 194. 223. 100. 183. 211. 86. 176. 201. 78. 174. 197. 78.
      180. 198. 87. 191. 204. 95. 201. 208. 98. 206. 207. 102. 208. 201.
      101. 209. 191. 102. 206. 181. 107. 208. 176. 119. 215. 175. 129.
      220. 175. 139. 224. 174. 147. 225. 172. 145. 216. 159. 141. 206.
      144. 129. 189. 125. 122. 177. 114. 111. 166. 103. 107. 165. 100.
      103. 166. 97. 100. 167. 100. 101. 169. 104. 102. 166. 107. 99.
      158. 107. 98. 151. 107. 96. 144. 108. 91. 133. 110. 86. 122. 108.
      69. 100. 97. 61. 90. 94. 56. 85. 92. 56. 86. 97. 53. 83. 100. 47.
      75. 99. 42. 69. 96. 40. 67. 94. 48. 72. 100. 38. 61. 87. 28. 46.
      69. 14. 28. 46. 2. 11. 24. 0. 2. 11. 0. 3. 8. 4. 8. 13. 24. 35.
      43. 84. 96. 102. 170. 175. 178. 228. 227. 223. 241. 232. 222. 245.
      230. 214. 253. 234. 213. 254. 234. 209. 28. 45. 48. 41. 61. 66.
      104. 127. 135. 148. 174. 186. 162. 191. 205. 161. 190. 204. 161.
      191. 202. 167. 196. 205. 158. 186. 197. 156. 184. 195. 146. 174.
      185. 142. 168. 180. 133. 155. 166. 123. 142. 150. 104. 118. 124.
      39. 51. 53. 14. 19. 22. 6. 8. 9. 8. 10. 11. 18. 20. 21. 29. 32.
      36. 44. 51. 54. 51. 60. 63. 48. 60. 62. 41. 53. 55. 35. 47. 49.
      37. 46. 49. 43. 51. 51. 48. 59. 57. 70. 84. 80. 122. 137. 133.
      151. 171. 166. 171. 194. 189. 201. 227. 221. 212. 234. 229. 214.
      234. 229. 220. 235. 231. 227. 241. 235. 227. 241. 235. 228. 243.
      235. 233. 248. 240. 233. 250. 239. 232. 249. 238. 231. 248. 235.
      228. 245. 232. 228. 243. 229. 229. 244. 230. 232. 245. 231. 234.
      247. 231. 237. 248. 232. 238. 247. 234. 236. 244. 233. 235. 242.
      235. 237. 244. 239. 238. 249. 247. 236. 252. 251. 229. 248. 253.
      224. 247. 255. 214. 241. 255. 197. 230. 246. 180. 219. 241. 163.
      211. 235. 152. 205. 232. 139. 201. 231. 122. 195. 227. 105. 186.
      219. 88. 178. 208. 79. 176. 202. 77. 179. 201. 78. 186. 203. 84.
      195. 205. 88. 201. 204. 91. 204. 201. 93. 207. 194. 98. 209. 187.
      103. 211. 182. 111. 214. 176. 122. 220. 174. 131. 223. 172. 138.
      222. 167. 144. 218. 158. 140. 207. 145. 135. 196. 128. 122. 179.
      110. 114. 167. 100. 101. 154. 87. 98. 153. 84. 93. 153. 83. 97.
      160. 91. 99. 163. 98. 103. 162. 104. 103. 159. 108. 102. 153. 109.
      100. 146. 110. 95. 137. 114. 92. 128. 116. 80. 112. 107. 70. 100.
      101. 65. 95. 100. 67. 97. 108. 64. 94. 111. 56. 87. 108. 50. 80.
      105. 46. 75. 102. 52. 79. 106. 39. 63. 87. 27. 46. 67. 12. 27. 43.
      1. 10. 23. 0. 4. 11. 0. 3. 8. 3. 8. 11. 20. 32. 38. 67. 80. 82.
      164. 172. 171. 223. 226. 217. 237. 234. 219. 243. 234. 214. 252.
      239. 213. 254. 237. 210. 47. 69. 75. 65. 89. 95. 123. 152. 161.
      149. 178. 192. 157. 188. 203. 153. 184. 199. 149. 181. 194. 156.
      186. 197. 155. 185. 196. 156. 185. 199. 151. 178. 192. 144. 171.
      185. 135. 157. 169. 116. 135. 143. 86. 102. 109. 29. 40. 44. 9.
      14. 17. 3. 5. 6. 6. 8. 9. 16. 19. 23. 29. 34. 37. 45. 51. 56. 51.
      62. 66. 47. 58. 62. 39. 50. 54. 32. 43. 47. 33. 42. 46. 28. 37.
      40. 41. 51. 51. 55. 68. 66. 79. 93. 91. 113. 132. 129. 136. 159.
      155. 163. 186. 182. 182. 203. 200. 210. 229. 226. 221. 238. 235.
      219. 236. 232. 219. 234. 230. 228. 244. 237. 232. 248. 241. 234.
      251. 242. 234. 251. 242. 231. 248. 237. 227. 244. 233. 225. 242.
      229. 224. 240. 229. 223. 240. 227. 230. 245. 231. 233. 246. 232.
      236. 246. 234. 235. 244. 234. 236. 243. 238. 235. 246. 243. 235.
      249. 248. 233. 250. 253. 228. 247. 254. 217. 242. 252. 203. 232.
      247. 187. 222. 242. 170. 214. 237. 155. 205. 233. 140. 197. 228.
      124. 191. 222. 108. 187. 220. 96. 183. 217. 85. 181. 211. 80. 183.
      208. 81. 190. 211. 83. 196. 212. 85. 202. 211. 87. 204. 207. 88.
      206. 201. 92. 209. 194. 100. 214. 190. 108. 220. 186. 120. 225.
      182. 131. 228. 178. 136. 227. 172. 139. 221. 162. 137. 209. 143.
      135. 198. 129. 128. 187. 113. 118. 171. 98. 109. 159. 89. 96. 145.
      77. 90. 141. 73. 86. 141. 72. 87. 146. 78. 93. 150. 87. 98. 153.
      98. 102. 152. 104. 104. 150. 108. 101. 144. 111. 97. 135. 113. 93.
      127. 116. 86. 116. 111. 76. 106. 107. 74. 104. 109. 76. 107. 116.
      74. 105. 120. 67. 98. 119. 58. 89. 114. 51. 81. 106. 53. 80. 106.
      36. 60. 82. 23. 43. 61. 11. 27. 40. 0. 10. 20. 0. 4. 11. 0. 3. 7.
      3. 8. 11. 21. 34. 36. 65. 82. 79. 162. 174. 168. 216. 225. 212.
      235. 236. 216. 241. 237. 212. 250. 242. 213. 250. 239. 207. 85.
      113. 120. 98. 127. 134. 133. 165. 176. 148. 182. 195. 148. 183.
      197. 142. 177. 191. 143. 177. 190. 148. 180. 193. 149. 181. 194.
      155. 186. 201. 151. 180. 195. 143. 172. 187. 136. 159. 174. 109.
      129. 140. 69. 86. 95. 20. 32. 38. 5. 10. 13. 3. 5. 6. 5. 8. 12.
      18. 22. 27. 32. 41. 45. 53. 63. 70. 64. 76. 82. 56. 68. 74. 44.
      56. 62. 39. 49. 56. 33. 43. 50. 31. 42. 46. 36. 47. 51. 37. 50.
      52. 50. 65. 67. 67. 83. 82. 88. 104. 103. 112. 130. 129. 128. 146.
      145. 157. 176. 173. 178. 199. 196. 206. 228. 223. 219. 239. 234.
      216. 237. 229. 225. 243. 236. 230. 248. 241. 235. 251. 244. 234.
      251. 242. 230. 247. 238. 225. 245. 233. 223. 242. 233. 223. 243.
      231. 229. 245. 234. 235. 246. 236. 237. 245. 238. 236. 243. 238.
      235. 243. 242. 233. 245. 245. 231. 246. 249. 225. 245. 250. 219.
      242. 250. 205. 232. 246. 189. 222. 238. 175. 214. 236. 157. 204.
      231. 139. 193. 223. 119. 183. 214. 106. 179. 211. 98. 182. 217.
      92. 185. 218. 89. 189. 218. 87. 194. 221. 88. 201. 221. 87. 206.
      221. 86. 207. 216. 87. 209. 209. 88. 209. 201. 91. 211. 193. 99.
      216. 189. 112. 222. 186. 122. 225. 180. 131. 226. 175. 133. 220.
      162. 132. 211. 148. 126. 193. 124. 121. 182. 108. 114. 170. 95.
      107. 156. 82. 102. 146. 77. 89. 132. 65. 85. 129. 62. 80. 128. 62.
      82. 134. 70. 90. 141. 81. 98. 147. 93. 99. 145. 98. 101. 143. 102.
      101. 138. 106. 93. 125. 106. 85. 115. 104. 76. 104. 98. 72. 98.
      98. 72. 101. 105. 78. 107. 116. 75. 106. 121. 71. 103. 122. 63.
      95. 118. 53. 84. 107. 47. 76. 97. 29. 54. 74. 18. 38. 55. 9. 25.
      37. 0. 11. 19. 0. 6. 10. 2. 7. 10. 5. 13. 13. 25. 42. 39. 80. 101.
      93. 160. 177. 166. 212. 224. 206. 227. 235. 212. 238. 240. 210.
      247. 245. 211. 249. 245. 210. 104. 136. 142. 111. 144. 153. 135.
      170. 180. 152. 190. 202. 147. 184. 198. 139. 176. 190. 141. 176.
      189. 139. 172. 187. 144. 177. 192. 152. 185. 201. 147. 180. 196.
      140. 170. 187. 133. 159. 175. 103. 124. 139. 58. 76. 87. 14. 28.
      34. 3. 8. 11. 2. 5. 9. 7. 11. 16. 20. 28. 35. 42. 52. 59. 69. 82.
      90. 80. 95. 104. 69. 84. 93. 57. 69. 79. 40. 53. 61. 38. 49. 57.
      37. 49. 55. 44. 56. 62. 47. 62. 65. 51. 66. 69. 53. 68. 71. 51.
      64. 66. 54. 67. 69. 62. 77. 79. 102. 120. 119. 131. 152. 150. 169.
      192. 188. 202. 225. 221. 215. 237. 232. 218. 238. 233. 224. 245.
      237. 233. 251. 244. 234. 252. 245. 233. 251. 244. 230. 251. 242.
      227. 250. 242. 229. 250. 241. 234. 249. 241. 237. 250. 242. 239.
      249. 243. 237. 246. 243. 236. 246. 246. 233. 246. 248. 227. 243.
      249. 218. 239. 247. 206. 230. 242. 194. 223. 238. 183. 216. 235.
      167. 208. 231. 144. 192. 220. 117. 174. 205. 100. 167. 198. 92.
      169. 202. 94. 183. 217. 92. 189. 222. 94. 198. 227. 92. 204. 227.
      90. 208. 227. 89. 211. 223. 87. 211. 217. 86. 211. 209. 88. 211.
      201. 90. 211. 191. 98. 214. 185. 109. 218. 180. 116. 218. 171.
      122. 214. 161. 122. 206. 148. 117. 193. 129. 116. 179. 109. 109.
      166. 91. 101. 153. 76. 94. 139. 66. 91. 129. 63. 82. 119. 55. 78.
      117. 55. 76. 117. 56. 85. 129. 70. 96. 138. 83. 103. 144. 93. 101.
      140. 95. 100. 135. 95. 97. 129. 98. 87. 113. 95. 73. 98. 88. 58.
      80. 75. 56. 78. 76. 61. 86. 90. 67. 95. 102. 68. 97. 111. 64. 97.
      113. 58. 89. 110. 46. 77. 98. 41. 68. 88. 21. 47. 63. 13. 35. 47.
      8. 25. 34. 0. 14. 20. 0. 9. 12. 6. 14. 14. 10. 21. 19. 30. 50. 45.
      97. 121. 111. 159. 180. 165. 206. 223. 202. 222. 234. 206. 235.
      242. 209. 246. 248. 212. 251. 252. 212. 110. 143. 152. 117. 153.
      161. 138. 174. 184. 152. 190. 202. 149. 186. 200. 139. 176. 190.
      138. 173. 187. 138. 173. 187. 141. 175. 191. 144. 177. 196. 148.
      181. 201. 138. 169. 190. 128. 155. 175. 98. 123. 139. 52. 71. 84.
      9. 25. 32. 3. 9. 14. 0. 5. 8. 9. 17. 24. 26. 37. 45. 54. 69. 78.
      88. 105. 114. 98. 116. 127. 87. 105. 116. 71. 87. 99. 54. 69. 78.
      49. 61. 71. 54. 67. 75. 56. 69. 77. 60. 76. 82. 62. 78. 84. 56.
      70. 76. 50. 59. 63. 36. 45. 48. 37. 49. 51. 43. 59. 58. 58. 76.
      75. 128. 151. 147. 166. 189. 185. 207. 230. 226. 214. 237. 233.
      221. 243. 238. 226. 246. 241. 230. 250. 245. 234. 254. 249. 231.
      254. 246. 228. 250. 245. 232. 255. 247. 237. 253. 246. 240. 251.
      248. 238. 249. 247. 236. 246. 246. 236. 247. 251. 228. 242. 248.
      220. 237. 246. 208. 230. 241. 196. 222. 236. 191. 221. 238. 175.
      210. 230. 154. 195. 220. 121. 174. 201. 101. 163. 193. 91. 162.
      195. 92. 173. 206. 98. 189. 220. 98. 198. 227. 94. 204. 230. 93.
      208. 229. 90. 211. 227. 88. 212. 222. 87. 212. 216. 82. 208. 203.
      87. 209. 198. 90. 208. 189. 94. 207. 179. 99. 205. 168. 105. 203.
      157. 110. 198. 144. 109. 189. 130. 108. 179. 113. 101. 164. 92.
      97. 150. 76. 91. 138. 62. 83. 125. 54. 79. 114. 50. 75. 107. 48.
      74. 107. 50. 79. 114. 58. 91. 127. 73. 103. 138. 88. 109. 140. 95.
      108. 138. 97. 104. 132. 96. 90. 115. 87. 72. 91. 76. 60. 79. 70.
      50. 65. 61. 48. 65. 62. 53. 72. 75. 53. 76. 84. 59. 85. 99. 56.
      84. 101. 54. 84. 103. 36. 66. 85. 29. 57. 74. 16. 42. 56. 11. 31.
      42. 6. 24. 31. 3. 18. 21. 3. 15. 17. 9. 19. 19. 16. 29. 27. 41.
      64. 56. 104. 130. 117. 162. 186. 168. 196. 216. 193. 220. 236.
      205. 226. 238. 202. 242. 250. 210. 246. 253. 210. 113. 149. 157.
      120. 156. 166. 137. 175. 187. 151. 191. 203. 148. 187. 201. 138.
      177. 191. 136. 173. 187. 135. 171. 187. 138. 174. 192. 138. 173.
      193. 138. 172. 195. 135. 167. 190. 123. 152. 173. 93. 117. 135.
      46. 65. 78. 11. 26. 35. 2. 10. 17. 2. 11. 15. 13. 24. 32. 40. 55.
      64. 76. 94. 105. 104. 123. 136. 107. 128. 143. 98. 117. 130. 90.
      107. 120. 68. 86. 97. 59. 75. 87. 63. 80. 89. 70. 87. 96. 77. 95.
      102. 71. 89. 96. 56. 72. 79. 47. 55. 62. 34. 40. 45. 23. 32. 35.
      20. 33. 35. 30. 45. 47. 68. 89. 87. 125. 147. 145. 168. 193. 189.
      206. 231. 227. 210. 235. 231. 217. 240. 236. 221. 244. 240. 225.
      248. 244. 228. 251. 247. 228. 251. 247. 229. 250. 247. 234. 251.
      248. 238. 252. 251. 236. 248. 250. 234. 245. 249. 236. 248. 254.
      222. 237. 246. 213. 231. 242. 202. 226. 238. 194. 220. 236. 172.
      205. 221. 142. 179. 201. 117. 161. 185. 95. 148. 175. 87. 151.
      181. 90. 163. 193. 97. 180. 211. 101. 195. 224. 101. 204. 229. 98.
      208. 232. 95. 213. 232. 90. 214. 225. 87. 213. 218. 84. 210. 211.
      82. 206. 200. 83. 204. 190. 85. 200. 180. 87. 197. 168. 91. 194.
      156. 96. 190. 143. 100. 184. 130. 97. 174. 113. 97. 163. 98. 91.
      149. 78. 87. 138. 64. 82. 127. 54. 76. 113. 45. 69. 99. 40. 66.
      92. 39. 67. 94. 44. 76. 102. 54. 93. 121. 75. 105. 132. 89. 112.
      136. 96. 110. 132. 97. 110. 128. 97. 95. 114. 89. 74. 88. 76. 61.
      73. 67. 52. 63. 60. 48. 60. 60. 54. 69. 72. 57. 76. 84. 63. 84.
      99. 55. 81. 98. 53. 78. 98. 34. 61. 81. 25. 51. 67. 14. 38. 50. 9.
      30. 38. 7. 26. 31. 6. 21. 24. 8. 21. 23. 16. 28. 28. 26. 40. 38.
      56. 79. 71. 112. 138. 125. 154. 178. 160. 198. 220. 195. 213. 231.
      200. 223. 237. 201. 238. 249. 209. 238. 248. 205. 114. 150. 160.
      120. 156. 166. 136. 174. 186. 150. 189. 203. 149. 188. 203. 141.
      180. 195. 137. 176. 190. 135. 174. 189. 134. 172. 190. 134. 171.
      191. 128. 164. 188. 129. 163. 187. 117. 146. 167. 86. 110. 128.
      39. 58. 71. 12. 27. 36. 2. 12. 19. 7. 17. 24. 17. 32. 41. 55. 75.
      86. 93. 116. 131. 110. 135. 151. 109. 134. 150. 100. 123. 139. 85.
      106. 121. 72. 91. 104. 67. 85. 96. 71. 90. 98. 79. 98. 106. 88.
      107. 115. 84. 103. 111. 70. 86. 93. 53. 63. 70. 38. 47. 51. 26.
      35. 39. 23. 35. 37. 28. 41. 43. 45. 61. 60. 98. 119. 117. 148.
      170. 168. 184. 211. 208. 205. 232. 229. 210. 239. 236. 208. 235.
      232. 215. 239. 237. 222. 244. 242. 225. 247. 245. 231. 251. 252.
      229. 247. 248. 235. 250. 253. 236. 248. 254. 231. 244. 252. 230.
      245. 254. 216. 232. 244. 206. 225. 238. 197. 223. 237. 180. 209.
      224. 151. 183. 202. 117. 154. 174. 96. 143. 165. 85. 141. 166. 85.
      150. 178. 90. 167. 194. 97. 184. 211. 107. 203. 227. 106. 211.
      232. 103. 215. 235. 98. 217. 232. 92. 216. 224. 84. 210. 211. 81.
      206. 204. 80. 202. 192. 80. 197. 182. 80. 194. 170. 83. 190. 157.
      86. 186. 144. 92. 181. 132. 94. 175. 120. 93. 165. 105. 94. 156.
      90. 88. 142. 72. 89. 135. 62. 86. 126. 54. 76. 110. 45. 66. 92.
      38. 61. 82. 37. 63. 83. 40. 72. 91. 52. 93. 111. 74. 109. 126. 92.
      121. 136. 104. 121. 136. 105. 118. 129. 103. 102. 113. 93. 81. 89.
      79. 66. 71. 69. 57. 62. 60. 55. 60. 61. 59. 69. 76. 65. 79. 91.
      71. 87. 104. 60. 81. 102. 54. 75. 96. 34. 58. 78. 26. 49. 65. 16.
      38. 50. 13. 32. 40. 10. 29. 34. 10. 25. 28. 14. 27. 29. 22. 36.
      35. 32. 49. 46. 60. 80. 75. 114. 138. 126. 155. 179. 161. 187.
      209. 185. 211. 231. 202. 218. 234. 200. 228. 241. 203. 236. 248.
      206. 116. 151. 164. 119. 157. 169. 134. 173. 187. 147. 188. 203.
      149. 190. 205. 144. 185. 200. 142. 181. 196. 139. 178. 193. 134.
      172. 190. 132. 169. 191. 123. 159. 183. 122. 156. 180. 110. 139.
      160. 76. 100. 118. 35. 52. 65. 12. 24. 34. 7. 16. 25. 14. 25. 33.
      28. 46. 57. 74. 98. 110. 107. 133. 150. 115. 142. 162. 112. 139.
      159. 99. 125. 142. 84. 107. 123. 74. 95. 110. 70. 92. 104. 75. 95.
      106. 80. 101. 109. 87. 108. 116. 89. 108. 116. 79. 96. 105. 63.
      77. 83. 46. 57. 61. 34. 45. 49. 32. 43. 47. 27. 39. 43. 38. 53.
      55. 62. 80. 81. 107. 129. 127. 142. 168. 168. 162. 190. 190. 192.
      220. 220. 207. 235. 235. 210. 235. 237. 210. 233. 235. 217. 238.
      240. 219. 240. 242. 219. 237. 244. 223. 241. 248. 229. 244. 253.
      224. 240. 252. 220. 236. 249. 208. 227. 242. 200. 223. 238. 188.
      214. 230. 151. 179. 196. 117. 150. 169. 85. 125. 144. 75. 122.
      144. 76. 133. 155. 83. 150. 175. 97. 174. 200. 108. 196. 220. 108.
      207. 229. 109. 214. 233. 105. 218. 234. 102. 220. 231. 91. 216.
      220. 81. 205. 205. 78. 200. 194. 75. 196. 182. 74. 190. 171. 76.
      186. 160. 78. 182. 147. 82. 179. 135. 88. 173. 123. 91. 168. 111.
      90. 159. 98. 90. 151. 85. 88. 141. 68. 91. 136. 63. 92. 129. 59.
      83. 112. 49. 69. 90. 41. 60. 76. 35. 58. 72. 38. 65. 78. 46. 81.
      93. 63. 101. 113. 85. 121. 127. 102. 123. 129. 106. 115. 121. 98.
      98. 101. 85. 77. 79. 73. 66. 66. 66. 62. 62. 62. 59. 62. 66. 70.
      75. 84. 80. 89. 103. 83. 97. 116. 74. 90. 113. 61. 79. 102. 40.
      59. 80. 32. 49. 68. 22. 39. 52. 16. 33. 42. 13. 29. 35. 11. 26.
      29. 14. 29. 31. 22. 35. 37. 29. 45. 44. 48. 67. 64. 90. 111. 102.
      142. 163. 148. 165. 186. 164. 202. 221. 194. 220. 237. 204. 219.
      233. 197. 226. 239. 201. 120. 157. 171. 124. 160. 176. 137. 176.
      191. 150. 190. 208. 152. 192. 210. 147. 190. 205. 144. 185. 200.
      139. 180. 195. 132. 172. 190. 127. 166. 188. 120. 156. 180. 118.
      150. 173. 106. 133. 153. 64. 84. 101. 28. 42. 54. 9. 20. 28. 6.
      15. 24. 15. 27. 37. 40. 59. 72. 96. 122. 136. 116. 146. 165. 118.
      149. 170. 117. 146. 167. 99. 126. 147. 83. 107. 125. 69. 92. 108.
      61. 85. 97. 66. 88. 99. 71. 94. 102. 78. 99. 107. 80. 98. 109. 74.
      93. 101. 67. 85. 92. 53. 69. 75. 43. 57. 63. 38. 52. 58. 31. 45.
      51. 42. 57. 60. 43. 60. 63. 72. 92. 93. 107. 130. 132. 129. 154.
      156. 149. 177. 178. 166. 194. 195. 195. 222. 226. 208. 233. 237.
      208. 232. 238. 209. 231. 237. 211. 229. 240. 211. 229. 240. 217.
      234. 247. 213. 232. 247. 208. 227. 242. 201. 224. 240. 194. 219.
      235. 169. 197. 214. 127. 157. 174. 91. 124. 143. 63. 103. 122. 62.
      109. 130. 73. 132. 152. 85. 156. 176. 104. 185. 206. 115. 207.
      226. 111. 211. 229. 111. 218. 232. 106. 221. 232. 101. 221. 227.
      89. 212. 214. 79. 202. 198. 73. 195. 185. 72. 189. 174. 72. 186.
      163. 73. 181. 152. 77. 178. 140. 81. 175. 128. 86. 170. 116. 90.
      164. 104. 91. 157. 92. 93. 150. 81. 91. 140. 66. 96. 137. 62. 96.
      130. 60. 85. 111. 51. 71. 86. 42. 61. 70. 37. 57. 64. 37. 62. 68.
      45. 72. 78. 55. 89. 94. 73. 110. 111. 91. 117. 117. 99. 110. 110.
      92. 91. 91. 79. 71. 70. 66. 62. 59. 61. 61. 57. 62. 66. 63. 72.
      80. 80. 94. 92. 96. 115. 97. 104. 129. 89. 100. 127. 74. 87. 113.
      50. 64. 87. 37. 50. 72. 26. 39. 55. 19. 31. 41. 12. 26. 32. 11.
      23. 27. 12. 24. 28. 13. 28. 31. 18. 33. 35. 30. 46. 45. 59. 74.
      70. 113. 130. 119. 152. 170. 153. 178. 194. 171. 216. 230. 202.
      222. 235. 203. 226. 237. 204. 125. 161. 179. 127. 165. 183. 138.
      178. 197. 150. 192. 211. 154. 197. 214. 151. 194. 211. 147. 187.
      205. 140. 180. 198. 131. 171. 190. 123. 163. 182. 116. 153. 175.
      112. 144. 167. 95. 120. 140. 48. 67. 82. 21. 33. 43. 8. 17. 26. 5.
      14. 23. 17. 32. 41. 51. 73. 85. 106. 135. 150. 119. 150. 171. 119.
      151. 174. 114. 145. 168. 95. 122. 143. 82. 106. 126. 66. 89. 105.
      56. 79. 94. 60. 84. 96. 65. 87. 98. 66. 89. 97. 70. 88. 99. 68.
      86. 97. 60. 81. 89. 58. 77. 84. 53. 72. 79. 49. 68. 73. 49. 65.
      71. 48. 64. 70. 44. 60. 66. 48. 67. 70. 55. 74. 79. 77. 97. 102.
      108. 130. 135. 127. 151. 157. 152. 178. 184. 175. 201. 208. 196.
      222. 229. 199. 224. 234. 203. 225. 237. 200. 221. 236. 205. 226.
      241. 204. 224. 241. 200. 223. 239. 196. 220. 238. 181. 209. 226.
      145. 175. 192. 108. 140. 159. 73. 109. 127. 55. 95. 114. 63. 111.
      129. 82. 141. 160. 94. 166. 184. 109. 191. 209. 115. 207. 224.
      114. 215. 230. 113. 221. 233. 105. 221. 228. 100. 219. 221. 88.
      211. 209. 78. 200. 194. 72. 192. 181. 71. 187. 168. 72. 182. 156.
      74. 179. 146. 76. 175. 135. 81. 173. 124. 89. 170. 113. 93. 166.
      104. 98. 160. 94. 100. 154. 84. 99. 146. 70. 102. 141. 66. 99.
      130. 61. 85. 107. 49. 69. 81. 39. 58. 64. 33. 54. 56. 34. 56. 58.
      39. 65. 65. 49. 78. 78. 62. 99. 96. 82. 113. 110. 96. 111. 108.
      94. 94. 92. 82. 75. 71. 70. 63. 59. 64. 60. 53. 60. 68. 62. 73.
      84. 81. 97. 98. 99. 120. 103. 106. 134. 98. 104. 133. 80. 90. 120.
      56. 67. 94. 41. 52. 74. 29. 39. 57. 22. 31. 44. 14. 25. 33. 10.
      20. 27. 8. 20. 26. 6. 18. 24. 7. 19. 25. 14. 27. 29. 30. 43. 41.
      70. 84. 78. 115. 129. 117. 153. 165. 147. 192. 205. 181. 218. 227.
      200. 222. 232. 202. 127. 164. 184. 131. 168. 188. 141. 180. 202.
      152. 193. 215. 155. 197. 216. 150. 194. 211. 144. 187. 204. 135.
      178. 195. 123. 165. 184. 120. 160. 179. 109. 146. 168. 100. 131.
      152. 73. 97. 115. 35. 52. 65. 20. 29. 38. 13. 21. 28. 12. 21. 30.
      26. 40. 52. 57. 78. 93. 104. 132. 149. 112. 144. 167. 113. 147.
      171. 106. 136. 161. 88. 116. 140. 72. 96. 118. 60. 84. 102. 54.
      77. 92. 55. 79. 91. 56. 78. 89. 51. 73. 84. 53. 71. 82. 50. 70.
      81. 55. 78. 86. 61. 85. 91. 67. 91. 97. 69. 91. 97. 72. 91. 98.
      59. 78. 85. 50. 66. 73. 36. 52. 58. 32. 48. 55. 28. 44. 51. 36.
      54. 61. 62. 81. 89. 107. 130. 138. 131. 158. 168. 158. 187. 196.
      181. 209. 220. 187. 212. 228. 192. 215. 231. 196. 219. 235. 193.
      217. 235. 192. 218. 235. 181. 208. 228. 158. 188. 207. 121. 153.
      172. 85. 118. 137. 54. 92. 110. 47. 90. 107. 63. 113. 131. 87.
      146. 165. 99. 171. 189. 113. 198. 214. 117. 212. 227. 116. 218.
      231. 113. 221. 232. 105. 219. 225. 95. 215. 215. 86. 207. 203. 79.
      201. 191. 76. 195. 180. 73. 188. 168. 72. 182. 154. 73. 178. 141.
      76. 174. 130. 80. 172. 119. 90. 170. 109. 95. 167. 101. 99. 162.
      92. 102. 158. 83. 105. 149. 72. 107. 143. 67. 100. 129. 60. 83.
      102. 45. 64. 73. 33. 51. 55. 26. 47. 46. 26. 47. 46. 32. 54. 50.
      39. 64. 60. 49. 80. 76. 65. 94. 88. 77. 95. 89. 78. 84. 78. 71.
      70. 64. 65. 60. 53. 60. 56. 46. 58. 62. 55. 70. 76. 72. 91. 92.
      92. 116. 95. 97. 127. 90. 95. 126. 78. 83. 116. 58. 64. 93. 44.
      51. 76. 34. 41. 60. 27. 34. 49. 20. 29. 39. 17. 24. 33. 12. 21.
      30. 5. 16. 24. 3. 15. 21. 8. 18. 25. 12. 21. 24. 28. 39. 37. 57.
      68. 58. 113. 124. 108. 156. 168. 146. 186. 195. 169. 190. 197.
      170. 131. 170. 192. 134. 173. 195. 143. 184. 207. 154. 195. 217.
      154. 195. 217. 149. 191. 210. 140. 182. 201. 129. 171. 190. 115.
      157. 176. 119. 159. 178. 105. 140. 160. 87. 117. 136. 54. 75. 90.
      29. 43. 55. 23. 31. 38. 17. 23. 28. 16. 25. 34. 30. 44. 56. 54.
      75. 90. 94. 119. 139. 101. 132. 155. 105. 136. 161. 98. 126. 150.
      85. 111. 135. 69. 93. 113. 60. 82. 100. 54. 77. 92. 56. 80. 92.
      56. 78. 90. 50. 72. 84. 47. 66. 79. 45. 65. 76. 43. 65. 76. 51.
      77. 84. 66. 92. 99. 76. 102. 109. 80. 106. 113. 74. 97. 105. 58.
      77. 84. 40. 58. 65. 29. 42. 50. 23. 37. 43. 25. 38. 46. 34. 50.
      57. 71. 91. 102. 104. 129. 139. 134. 163. 177. 151. 180. 195. 171.
      197. 214. 183. 207. 227. 187. 212. 232. 185. 210. 230. 183. 210.
      231. 163. 192. 213. 134. 166. 185. 105. 137. 156. 72. 105. 124.
      50. 88. 106. 55. 98. 115. 77. 128. 144. 100. 160. 176. 107. 180.
      194. 119. 202. 217. 122. 216. 229. 115. 218. 227. 112. 222. 226.
      102. 218. 219. 92. 212. 208. 85. 206. 198. 81. 202. 188. 80. 198.
      179. 77. 191. 167. 78. 187. 155. 78. 181. 143. 79. 178. 130. 85.
      173. 119. 92. 171. 108. 96. 167. 100. 100. 163. 91. 106. 157. 83.
      106. 148. 70. 108. 141. 66. 103. 127. 62. 83. 99. 46. 62. 69. 32.
      49. 49. 25. 42. 39. 24. 44. 40. 29. 49. 44. 35. 54. 48. 41. 63.
      55. 48. 67. 59. 52. 65. 56. 52. 61. 54. 51. 57. 50. 53. 52. 44.
      54. 50. 40. 52. 55. 45. 61. 68. 62. 81. 84. 80. 105. 87. 85. 115.
      80. 82. 113. 70. 72. 103. 52. 55. 86. 45. 49. 77. 37. 41. 65. 31.
      38. 55. 28. 33. 48. 23. 29. 40. 21. 27. 38. 13. 22. 31. 9. 18. 27.
      8. 16. 23. 10. 17. 20. 20. 28. 28. 33. 40. 35. 65. 73. 62. 126.
      131. 116. 154. 158. 139. 163. 168. 147. 135. 176. 198. 141. 182.
      204. 145. 188. 209. 152. 193. 215. 154. 193. 215. 144. 183. 205.
      131. 172. 194. 122. 164. 183. 110. 153. 172. 117. 157. 175. 101.
      134. 150. 69. 95. 109. 36. 52. 64. 25. 34. 43. 16. 25. 29. 14. 23.
      26. 19. 30. 34. 35. 48. 56. 54. 70. 86. 83. 105. 123. 93. 117.
      139. 95. 121. 145. 91. 114. 136. 75. 96. 117. 65. 85. 103. 66. 84.
      101. 64. 84. 101. 74. 94. 111. 70. 93. 109. 55. 78. 94. 49. 70.
      85. 39. 60. 75. 39. 59. 70. 47. 69. 80. 64. 90. 102. 80. 108. 119.
      91. 119. 130. 88. 117. 126. 73. 99. 106. 46. 65. 72. 28. 42. 48.
      18. 29. 33. 14. 25. 29. 21. 33. 39. 35. 52. 61. 63. 85. 97. 108.
      134. 150. 128. 155. 175. 137. 161. 183. 152. 176. 200. 155. 181.
      205. 152. 180. 204. 147. 178. 201. 136. 167. 190. 112. 143. 164.
      87. 119. 138. 59. 91. 110. 54. 90. 106. 68. 111. 126. 88. 140.
      153. 106. 168. 179. 113. 185. 195. 121. 203. 214. 116. 210. 216.
      110. 215. 218. 104. 217. 214. 97. 213. 208. 93. 213. 202. 91. 213.
      197. 89. 210. 189. 89. 207. 182. 88. 202. 172. 86. 195. 157. 86.
      189. 144. 84. 181. 131. 90. 177. 121. 94. 172. 108. 103. 170. 101.
      103. 161. 90. 111. 157. 84. 106. 144. 68. 109. 139. 66. 102. 122.
      63. 75. 86. 40. 56. 58. 28. 46. 42. 23. 42. 36. 23. 40. 33. 24.
      39. 33. 26. 41. 35. 30. 47. 38. 35. 52. 40. 40. 54. 41. 43. 52.
      41. 44. 48. 38. 44. 45. 37. 44. 43. 33. 45. 49. 39. 55. 59. 48.
      68. 63. 55. 78. 65. 58. 85. 61. 56. 85. 53. 51. 81. 46. 46. 76.
      41. 43. 73. 39. 43. 68. 35. 39. 63. 32. 38. 57. 31. 36. 51. 27.
      33. 46. 20. 26. 37. 15. 20. 29. 11. 18. 21. 11. 16. 17. 14. 18.
      19. 20. 22. 22. 35. 36. 34. 65. 65. 59. 98. 96. 88. 113. 112. 102.
      147. 188. 210. 147. 189. 208. 150. 191. 213. 151. 192. 214. 144.
      183. 205. 133. 170. 192. 122. 161. 183. 113. 155. 174. 104. 147.
      166. 98. 138. 156. 87. 118. 133. 52. 74. 86. 29. 41. 51. 14. 22.
      29. 6. 15. 18. 8. 18. 18. 16. 27. 31. 29. 42. 50. 47. 63. 76. 75.
      95. 113. 81. 104. 126. 82. 105. 127. 76. 97. 119. 60. 80. 98. 63.
      80. 99. 72. 90. 107. 77. 97. 114. 86. 106. 124. 82. 104. 122. 71.
      93. 111. 61. 83. 101. 46. 66. 83. 39. 58. 71. 46. 65. 78. 58. 84.
      98. 76. 105. 120. 92. 121. 136. 94. 123. 137. 83. 110. 120. 58.
      80. 86. 32. 46. 52. 18. 30. 32. 11. 20. 23. 13. 24. 28. 24. 39.
      48. 46. 65. 78. 85. 111. 128. 105. 132. 153. 119. 144. 170. 129.
      153. 181. 129. 156. 183. 126. 156. 181. 125. 155. 180. 114. 145.
      168. 94. 125. 146. 73. 105. 124. 58. 91. 107. 57. 94. 108. 74.
      119. 130. 94. 147. 157. 109. 172. 180. 114. 187. 195. 121. 202.
      209. 116. 208. 213. 107. 209. 208. 102. 212. 206. 96. 211. 202.
      94. 213. 198. 95. 216. 196. 96. 216. 191. 99. 215. 186. 99. 211.
      177. 97. 204. 165. 95. 197. 150. 92. 187. 136. 95. 180. 122. 96.
      171. 109. 103. 167. 101. 102. 156. 87. 108. 152. 81. 104. 141. 67.
      107. 135. 66. 98. 117. 62. 72. 82. 40. 55. 57. 28. 45. 43. 25. 42.
      36. 25. 37. 31. 24. 34. 28. 23. 35. 28. 25. 40. 30. 30. 45. 32.
      34. 48. 34. 40. 48. 36. 42. 45. 35. 41. 42. 34. 41. 39. 29. 41.
      44. 33. 49. 48. 38. 55. 52. 40. 62. 51. 41. 64. 46. 39. 66. 41.
      36. 65. 36. 34. 63. 37. 38. 66. 36. 39. 67. 36. 40. 65. 35. 40.
      61. 36. 40. 59. 32. 37. 52. 26. 29. 43. 19. 24. 33. 14. 19. 22.
      12. 16. 17. 16. 17. 21. 21. 20. 24. 30. 27. 29. 47. 42. 43. 66.
      61. 60. 75. 70. 67. 159. 199. 218. 155. 195. 213. 155. 195. 214.
      147. 187. 206. 134. 171. 191. 123. 160. 180. 115. 155. 174. 110.
      152. 171. 106. 148. 167. 108. 147. 162. 95. 126. 141. 45. 69. 81.
      13. 28. 37. 4. 14. 21. 3. 12. 15. 3. 13. 13. 12. 23. 27. 24. 37.
      45. 44. 60. 73. 70. 90. 108. 75. 96. 118. 69. 92. 114. 62. 83.
      105. 48. 68. 86. 61. 78. 97. 80. 98. 115. 91. 111. 129. 100. 119.
      140. 97. 118. 139. 92. 113. 134. 82. 101. 122. 60. 80. 98. 47. 65.
      82. 47. 65. 82. 55. 80. 96. 72. 100. 117. 93. 121. 138. 99. 128.
      143. 93. 119. 131. 71. 92. 100. 38. 54. 61. 23. 34. 38. 14. 23.
      27. 15. 25. 32. 22. 34. 44. 40. 57. 70. 74. 99. 115. 96. 123. 144.
      107. 131. 159. 110. 136. 166. 110. 136. 166. 111. 138. 165. 111.
      138. 164. 101. 130. 151. 86. 116. 135. 71. 102. 117. 58. 92. 105.
      61. 100. 109. 79. 125. 132. 96. 151. 156. 108. 172. 177. 110. 182.
      189. 114. 194. 201. 108. 197. 201. 102. 201. 199. 101. 205. 198.
      97. 206. 197. 99. 212. 198. 102. 218. 199. 104. 221. 196. 111.
      222. 194. 112. 219. 186. 111. 214. 176. 106. 205. 159. 101. 194.
      143. 100. 183. 128. 99. 171. 111. 100. 164. 99. 96. 149. 82. 101.
      145. 76. 100. 136. 66. 100. 127. 63. 89. 108. 57. 65. 76. 38. 51.
      54. 29. 42. 42. 26. 38. 34. 23. 31. 28. 20. 28. 24. 19. 31. 24.
      21. 34. 24. 24. 40. 27. 29. 43. 29. 35. 44. 32. 38. 43. 33. 39.
      43. 32. 40. 38. 28. 40. 40. 29. 45. 41. 31. 48. 41. 30. 50. 37.
      28. 49. 34. 26. 49. 33. 27. 52. 32. 29. 55. 30. 29. 55. 31. 35.
      60. 35. 39. 64. 36. 40. 64. 37. 40. 61. 34. 38. 57. 29. 31. 49.
      22. 25. 39. 17. 20. 28. 14. 17. 22. 15. 14. 23. 22. 19. 28. 30.
      26. 31. 41. 36. 38. 52. 46. 47. 57. 52. 51. 172. 208. 226. 165.
      204. 219. 159. 195. 213. 139. 177. 195. 123. 161. 179. 114. 152.
      170. 111. 151. 170. 116. 156. 174. 128. 168. 186. 138. 174. 190.
      125. 156. 171. 91. 115. 127. 29. 46. 55. 2. 14. 20. 0. 4. 7. 0. 7.
      10. 10. 19. 23. 27. 38. 46. 55. 71. 84. 82. 102. 120. 84. 105.
      127. 73. 96. 118. 65. 86. 107. 55. 74. 95. 67. 84. 103. 85. 102.
      121. 99. 118. 139. 108. 126. 149. 108. 129. 151. 106. 127. 149.
      98. 116. 139. 79. 98. 119. 64. 81. 100. 57. 74. 93. 57. 81. 101.
      70. 97. 117. 87. 114. 135. 93. 120. 140. 87. 112. 128. 67. 86. 99.
      35. 50. 59. 20. 32. 38. 11. 19. 26. 12. 20. 27. 12. 24. 34. 27.
      43. 56. 60. 80. 97. 84. 109. 129. 95. 119. 147. 97. 123. 153. 96.
      122. 152. 99. 123. 151. 100. 126. 150. 93. 120. 141. 83. 111. 128.
      70. 102. 115. 62. 97. 107. 67. 107. 112. 81. 128. 132. 94. 149.
      152. 105. 168. 172. 107. 178. 181. 111. 188. 191. 105. 190. 192.
      101. 195. 191. 100. 201. 193. 100. 205. 194. 104. 214. 196. 108.
      222. 199. 113. 226. 198. 117. 228. 196. 119. 225. 188. 120. 222.
      181. 114. 212. 166. 107. 199. 148. 103. 185. 132. 101. 170. 113.
      99. 159. 99. 93. 142. 80. 95. 137. 72. 93. 127. 62. 91. 116. 58.
      81. 99. 52. 57. 68. 35. 46. 49. 27. 38. 37. 23. 32. 30. 20. 27.
      24. 16. 27. 23. 18. 27. 22. 19. 31. 21. 21. 36. 23. 25. 40. 26.
      30. 44. 30. 36. 44. 32. 38. 42. 31. 39. 36. 26. 38. 36. 26. 39.
      35. 25. 41. 33. 23. 40. 32. 21. 41. 28. 21. 42. 28. 22. 45. 29.
      25. 50. 31. 30. 56. 34. 35. 61. 40. 41. 67. 40. 44. 69. 43. 44.
      70. 41. 43. 67. 36. 36. 60. 31. 30. 50. 25. 25. 37. 21. 20. 30.
      21. 17. 29. 25. 19. 30. 33. 25. 35. 39. 33. 38. 46. 39. 42. 49.
      43. 44. 177. 211. 227. 170. 207. 221. 156. 190. 206. 132. 168.
      184. 114. 153. 168. 105. 144. 159. 116. 154. 172. 141. 180. 195.
      160. 196. 212. 175. 210. 224. 158. 190. 203. 125. 152. 162. 46.
      68. 74. 1. 16. 19. 0. 6. 9. 0. 1. 4. 5. 14. 18. 31. 42. 50. 72.
      88. 101. 103. 120. 139. 102. 123. 144. 87. 110. 132. 79. 100. 121.
      72. 91. 112. 78. 95. 116. 89. 106. 127. 101. 119. 142. 110. 130.
      155. 115. 135. 160. 114. 134. 159. 108. 125. 151. 95. 113. 136.
      83. 99. 122. 71. 89. 112. 66. 88. 113. 71. 97. 121. 80. 106. 130.
      81. 108. 129. 74. 98. 116. 55. 74. 89. 33. 47. 59. 20. 31. 39. 12.
      20. 27. 9. 19. 26. 11. 21. 31. 26. 40. 52. 56. 75. 90. 84. 106.
      124. 92. 117. 143. 96. 123. 150. 97. 121. 149. 96. 121. 147. 99.
      123. 147. 97. 122. 142. 91. 117. 134. 79. 108. 122. 68. 101. 110.
      67. 107. 112. 75. 123. 125. 84. 140. 141. 96. 160. 160. 102. 172.
      171. 106. 183. 180. 102. 186. 182. 101. 192. 183. 102. 200. 186.
      103. 207. 190. 109. 217. 195. 114. 224. 198. 117. 230. 197. 121.
      231. 195. 123. 229. 188. 124. 227. 182. 120. 216. 169. 112. 201.
      151. 107. 187. 134. 102. 169. 114. 96. 154. 96. 90. 135. 78. 91.
      129. 71. 85. 117. 58. 80. 106. 53. 70. 88. 47. 51. 61. 31. 42. 44.
      25. 33. 32. 22. 27. 25. 17. 23. 20. 15. 23. 20. 15. 24. 19. 16.
      29. 19. 19. 34. 21. 23. 37. 23. 27. 41. 27. 33. 42. 30. 36. 41.
      30. 38. 36. 27. 37. 34. 24. 37. 32. 21. 37. 30. 20. 37. 29. 18.
      38. 28. 19. 40. 29. 21. 44. 28. 24. 49. 31. 28. 54. 35. 34. 60.
      39. 40. 68. 44. 44. 74. 49. 47. 77. 48. 46. 76. 41. 39. 69. 34.
      31. 56. 31. 28. 44. 29. 24. 39. 27. 21. 38. 31. 23. 40. 38. 29.
      42. 40. 31. 41. 38. 31. 36. 37. 30. 33. 173. 208. 221. 167. 202.
      215. 147. 182. 195. 128. 163. 176. 109. 148. 162. 103. 142. 156.
      132. 171. 185. 174. 211. 225. 186. 220. 236. 194. 227. 242. 190.
      222. 233. 179. 208. 217. 106. 130. 136. 8. 25. 28. 0. 3. 6. 0. 3.
      7. 5. 11. 16. 35. 46. 54. 85. 101. 114. 116. 134. 151. 113. 134.
      155. 97. 118. 140. 91. 110. 131. 85. 104. 125. 87. 104. 125. 90.
      108. 131. 100. 120. 145. 113. 132. 159. 120. 139. 166. 119. 138.
      165. 114. 131. 158. 106. 123. 149. 97. 112. 138. 85. 102. 128. 79.
      100. 127. 79. 102. 128. 79. 104. 130. 76. 102. 126. 68. 92. 112.
      48. 68. 85. 28. 44. 57. 17. 29. 39. 9. 18. 27. 8. 17. 26. 9. 20.
      28. 24. 39. 48. 50. 66. 79. 75. 95. 112. 84. 108. 130. 89. 115.
      139. 89. 115. 139. 91. 115. 139. 95. 119. 141. 97. 121. 141. 91.
      117. 134. 80. 109. 124. 69. 101. 112. 65. 103. 108. 63. 111. 113.
      71. 125. 125. 87. 147. 146. 94. 164. 158. 102. 176. 170. 98. 181.
      172. 100. 190. 177. 102. 201. 183. 105. 209. 186. 112. 219. 192.
      116. 227. 195. 118. 231. 193. 123. 233. 191. 125. 230. 185. 128.
      230. 182. 122. 217. 167. 114. 202. 149. 108. 186. 133. 101. 166.
      111. 95. 150. 95. 87. 129. 74. 89. 123. 69. 80. 110. 57. 71. 94.
      49. 61. 77. 43. 45. 53. 30. 35. 38. 23. 28. 26. 18. 21. 21. 15.
      20. 20. 14. 22. 19. 14. 24. 20. 15. 28. 20. 20. 32. 21. 23. 38.
      24. 28. 41. 27. 33. 41. 29. 35. 40. 29. 37. 39. 28. 38. 34. 24.
      36. 31. 21. 34. 30. 19. 35. 29. 18. 38. 28. 19. 40. 31. 23. 46.
      33. 27. 52. 36. 31. 60. 42. 37. 68. 48. 45. 77. 53. 52. 84. 61.
      57. 92. 61. 57. 92. 53. 49. 84. 45. 40. 71. 36. 30. 53. 34. 28.
      47. 34. 24. 47. 42. 30. 52. 48. 36. 54. 44. 34. 47. 37. 28. 38.
      34. 27. 32. 165. 200. 210. 160. 195. 205. 140. 175. 185. 122. 158.
      168. 105. 145. 157. 110. 152. 164. 154. 194. 206. 186. 224. 236.
      197. 230. 245. 209. 241. 254. 207. 239. 250. 195. 224. 231. 143.
      169. 175. 23. 42. 45. 0. 4. 7. 0. 2. 6. 9. 15. 20. 39. 50. 58. 90.
      106. 119. 118. 136. 153. 116. 135. 156. 99. 120. 141. 94. 113.
      134. 89. 108. 129. 88. 107. 128. 92. 110. 133. 101. 121. 146. 112.
      131. 158. 120. 138. 167. 122. 140. 169. 119. 135. 164. 114. 128.
      156. 104. 121. 148. 95. 114. 141. 92. 113. 140. 90. 112. 140. 87.
      111. 139. 84. 107. 133. 74. 97. 119. 54. 74. 92. 34. 49. 65. 24.
      36. 48. 15. 24. 33. 12. 21. 30. 11. 22. 30. 23. 35. 45. 36. 51.
      60. 52. 69. 82. 63. 89. 103. 70. 96. 112. 73. 98. 118. 79. 104.
      124. 88. 112. 134. 91. 115. 137. 85. 110. 130. 75. 101. 118. 64.
      93. 107. 55. 91. 99. 52. 94. 99. 57. 109. 109. 77. 136. 132. 89.
      156. 149. 97. 173. 162. 99. 181. 168. 98. 193. 173. 101. 203. 178.
      107. 213. 184. 113. 223. 189. 115. 228. 190. 118. 231. 187. 123.
      233. 185. 123. 230. 181. 126. 227. 175. 121. 215. 161. 112. 197.
      145. 107. 182. 130. 100. 162. 110. 94. 146. 93. 87. 125. 75. 89.
      119. 70. 81. 107. 61. 68. 87. 48. 55. 67. 37. 38. 44. 25. 31. 32.
      22. 23. 20. 15. 17. 16. 12. 18. 17. 13. 20. 20. 14. 24. 21. 16.
      30. 22. 22. 35. 24. 26. 39. 25. 29. 41. 27. 33. 40. 28. 34. 38.
      27. 35. 35. 24. 34. 32. 22. 34. 31. 21. 34. 32. 21. 37. 31. 20.
      40. 30. 20. 43. 33. 24. 50. 36. 28. 58. 39. 32. 65. 46. 40. 75.
      53. 49. 85. 60. 55. 94. 67. 61. 102. 68. 62. 103. 60. 54. 95. 52.
      45. 82. 49. 40. 67. 43. 33. 56. 42. 28. 56. 52. 38. 66. 58. 44.
      68. 47. 35. 53. 35. 23. 35. 32. 21. 29. 150. 186. 192. 148. 184.
      190. 130. 166. 172. 114. 152. 157. 103. 145. 152. 125. 168. 177.
      175. 216. 225. 190. 228. 240. 210. 244. 255. 217. 249. 255. 211.
      244. 253. 201. 233. 239. 171. 197. 203. 44. 63. 66. 0. 4. 9. 0. 3.
      7. 11. 19. 26. 40. 53. 61. 92. 108. 121. 116. 135. 150. 113. 133.
      151. 97. 119. 137. 94. 113. 134. 89. 108. 129. 88. 107. 128. 93.
      111. 134. 101. 121. 146. 110. 128. 157. 117. 135. 166. 123. 141.
      172. 123. 137. 166. 116. 130. 159. 110. 127. 154. 103. 122. 149.
      101. 122. 150. 99. 121. 149. 98. 120. 148. 93. 116. 142. 83. 105.
      130. 63. 82. 103. 37. 52. 68. 27. 41. 53. 21. 31. 41. 19. 30. 38.
      19. 30. 38. 28. 41. 49. 30. 45. 54. 37. 56. 64. 43. 65. 76. 48.
      74. 86. 54. 80. 96. 66. 92. 109. 78. 105. 125. 81. 108. 129. 74.
      101. 121. 62. 89. 109. 50. 76. 92. 40. 72. 85. 36. 75. 83. 44. 92.
      94. 67. 124. 123. 82. 149. 142. 95. 168. 160. 98. 180. 167. 100.
      195. 175. 103. 206. 179. 108. 214. 185. 113. 223. 187. 115. 227.
      187. 117. 229. 182. 121. 230. 181. 123. 228. 177. 123. 223. 171.
      117. 209. 156. 110. 192. 140. 106. 178. 126. 99. 158. 108. 95.
      141. 94. 88. 124. 77. 91. 118. 74. 81. 105. 63. 65. 82. 48. 50.
      60. 37. 36. 39. 24. 29. 27. 19. 19. 16. 12. 13. 12. 8. 15. 14. 10.
      19. 19. 13. 24. 21. 16. 30. 22. 22. 35. 24. 26. 36. 25. 28. 37.
      25. 31. 37. 25. 31. 35. 25. 31. 30. 22. 29. 32. 23. 33. 35. 25.
      38. 38. 27. 43. 37. 25. 47. 36. 25. 51. 40. 28. 58. 41. 32. 65.
      47. 38. 78. 53. 45. 86. 59. 52. 95. 65. 58. 101. 70. 63. 108. 73.
      66. 111. 66. 59. 104. 59. 51. 92. 54. 43. 75. 47. 35. 65. 48. 33.
      65. 63. 48. 80. 71. 56. 84. 53. 40. 62. 35. 22. 36. 30. 19. 29.
      137. 172. 176. 132. 167. 171. 121. 156. 160. 113. 150. 154. 110.
      150. 155. 133. 175. 180. 182. 224. 231. 195. 234. 243. 211. 246.
      255. 216. 248. 255. 215. 248. 255. 213. 245. 251. 185. 214. 219.
      62. 83. 85. 2. 8. 13. 1. 4. 8. 14. 24. 31. 42. 58. 65. 84. 102.
      113. 108. 127. 142. 100. 120. 137. 92. 112. 129. 89. 106. 125. 94.
      111. 130. 93. 110. 129. 96. 115. 136. 102. 121. 148. 109. 130.
      158. 118. 136. 167. 121. 139. 170. 121. 135. 164. 117. 131. 160.
      111. 128. 155. 108. 127. 154. 105. 126. 153. 102. 125. 151. 102.
      125. 151. 95. 119. 143. 84. 107. 129. 62. 82. 100. 42. 58. 74. 35.
      49. 61. 27. 37. 47. 28. 39. 47. 27. 38. 46. 30. 43. 51. 29. 45.
      52. 31. 49. 56. 33. 54. 62. 35. 61. 68. 46. 72. 84. 59. 88. 103.
      65. 95. 112. 68. 98. 117. 64. 93. 114. 51. 78. 98. 35. 60. 80. 30.
      59. 74. 26. 60. 73. 29. 71. 78. 48. 101. 104. 67. 130. 128. 85.
      159. 155. 95. 178. 169. 100. 194. 177. 106. 208. 183. 107. 212.
      185. 109. 219. 185. 111. 223. 183. 112. 220. 177. 116. 222. 175.
      119. 220. 169. 120. 215. 164. 115. 202. 152. 112. 188. 140. 108.
      174. 125. 99. 153. 106. 96. 137. 92. 88. 118. 75. 88. 112. 72. 78.
      99. 61. 60. 75. 43. 45. 52. 31. 32. 34. 22. 25. 22. 17. 14. 10. 9.
      11. 10. 6. 11. 10. 6. 17. 17. 11. 22. 19. 14. 27. 22. 21. 31. 23.
      24. 33. 24. 27. 33. 24. 27. 32. 22. 28. 29. 22. 27. 29. 21. 28.
      31. 23. 33. 36. 27. 40. 38. 28. 45. 42. 29. 53. 44. 32. 62. 48.
      34. 70. 51. 40. 80. 55. 44. 90. 63. 53. 100. 67. 59. 106. 71. 62.
      112. 75. 66. 116. 77. 68. 118. 71. 62. 112. 67. 58. 101. 61. 49.
      85. 53. 39. 73. 54. 36. 75. 75. 58. 95. 87. 70. 103. 54. 40. 64.
      28. 17. 33. 25. 15. 27. 123. 157. 157. 121. 155. 155. 115. 149.
      149. 117. 152. 155. 119. 158. 160. 142. 183. 186. 188. 228. 233.
      200. 239. 247. 215. 251. 255. 214. 247. 255. 215. 248. 255. 212.
      244. 250. 184. 213. 218. 65. 85. 90. 6. 15. 19. 0. 4. 9. 13. 25.
      31. 38. 56. 63. 72. 90. 101. 94. 113. 126. 90. 111. 126. 83. 104.
      119. 82. 100. 117. 87. 105. 122. 96. 114. 131. 101. 120. 141. 107.
      127. 152. 112. 133. 161. 119. 137. 166. 119. 137. 166. 118. 134.
      163. 114. 131. 158. 110. 127. 154. 105. 125. 150. 103. 122. 149.
      101. 123. 148. 101. 123. 148. 95. 118. 140. 86. 107. 128. 64. 84.
      101. 42. 58. 74. 35. 51. 63. 31. 43. 53. 34. 47. 55. 34. 47. 55.
      35. 51. 58. 33. 48. 57. 34. 51. 60. 37. 56. 64. 40. 62. 73. 48.
      74. 86. 58. 87. 102. 58. 91. 107. 57. 90. 109. 52. 83. 104. 38.
      67. 88. 27. 51. 73. 23. 48. 68. 19. 49. 66. 23. 62. 76. 44. 95.
      105. 62. 124. 130. 83. 154. 157. 94. 175. 172. 101. 193. 182. 109.
      208. 190. 108. 212. 189. 110. 215. 188. 111. 216. 183. 108. 214.
      175. 115. 215. 173. 116. 211. 166. 116. 206. 160. 113. 194. 147.
      110. 183. 137. 107. 171. 125. 100. 151. 107. 95. 135. 93. 86. 116.
      75. 85. 109. 69. 71. 92. 54. 57. 72. 41. 44. 50. 31. 30. 32. 20.
      23. 20. 15. 13. 9. 8. 10. 9. 5. 8. 7. 3. 14. 14. 8. 20. 17. 12.
      25. 20. 17. 30. 22. 22. 30. 22. 23. 28. 21. 24. 28. 21. 26. 26.
      20. 25. 27. 20. 27. 31. 23. 33. 37. 28. 41. 41. 30. 50. 47. 34.
      60. 52. 39. 71. 56. 42. 83. 62. 49. 93. 63. 53. 100. 68. 59. 109.
      72. 63. 114. 74. 65. 116. 77. 68. 119. 75. 66. 117. 68. 59. 109.
      64. 54. 100. 58. 44. 85. 54. 39. 77. 58. 39. 82. 80. 62. 103. 89.
      72. 106. 52. 37. 64. 24. 13. 29. 20. 10. 22. 91. 122. 121. 93.
      124. 123. 95. 126. 125. 109. 140. 141. 115. 151. 151. 140. 178.
      180. 182. 220. 224. 195. 233. 238. 212. 249. 255. 214. 250. 255.
      217. 250. 255. 198. 230. 236. 161. 187. 193. 59. 79. 84. 17. 28.
      32. 2. 13. 17. 25. 41. 47. 49. 68. 75. 66. 87. 95. 77. 99. 111.
      74. 96. 108. 69. 91. 103. 76. 95. 110. 89. 105. 121. 99. 115. 132.
      105. 122. 141. 113. 131. 154. 116. 135. 162. 116. 137. 165. 117.
      135. 164. 116. 133. 160. 113. 130. 156. 109. 126. 152. 101. 122.
      144. 98. 118. 143. 97. 118. 140. 95. 116. 138. 86. 107. 128. 75.
      95. 113. 56. 75. 90. 39. 56. 69. 35. 51. 63. 32. 49. 58. 39. 54.
      63. 41. 56. 65. 40. 57. 66. 38. 54. 66. 38. 56. 67. 38. 57. 70.
      48. 69. 84. 58. 84. 100. 64. 97. 113. 62. 98. 116. 57. 94. 114.
      48. 83. 103. 33. 64. 85. 24. 51. 72. 18. 45. 66. 16. 45. 66. 24.
      61. 81. 47. 95. 113. 65. 124. 140. 83. 154. 168. 97. 176. 185.
      108. 194. 194. 117. 210. 203. 115. 211. 200. 112. 211. 193. 107.
      205. 181. 102. 200. 170. 106. 200. 165. 106. 195. 156. 109. 193.
      151. 106. 185. 142. 106. 177. 134. 105. 168. 124. 100. 150. 108.
      96. 136. 95. 86. 118. 77. 83. 109. 69. 66. 89. 51. 54. 71. 38. 41.
      50. 29. 29. 31. 19. 21. 18. 13. 13. 10. 6. 10. 9. 5. 8. 7. 3. 10.
      10. 4. 17. 14. 9. 23. 18. 15. 25. 20. 19. 25. 19. 20. 24. 17. 20.
      20. 17. 19. 20. 17. 19. 23. 17. 22. 28. 21. 28. 34. 27. 40. 39.
      30. 50. 48. 37. 63. 55. 44. 76. 59. 50. 90. 68. 58. 104. 68. 59.
      109. 71. 64. 115. 74. 66. 119. 75. 67. 120. 76. 69. 120. 71. 64.
      115. 65. 56. 106. 62. 52. 98. 58. 44. 86. 56. 40. 81. 62. 42. 87.
      86. 66. 111. 92. 74. 111. 50. 35. 63. 19. 9. 25. 14. 6. 16. 62.
      86. 84. 67. 91. 89. 73. 97. 95. 94. 120. 120. 105. 136. 135. 133.
      167. 167. 179. 214. 217. 196. 234. 238. 209. 247. 252. 207. 244.
      252. 213. 249. 255. 198. 230. 236. 143. 169. 175. 48. 68. 73. 17.
      31. 37. 15. 30. 33. 35. 54. 59. 64. 86. 92. 74. 97. 105. 78. 100.
      111. 71. 93. 105. 66. 85. 98. 75. 92. 105. 86. 103. 116. 99. 115.
      131. 107. 125. 142. 116. 134. 157. 119. 139. 164. 118. 139. 166.
      117. 138. 165. 117. 134. 160. 113. 131. 154. 104. 125. 147. 97.
      118. 140. 93. 114. 136. 89. 110. 131. 83. 104. 125. 71. 91. 109.
      57. 76. 91. 41. 60. 73. 33. 51. 62. 30. 48. 59. 30. 48. 59. 36.
      54. 65. 42. 60. 71. 44. 61. 74. 45. 62. 75. 45. 64. 79. 49. 69.
      86. 62. 84. 102. 74. 101. 121. 79. 112. 132. 75. 112. 134. 68.
      107. 129. 58. 95. 117. 42. 76. 100. 26. 56. 81. 19. 48. 75. 17.
      47. 74. 26. 63. 89. 49. 96. 123. 64. 124. 148. 83. 153. 177. 100.
      177. 196. 115. 197. 208. 125. 212. 216. 122. 212. 212. 114. 207.
      198. 105. 198. 183. 96. 190. 166. 96. 186. 157. 93. 180. 146. 95.
      178. 139. 93. 172. 131. 95. 167. 124. 95. 162. 117. 92. 149. 104.
      90. 139. 93. 83. 122. 77. 81. 114. 70. 65. 92. 52. 50. 72. 37. 36.
      49. 25. 21. 28. 13. 17. 18. 9. 8. 7. 3. 8. 7. 3. 6. 6. 0. 8. 8. 2.
      13. 13. 7. 20. 17. 13. 22. 17. 16. 21. 15. 16. 19. 14. 16. 16. 13.
      15. 14. 13. 15. 19. 15. 20. 26. 19. 26. 32. 25. 38. 38. 30. 47.
      46. 37. 63. 55. 47. 78. 60. 53. 90. 69. 62. 105. 67. 61. 108. 69.
      65. 114. 71. 66. 117. 73. 68. 119. 73. 69. 118. 69. 63. 112. 64.
      56. 103. 62. 52. 98. 60. 46. 88. 57. 40. 83. 63. 43. 90. 90. 70.
      117. 96. 77. 116. 46. 32. 60. 15. 5. 21. 11. 4. 11. 39. 56. 53.
      42. 59. 56. 43. 62. 59. 60. 81. 79. 75. 99. 99. 105. 133. 134.
      161. 192. 195. 185. 222. 226. 192. 232. 237. 192. 232. 237. 195.
      231. 237. 175. 207. 213. 109. 135. 141. 39. 61. 66. 21. 40. 45.
      28. 47. 50. 58. 80. 85. 84. 110. 116. 86. 112. 119. 79. 105. 112.
      69. 91. 102. 63. 83. 94. 70. 86. 98. 79. 95. 107. 97. 113. 126.
      106. 122. 138. 114. 133. 154. 118. 139. 161. 119. 142. 164. 118.
      141. 163. 117. 136. 157. 111. 130. 151. 101. 122. 143. 92. 113.
      134. 89. 108. 129. 81. 101. 119. 73. 93. 110. 58. 77. 92. 43. 62.
      77. 33. 50. 63. 27. 45. 56. 24. 42. 53. 26. 44. 55. 32. 51. 64.
      42. 61. 76. 46. 67. 82. 51. 71. 88. 53. 75. 93. 63. 86. 108. 76.
      100. 124. 81. 112. 135. 85. 119. 143. 81. 118. 144. 75. 114. 142.
      66. 105. 133. 54. 90. 120. 38. 69. 100. 29. 60. 93. 26. 59. 92.
      35. 73. 107. 54. 102. 136. 67. 125. 160. 86. 154. 189. 103. 179.
      208. 121. 200. 221. 131. 215. 227. 126. 214. 221. 117. 207. 208.
      105. 196. 187. 94. 186. 169. 90. 181. 156. 85. 174. 141. 82. 169.
      131. 80. 164. 122. 81. 162. 117. 84. 160. 112. 83. 152. 101. 85.
      147. 95. 78. 134. 81. 80. 128. 76. 69. 106. 60. 50. 79. 40. 32.
      51. 24. 19. 31. 13. 13. 19. 8. 6. 8. 2. 5. 7. 1. 5. 7. 1. 6. 8. 2.
      11. 11. 5. 17. 14. 10. 18. 14. 13. 18. 13. 14. 15. 13. 13. 11. 10.
      12. 10. 9. 11. 16. 12. 17. 22. 15. 22. 28. 22. 33. 32. 26. 43. 40.
      35. 56. 48. 43. 70. 53. 50. 82. 61. 58. 97. 60. 60. 100. 63. 62.
      106. 66. 64. 110. 68. 66. 112. 69. 66. 112. 66. 61. 106. 61. 54.
      99. 61. 52. 95. 58. 46. 88. 55. 40. 84. 60. 41. 90. 91. 73. 120.
      96. 78. 117. 44. 30. 58. 12. 3. 16. 7. 3. 8. 23. 31. 30. 21. 32.
      30. 19. 32. 30. 28. 42. 40. 41. 59. 58. 73. 94. 95. 135. 165. 166.
      168. 203. 206. 187. 228. 231. 192. 232. 237. 179. 217. 222. 139.
      173. 179. 73. 99. 105. 39. 63. 69. 43. 65. 70. 54. 79. 81. 89.
      116. 120. 105. 134. 138. 96. 124. 131. 80. 108. 115. 68. 94. 101.
      64. 85. 93. 68. 85. 94. 77. 92. 101. 92. 108. 120. 101. 117. 133.
      109. 129. 147. 115. 136. 157. 116. 139. 161. 116. 140. 160. 112.
      134. 152. 105. 127. 145. 98. 120. 138. 88. 110. 128. 83. 103. 121.
      71. 91. 108. 64. 83. 98. 49. 68. 81. 37. 54. 67. 31. 48. 61. 28.
      46. 57. 26. 44. 55. 30. 49. 62. 38. 59. 74. 52. 72. 89. 56. 78.
      96. 65. 86. 107. 68. 91. 113. 71. 97. 121. 81. 108. 135. 86. 116.
      143. 87. 121. 150. 85. 123. 155. 80. 118. 152. 72. 110. 144. 62.
      98. 134. 50. 83. 122. 40. 76. 114. 38. 75. 113. 43. 86. 125. 60.
      111. 151. 70. 131. 171. 88. 157. 197. 108. 182. 218. 125. 202.
      229. 133. 214. 235. 129. 214. 229. 121. 209. 216. 108. 199. 196.
      96. 188. 175. 91. 182. 161. 84. 174. 144. 81. 172. 133. 78. 169.
      124. 76. 168. 117. 79. 167. 113. 77. 161. 102. 82. 159. 98. 78.
      149. 86. 82. 142. 82. 74. 120. 68. 54. 88. 47. 34. 58. 26. 19. 36.
      15. 13. 23. 11. 6. 10. 4. 5. 9. 3. 7. 9. 3. 8. 11. 2. 10. 13. 4.
      15. 12. 8. 16. 13. 9. 17. 12. 13. 14. 12. 12. 10. 9. 11. 8. 7. 9.
      15. 11. 16. 20. 13. 20. 25. 19. 30. 28. 23. 38. 36. 32. 51. 42.
      39. 64. 44. 45. 73. 50. 52. 83. 51. 55. 90. 54. 57. 95. 57. 59.
      99. 59. 61. 102. 62. 61. 103. 59. 57. 99. 58. 51. 94. 58. 49. 92.
      59. 47. 89. 58. 43. 87. 64. 45. 96. 93. 74. 123. 96. 78. 117. 41.
      28. 54. 8. 2. 13. 4. 0. 5. 14. 17. 15. 12. 17. 15. 9. 18. 15. 11.
      22. 20. 27. 39. 39. 54. 72. 73. 123. 148. 150. 157. 190. 193. 172.
      213. 216. 168. 211. 214. 153. 191. 196. 118. 152. 158. 67. 93. 99.
      48. 72. 78. 59. 86. 90. 80. 109. 113. 103. 132. 136. 110. 141.
      144. 101. 130. 137. 89. 117. 124. 76. 102. 109. 69. 91. 97. 66.
      84. 91. 74. 90. 97. 87. 102. 111. 96. 112. 125. 104. 124. 141.
      109. 131. 149. 111. 135. 155. 112. 136. 156. 109. 132. 148. 102.
      125. 141. 92. 114. 132. 82. 104. 122. 78. 98. 116. 67. 87. 104.
      63. 82. 97. 52. 69. 82. 41. 57. 70. 36. 52. 64. 29. 47. 58. 28.
      47. 60. 36. 57. 72. 46. 69. 85. 61. 82. 103. 65. 88. 110. 72. 94.
      119. 72. 98. 122. 74. 104. 129. 83. 113. 140. 85. 119. 149. 88.
      123. 156. 88. 126. 161. 82. 121. 160. 73. 111. 153. 65. 100. 143.
      55. 90. 134. 48. 85. 129. 44. 86. 129. 50. 95. 139. 62. 115. 158.
      70. 132. 173. 87. 156. 199. 105. 180. 219. 121. 198. 230. 131.
      211. 236. 128. 212. 230. 123. 212. 223. 116. 208. 209. 105. 198.
      189. 99. 194. 173. 92. 189. 157. 87. 184. 144. 83. 182. 134. 79.
      180. 124. 78. 179. 117. 76. 173. 106. 77. 171. 100. 71. 160. 86.
      77. 152. 84. 75. 130. 73. 60. 99. 54. 38. 68. 33. 22. 44. 20. 16.
      29. 15. 9. 17. 7. 7. 14. 7. 7. 11. 5. 11. 14. 5. 12. 15. 6. 16.
      13. 9. 16. 13. 9. 13. 11. 11. 10. 10. 10. 6. 8. 8. 5. 7. 8. 15.
      11. 16. 19. 12. 19. 23. 17. 28. 25. 23. 35. 31. 30. 46. 36. 37.
      57. 36. 40. 64. 42. 46. 74. 40. 45. 76. 43. 50. 83. 46. 52. 87.
      51. 54. 92. 55. 55. 95. 56. 55. 95. 56. 50. 91. 57. 49. 90. 60.
      48. 90. 65. 50. 94. 71. 52. 103. 94. 75. 124. 89. 74. 112. 34. 23.
      49. 7. 1. 12. 3. 0. 2. 3. 3. 3. 2. 5. 3. 1. 6. 4. 0. 5. 4. 13. 21.
      20. 34. 48. 47. 101. 121. 122. 131. 161. 162. 147. 185. 187. 143.
      181. 185. 127. 163. 169. 101. 135. 141. 73. 103. 108. 72. 101.
      106. 90. 121. 124. 109. 140. 143. 115. 146. 149. 115. 144. 148.
      105. 134. 139. 91. 117. 123. 76. 98. 104. 65. 85. 90. 60. 76. 82.
      70. 86. 92. 77. 93. 100. 85. 104. 112. 96. 115. 130. 99. 122. 138.
      101. 126. 142. 103. 128. 144. 100. 123. 138. 94. 117. 132. 86.
      109. 125. 78. 101. 117. 74. 97. 113. 68. 88. 105. 66. 86. 103. 59.
      78. 93. 47. 66. 79. 43. 62. 75. 42. 64. 76. 42. 65. 80. 54. 79.
      95. 67. 92. 112. 82. 106. 130. 83. 108. 134. 87. 111. 139. 85.
      113. 143. 80. 112. 141. 84. 117. 150. 84. 119. 153. 85. 121. 159.
      86. 121. 164. 80. 116. 162. 73. 109. 155. 65. 101. 149. 57. 94.
      144. 51. 91. 140. 49. 92. 141. 51. 100. 148. 64. 118. 165. 70.
      132. 178. 88. 155. 200. 106. 178. 220. 115. 191. 227. 126. 204.
      233. 126. 209. 231. 127. 215. 229. 125. 216. 220. 116. 211. 204.
      114. 208. 191. 106. 203. 176. 99. 200. 162. 93. 198. 149. 88. 195.
      138. 85. 193. 127. 79. 185. 114. 79. 182. 107. 69. 170. 92. 74.
      161. 87. 78. 140. 80. 65. 112. 63. 48. 83. 43. 30. 55. 27. 24. 40.
      22. 18. 28. 15. 16. 24. 14. 14. 19. 10. 14. 17. 8. 16. 17. 8. 16.
      16. 10. 14. 13. 9. 12. 10. 9. 8. 8. 8. 5. 7. 7. 4. 6. 7. 10. 6.
      11. 12. 8. 14. 15. 12. 21. 18. 17. 27. 24. 24. 36. 28. 31. 46. 28.
      32. 50. 31. 38. 58. 30. 37. 62. 36. 43. 70. 41. 46. 77. 45. 50.
      83. 51. 53. 88. 54. 53. 92. 55. 51. 92. 56. 50. 91. 58. 48. 90.
      68. 55. 99. 73. 56. 107. 89. 73. 121. 82. 68. 104. 29. 19. 42. 6.
      1. 10. 3. 0. 2. 2. 1. 3. 4. 4. 4. 1. 3. 3. 0. 2. 2. 6. 12. 11. 21.
      32. 30. 64. 80. 79. 121. 142. 143. 139. 168. 172. 136. 169. 172.
      126. 161. 165. 108. 145. 149. 98. 133. 137. 101. 136. 140. 112.
      147. 150. 117. 151. 151. 119. 148. 152. 114. 141. 145. 106. 131.
      135. 88. 110. 115. 68. 87. 92. 55. 72. 75. 57. 72. 75. 56. 72. 78.
      63. 82. 87. 72. 91. 98. 82. 103. 111. 88. 110. 121. 95. 117. 129.
      98. 120. 132. 95. 117. 129. 89. 111. 123. 82. 103. 118. 74. 97.
      112. 69. 91. 109. 68. 92. 112. 69. 93. 113. 66. 92. 109. 61. 87.
      103. 57. 84. 98. 55. 84. 98. 63. 92. 107. 75. 104. 125. 88. 115.
      141. 94. 122. 152. 97. 125. 159. 98. 126. 160. 92. 122. 157. 86.
      120. 156. 86. 119. 158. 87. 121. 164. 86. 119. 165. 86. 119. 168.
      78. 113. 163. 73. 108. 158. 65. 102. 152. 54. 93. 145. 48. 90.
      143. 44. 91. 143. 50. 100. 153. 59. 113. 166. 72. 131. 181. 87.
      151. 199. 98. 167. 210. 112. 185. 223. 120. 197. 230. 123. 204.
      231. 129. 213. 231. 126. 216. 223. 126. 220. 216. 127. 219. 206.
      122. 218. 194. 118. 218. 183. 109. 214. 171. 100. 211. 157. 92.
      203. 141. 84. 195. 127. 77. 185. 112. 67. 173. 96. 73. 166. 91.
      75. 146. 83. 70. 125. 70. 60. 99. 54. 39. 67. 31. 32. 51. 24. 25.
      37. 17. 23. 33. 17. 15. 22. 9. 18. 22. 10. 19. 20. 10. 18. 19. 9.
      16. 17. 8. 13. 12. 8. 8. 9. 7. 6. 6. 6. 5. 4. 6. 5. 4. 6. 4. 3. 5.
      7. 6. 10. 12. 12. 18. 17. 19. 27. 21. 23. 33. 25. 29. 40. 27. 33.
      46. 28. 35. 52. 34. 41. 61. 40. 45. 70. 47. 51. 80. 51. 53. 87.
      53. 54. 92. 54. 52. 94. 53. 49. 91. 57. 51. 92. 67. 57. 103. 71.
      58. 110. 86. 72. 120. 71. 59. 89. 24. 14. 30. 9. 1. 11. 4. 0. 3.
      3. 2. 4. 4. 3. 5. 4. 4. 4. 1. 3. 3. 3. 8. 6. 9. 18. 15. 36. 48.
      48. 76. 94. 95. 125. 148. 150. 125. 152. 156. 123. 155. 160. 122.
      157. 161. 120. 155. 159. 120. 155. 158. 120. 156. 156. 119. 153.
      153. 120. 149. 153. 108. 133. 135. 93. 116. 118. 75. 94. 97. 55.
      72. 75. 47. 62. 65. 50. 65. 68. 54. 71. 74. 60. 79. 82. 69. 89.
      94. 78. 100. 105. 85. 107. 113. 87. 110. 118. 88. 110. 121. 88.
      107. 120. 82. 104. 116. 79. 101. 113. 75. 99. 111. 74. 98. 116.
      78. 103. 123. 82. 107. 127. 81. 108. 128. 76. 107. 122. 74. 105.
      120. 75. 108. 123. 82. 114. 133. 94. 125. 148. 103. 133. 162. 105.
      135. 170. 106. 135. 174. 102. 133. 172. 96. 128. 169. 93. 125.
      168. 90. 123. 168. 90. 122. 171. 86. 117. 170. 84. 115. 170. 75.
      109. 163. 69. 103. 157. 59. 96. 152. 51. 90. 145. 46. 89. 146. 45.
      91. 149. 48. 98. 156. 57. 110. 167. 67. 124. 179. 82. 143. 193.
      92. 158. 206. 103. 172. 215. 113. 186. 224. 119. 196. 228. 126.
      209. 231. 126. 214. 228. 131. 220. 224. 134. 224. 218. 132. 226.
      209. 130. 230. 202. 124. 227. 189. 115. 224. 176. 104. 215. 159.
      93. 205. 141. 82. 194. 124. 72. 179. 106. 75. 169. 98. 75. 150.
      88. 75. 131. 78. 69. 110. 65. 50. 81. 44. 43. 63. 34. 33. 46. 24.
      29. 39. 22. 20. 30. 14. 22. 26. 14. 22. 24. 12. 20. 21. 11. 18.
      19. 9. 14. 16. 10. 12. 13. 9. 11. 9. 9. 9. 7. 7. 7. 7. 7. 5. 5. 5.
      4. 6. 6. 7. 9. 10. 9. 12. 16. 12. 16. 21. 16. 22. 29. 19. 26. 35.
      24. 30. 43. 30. 37. 54. 37. 44. 64. 45. 49. 77. 52. 55. 86. 56.
      58. 93. 56. 55. 97. 51. 50. 92. 59. 55. 97. 71. 64. 109. 73. 60.
      114. 84. 70. 118. 63. 52. 78. 19. 10. 23. 7. 0. 7. 4. 0. 3. 2. 1.
      3. 1. 0. 2. 2. 2. 2. 2. 2. 2. 0. 2. 0. 0. 3. 0. 3. 13. 13. 23. 36.
      38. 46. 65. 68. 72. 95. 97. 97. 124. 128. 110. 139. 143. 118. 149.
      152. 126. 157. 160. 126. 157. 158. 120. 151. 150. 108. 136. 137.
      88. 113. 115. 71. 94. 96. 55. 75. 76. 43. 61. 62. 41. 59. 60. 45.
      63. 64. 56. 74. 75. 57. 77. 78. 67. 88. 90. 78. 100. 105. 83. 107.
      113. 86. 109. 117. 89. 112. 120. 88. 110. 121. 86. 108. 119. 82.
      104. 115. 83. 108. 118. 86. 111. 127. 92. 118. 135. 97. 123. 140.
      97. 125. 142. 94. 125. 140. 91. 124. 139. 94. 127. 142. 100. 132.
      151. 109. 139. 166. 117. 145. 179. 118. 147. 186. 117. 144. 188.
      111. 140. 185. 103. 133. 180. 97. 127. 174. 92. 123. 174. 89. 119.
      174. 84. 113. 170. 81. 111. 170. 72. 103. 164. 68. 99. 160. 58.
      94. 154. 52. 89. 151. 49. 90. 153. 50. 94. 158. 52. 100. 164. 57.
      108. 171. 64. 119. 180. 76. 135. 191. 86. 148. 202. 94. 160. 209.
      103. 174. 218. 110. 185. 223. 120. 200. 229. 124. 207. 228. 131.
      218. 228. 138. 226. 226. 139. 231. 220. 139. 234. 214. 133. 233.
      203. 126. 232. 193. 115. 224. 175. 104. 214. 156. 94. 201. 138.
      81. 184. 117. 81. 173. 108. 79. 152. 96. 80. 136. 87. 76. 118. 77.
      61. 91. 56. 53. 72. 45. 38. 54. 31. 34. 46. 28. 26. 36. 20. 25.
      29. 17. 23. 27. 15. 22. 24. 12. 20. 21. 11. 16. 19. 10. 11. 15. 9.
      10. 11. 9. 8. 9. 7. 7. 8. 6. 6. 7. 5. 4. 7. 5. 5. 7. 7. 4. 8. 9.
      5. 10. 13. 7. 13. 18. 9. 17. 24. 14. 20. 31. 20. 27. 42. 27. 34.
      53. 37. 43. 66. 47. 51. 80. 55. 57. 91. 55. 57. 97. 52. 51. 93.
      63. 61. 103. 77. 71. 118. 80. 67. 123. 79. 67. 115. 51. 42. 68.
      11. 5. 16. 6. 0. 6. 5. 0. 4. 3. 2. 4. 0. 0. 0. 2. 2. 2. 3. 3. 3.
      0. 3. 1. 0. 1. 0. 0. 2. 1. 0. 9. 9. 13. 28. 30. 25. 44. 47. 51.
      73. 78. 80. 105. 109. 105. 130. 134. 114. 142. 143. 111. 139. 139.
      109. 137. 137. 97. 123. 123. 74. 98. 98. 54. 75. 76. 41. 61. 62.
      35. 53. 54. 38. 56. 55. 44. 62. 63. 56. 77. 75. 72. 92. 93. 79.
      103. 103. 89. 112. 114. 93. 118. 122. 95. 119. 125. 96. 119. 127.
      95. 118. 126. 91. 117. 124. 90. 116. 123. 91. 119. 126. 98. 124.
      138. 103. 129. 145. 105. 134. 149. 103. 134. 149. 100. 134. 147.
      98. 132. 145. 104. 137. 153. 108. 139. 160. 116. 146. 175. 123.
      150. 187. 123. 149. 195. 122. 147. 197. 115. 142. 193. 109. 135.
      189. 98. 126. 180. 91. 121. 176. 87. 115. 176. 80. 107. 171. 78.
      106. 171. 70. 99. 166. 67. 96. 163. 60. 94. 160. 56. 91. 159. 54.
      93. 162. 55. 97. 168. 56. 101. 174. 60. 109. 179. 65. 118. 185.
      76. 130. 195. 81. 141. 201. 87. 150. 208. 97. 163. 214. 101. 174.
      218. 111. 189. 226. 117. 198. 225. 129. 211. 229. 136. 221. 229.
      140. 229. 226. 137. 229. 218. 136. 231. 210. 132. 232. 202. 123.
      227. 186. 113. 218. 169. 103. 205. 150. 88. 188. 130. 87. 176.
      120. 86. 157. 107. 85. 139. 96. 81. 122. 85. 64. 95. 64. 55. 75.
      52. 42. 57. 36. 36. 49. 33. 30. 41. 25. 27. 34. 21. 26. 30. 18.
      21. 25. 13. 18. 22. 10. 14. 20. 9. 11. 16. 7. 10. 11. 7. 7. 8. 4.
      6. 7. 3. 5. 9. 4. 6. 9. 7. 6. 11. 9. 6. 12. 11. 6. 11. 12. 4. 11.
      14. 3. 12. 16. 4. 13. 22. 13. 22. 32. 19. 28. 42. 29. 36. 56. 42.
      46. 74. 51. 56. 87. 58. 62. 97. 56. 58. 98. 67. 66. 110. 84. 79.
      130. 86. 74. 132. 79. 67. 117. 44. 35. 61. 8. 2. 13. 4. 0. 6. 5.
      0. 4. 0. 2. 2. 0. 0. 0. 0. 1. 1. 0. 2. 0. 2. 3. 1. 1. 4. 2. 0. 2.
      1. 0. 3. 3. 0. 3. 6. 1. 14. 16. 13. 30. 33. 30. 49. 52. 62. 83.
      85. 92. 113. 114. 97. 118. 119. 92. 116. 114. 76. 100. 98. 58. 82.
      80. 45. 67. 65. 45. 66. 64. 53. 71. 70. 71. 90. 87. 86. 104. 103.
      104. 125. 122. 115. 136. 134. 118. 142. 140. 124. 148. 148. 123.
      148. 150. 121. 148. 152. 120. 146. 152. 119. 145. 151. 117. 143.
      149. 117. 143. 149. 117. 146. 151. 120. 148. 159. 123. 152. 166.
      123. 155. 168. 121. 155. 168. 118. 152. 165. 114. 149. 162. 115.
      149. 165. 116. 148. 171. 122. 151. 182. 127. 152. 194. 127. 152.
      202. 125. 148. 204. 116. 140. 200. 109. 132. 194. 99. 124. 186.
      93. 118. 180. 85. 111. 178. 78. 103. 173. 75. 100. 174. 68. 95.
      169. 67. 94. 168. 61. 92. 167. 61. 93. 169. 60. 96. 174. 60. 99.
      178. 61. 104. 183. 64. 110. 188. 69. 119. 195. 77. 128. 201. 79.
      136. 205. 85. 146. 210. 91. 154. 214. 94. 162. 215. 104. 176. 223.
      111. 186. 224. 123. 202. 229. 133. 213. 230. 138. 222. 228. 139.
      226. 223. 137. 229. 216. 135. 233. 211. 127. 227. 197. 121. 220.
      182. 112. 209. 165. 98. 192. 145. 93. 179. 131. 94. 162. 121. 89.
      143. 106. 82. 123. 92. 68. 97. 72. 61. 82. 60. 46. 62. 45. 40. 56.
      39. 33. 46. 32. 31. 41. 25. 29. 36. 21. 23. 30. 15. 19. 26. 13.
      16. 22. 11. 10. 18. 8. 8. 12. 6. 5. 9. 3. 4. 8. 2. 5. 9. 3. 8. 12.
      7. 10. 15. 13. 11. 18. 15. 11. 17. 16. 6. 14. 13. 2. 12. 12. 0.
      11. 15. 9. 18. 27. 15. 24. 37. 25. 33. 50. 35. 43. 66. 47. 53. 82.
      56. 61. 92. 57. 60. 98. 70. 70. 116. 91. 87. 139. 93. 83. 143. 81.
      70. 120. 37. 31. 56. 5. 1. 12. 3. 0. 4. 2. 0. 1. 9. 14. 13. 6. 11.
      10. 3. 8. 6. 0. 3. 1. 1. 2. 0. 3. 4. 2. 0. 1. 1. 0. 1. 0. 0. 3. 4.
      0. 3. 6. 1. 13. 15. 12. 25. 27. 32. 47. 49. 49. 67. 66. 63. 81.
      80. 80. 101. 99. 72. 94. 92. 69. 91. 89. 65. 86. 84. 79. 100. 97.
      97. 116. 113. 121. 141. 136. 141. 160. 157. 159. 181. 176. 162.
      185. 181. 162. 187. 183. 162. 186. 184. 157. 183. 183. 151. 179.
      180. 149. 176. 180. 147. 174. 178. 144. 173. 178. 142. 171. 175.
      142. 172. 177. 141. 172. 181. 140. 172. 183. 137. 171. 184. 134.
      170. 180. 129. 165. 175. 125. 160. 173. 123. 157. 173. 122. 154.
      177. 124. 152. 186. 127. 152. 196. 125. 149. 203. 123. 144. 206.
      114. 136. 202. 106. 127. 195. 98. 122. 188. 91. 114. 182. 83. 107.
      179. 77. 100. 176. 75. 98. 176. 68. 93. 173. 70. 95. 175. 66. 96.
      175. 67. 97. 180. 66. 100. 184. 66. 103. 188. 66. 107. 192. 69.
      113. 197. 74. 122. 204. 82. 131. 211. 84. 136. 212. 89. 145. 216.
      91. 151. 217. 91. 154. 215. 99. 167. 220. 106. 177. 221. 117. 191.
      227. 127. 202. 228. 131. 209. 225. 137. 218. 225. 136. 223. 219.
      134. 226. 213. 128. 223. 202. 125. 218. 189. 117. 211. 176. 105.
      196. 157. 102. 183. 144. 99. 167. 132. 94. 146. 116. 87. 126. 100.
      75. 104. 81. 68. 90. 72. 53. 71. 54. 47. 62. 48. 39. 52. 38. 38.
      48. 32. 35. 42. 27. 28. 35. 20. 20. 29. 16. 16. 24. 13. 12. 20.
      10. 9. 13. 7. 6. 10. 4. 5. 9. 3. 6. 10. 4. 6. 12. 7. 9. 15. 10.
      12. 19. 16. 10. 19. 16. 9. 17. 16. 4. 15. 13. 0. 12. 14. 9. 19.
      26. 15. 25. 35. 23. 34. 48. 32. 41. 61. 41. 48. 73. 48. 56. 85.
      50. 56. 91. 71. 73. 121. 96. 93. 149. 101. 90. 152. 83. 74. 125.
      33. 29. 54. 2. 1. 11. 0. 0. 3. 2. 0. 1. 39. 46. 43. 34. 41. 38.
      24. 29. 27. 11. 14. 12. 6. 7. 5. 5. 6. 4. 1. 1. 1. 2. 2. 2. 0. 1.
      2. 0. 2. 3. 0. 8. 8. 1. 11. 11. 16. 28. 28. 36. 50. 48. 50. 64.
      62. 64. 83. 80. 67. 88. 85. 79. 102. 98. 85. 106. 103. 110. 132.
      127. 131. 151. 146. 157. 178. 170. 177. 199. 194. 193. 216. 208.
      201. 224. 219. 199. 225. 219. 197. 222. 218. 188. 215. 212. 179.
      207. 207. 174. 202. 203. 168. 197. 201. 167. 196. 200. 166. 195.
      199. 166. 196. 201. 163. 194. 203. 158. 190. 201. 153. 188. 198.
      146. 182. 192. 139. 175. 185. 130. 169. 178. 125. 161. 177. 123.
      157. 181. 125. 153. 188. 125. 149. 195. 121. 143. 201. 118. 137.
      204. 111. 130. 203. 104. 123. 196. 95. 117. 188. 89. 111. 183. 84.
      104. 181. 76. 97. 178. 74. 96. 178. 69. 93. 177. 72. 96. 180. 70.
      98. 182. 69. 99. 186. 69. 103. 192. 72. 107. 197. 71. 110. 202.
      75. 117. 206. 80. 127. 213. 87. 134. 218. 89. 140. 220. 90. 144.
      221. 91. 150. 220. 89. 150. 216. 95. 161. 220. 100. 169. 219. 109.
      181. 221. 119. 192. 224. 123. 199. 221. 130. 209. 222. 129. 214.
      216. 128. 218. 212. 123. 216. 201. 124. 215. 192. 122. 212. 183.
      112. 199. 166. 108. 187. 154. 103. 170. 139. 95. 148. 121. 90.
      129. 107. 80. 108. 89. 75. 97. 79. 60. 79. 64. 51. 69. 52. 42. 58.
      41. 41. 52. 36. 37. 47. 31. 30. 39. 26. 23. 32. 19. 18. 26. 15.
      13. 21. 11. 10. 14. 8. 7. 11. 6. 6. 10. 4. 7. 11. 5. 6. 12. 7. 8.
      14. 9. 10. 17. 14. 10. 19. 16. 10. 19. 16. 7. 18. 16. 6. 18. 20.
      13. 24. 28. 18. 29. 37. 26. 37. 51. 33. 43. 61. 37. 48. 70. 44.
      53. 80. 46. 52. 87. 72. 73. 123. 97. 95. 154. 105. 96. 159. 84.
      76. 129. 30. 27. 53. 1. 0. 10. 0. 0. 3. 0. 0. 0. 64. 73. 70. 56.
      65. 62. 41. 46. 44. 18. 23. 21. 10. 11. 9. 5. 6. 4. 2. 0. 0. 2. 2.
      2. 2. 1. 3. 0. 0. 1. 0. 3. 4. 0. 7. 7. 13. 21. 20. 26. 39. 37. 41.
      54. 52. 64. 81. 78. 65. 86. 83. 85. 108. 104. 94. 116. 111. 122.
      144. 139. 144. 165. 157. 170. 191. 183. 192. 215. 207. 207. 230.
      222. 207. 231. 223. 207. 234. 225. 207. 232. 228. 201. 228. 224.
      192. 220. 220. 186. 214. 214. 181. 210. 214. 179. 208. 212. 176.
      207. 210. 175. 207. 212. 173. 204. 213. 165. 200. 210. 160. 195.
      205. 151. 187. 197. 140. 179. 187. 133. 172. 181. 129. 165. 181.
      127. 161. 185. 128. 156. 191. 126. 149. 197. 120. 141. 202. 116.
      135. 203. 110. 129. 204. 105. 124. 199. 95. 116. 191. 89. 110.
      185. 84. 104. 182. 76. 97. 179. 74. 94. 179. 68. 91. 177. 71. 94.
      180. 69. 96. 182. 71. 101. 190. 71. 105. 195. 75. 109. 202. 74.
      112. 206. 77. 118. 210. 82. 128. 216. 90. 137. 223. 91. 141. 223.
      88. 141. 221. 89. 146. 221. 88. 147. 216. 95. 158. 219. 97. 165.
      218. 106. 177. 221. 117. 188. 222. 121. 195. 221. 127. 205. 221.
      127. 211. 217. 128. 215. 211. 123. 213. 200. 123. 213. 194. 124.
      212. 188. 115. 201. 171. 111. 189. 158. 105. 171. 142. 97. 150.
      123. 92. 131. 110. 81. 111. 92. 79. 100. 85. 63. 82. 67. 54. 72.
      55. 46. 62. 45. 41. 54. 38. 38. 49. 33. 32. 41. 28. 25. 34. 21.
      18. 27. 17. 13. 22. 12. 11. 15. 10. 9. 13. 8. 7. 11. 5. 8. 12. 6.
      7. 13. 8. 8. 14. 9. 10. 17. 14. 10. 19. 16. 11. 20. 17. 9. 20. 18.
      9. 21. 21. 12. 24. 28. 17. 28. 36. 24. 36. 48. 29. 41. 59. 33. 44.
      66. 40. 49. 76. 43. 49. 84. 69. 72. 123. 98. 96. 156. 107. 99.
      164. 86. 78. 131. 29. 26. 52. 0. 0. 8. 0. 0. 3. 1. 1. 1.</_>
    <_>
      18. 28. 22. 24. 34. 28. 46. 56. 50. 38. 48. 42. 19. 24. 22. 15.
      20. 18. 22. 27. 26. 16. 22. 21. 15. 21. 20. 36. 47. 45. 71. 82.
      79. 46. 60. 56. 28. 42. 38. 20. 34. 30. 40. 49. 46. 57. 69. 63.
      55. 69. 63. 47. 66. 57. 43. 60. 56. 50. 70. 65. 47. 68. 66. 48.
      69. 67. 49. 70. 68. 50. 71. 69. 44. 65. 62. 32. 53. 50. 21. 41.
      36. 26. 46. 41. 41. 63. 58. 60. 82. 77. 63. 86. 81. 71. 94. 89.
      72. 99. 90. 71. 98. 89. 55. 84. 75. 43. 72. 63. 42. 73. 64. 43.
      74. 65. 43. 77. 67. 51. 85. 75. 59. 93. 83. 71. 105. 95. 89. 123.
      113. 101. 135. 125. 103. 134. 127. 75. 106. 99. 58. 86. 80. 40.
      68. 62. 43. 74. 67. 69. 97. 91. 96. 123. 114. 107. 136. 127. 115.
      149. 138. 96. 130. 119. 47. 69. 57. 8. 22. 11. 11. 17. 6. 18. 24.
      13. 51. 68. 55. 78. 101. 87. 73. 99. 85. 63. 94. 79. 76. 106. 93.
      84. 116. 105. 105. 132. 123. 118. 146. 140. 127. 158. 151. 131.
      164. 157. 113. 146. 139. 103. 134. 125. 104. 131. 122. 88. 113.
      103. 72. 100. 87. 62. 92. 79. 58. 94. 78. 77. 114. 98. 107. 146.
      131. 91. 127. 113. 35. 69. 58. 25. 59. 48. 65. 104. 89. 125. 166.
      151. 132. 170. 158. 115. 153. 141. 134. 169. 159. 133. 168. 158.
      131. 165. 158. 133. 167. 160. 130. 166. 160. 130. 166. 160. 132.
      166. 160. 132. 166. 160. 132. 166. 159. 132. 166. 159. 133. 166.
      159. 132. 166. 159. 132. 166. 160. 130. 166. 160. 130. 166. 160.
      130. 166. 160. 130. 166. 160. 130. 166. 160. 130. 166. 160. 130.
      166. 160. 130. 166. 160. 130. 166. 160. 130. 166. 160. 130. 166.
      160. 130. 166. 160. 131. 167. 161. 130. 166. 160. 129. 165. 159.
      130. 166. 160. 130. 166. 160. 130. 166. 160. 130. 166. 160. 130.
      166. 160. 131. 167. 161. 130. 166. 160. 129. 165. 159. 12. 22. 16.
      16. 26. 20. 40. 50. 44. 34. 44. 38. 20. 27. 24. 17. 24. 21. 18.
      24. 23. 13. 19. 18. 6. 14. 13. 26. 34. 33. 54. 65. 62. 51. 65. 61.
      35. 46. 43. 26. 37. 34. 37. 46. 43. 58. 70. 64. 74. 88. 82. 59.
      75. 68. 51. 68. 64. 48. 68. 63. 59. 78. 75. 50. 71. 69. 59. 77.
      76. 60. 79. 76. 53. 72. 69. 33. 53. 48. 24. 44. 39. 41. 61. 56.
      58. 78. 73. 52. 74. 69. 48. 70. 65. 53. 76. 71. 57. 81. 73. 46.
      73. 64. 38. 65. 56. 31. 60. 51. 31. 60. 51. 40. 71. 62. 58. 89.
      80. 66. 100. 90. 68. 102. 92. 65. 98. 91. 68. 101. 94. 86. 117.
      110. 92. 122. 117. 67. 94. 90. 48. 75. 71. 49. 76. 72. 73. 100.
      96. 84. 112. 106. 94. 117. 112. 103. 130. 121. 118. 152. 142. 109.
      143. 132. 63. 87. 75. 21. 37. 26. 3. 11. 0. 15. 25. 13. 29. 46.
      33. 70. 95. 81. 78. 107. 92. 79. 110. 95. 100. 133. 118. 125. 158.
      144. 132. 163. 154. 134. 165. 158. 148. 182. 175. 134. 171. 163.
      134. 168. 161. 146. 180. 173. 119. 148. 139. 77. 107. 96. 53. 83.
      72. 60. 93. 79. 93. 129. 115. 132. 171. 155. 148. 189. 174. 141.
      180. 165. 69. 105. 93. 44. 80. 68. 84. 125. 110. 162. 204. 187.
      157. 198. 183. 155. 196. 181. 167. 207. 195. 164. 204. 192. 168.
      208. 197. 158. 200. 189. 162. 203. 195. 162. 203. 195. 164. 203.
      195. 164. 203. 195. 164. 204. 193. 164. 204. 193. 164. 204. 193.
      164. 204. 193. 164. 203. 195. 162. 203. 195. 162. 203. 195. 162.
      203. 195. 162. 203. 195. 162. 203. 195. 162. 203. 195. 162. 203.
      195. 161. 202. 194. 161. 202. 194. 162. 203. 195. 161. 202. 194.
      161. 202. 194. 161. 202. 194. 162. 203. 195. 162. 203. 195. 161.
      202. 194. 161. 202. 194. 162. 203. 195. 161. 202. 194. 161. 202.
      194. 161. 202. 194. 162. 203. 195. 162. 203. 195. 10. 23. 15. 12.
      25. 17. 33. 45. 39. 35. 47. 41. 26. 36. 30. 20. 30. 24. 16. 25.
      22. 14. 23. 20. 10. 19. 16. 14. 23. 20. 25. 34. 31. 30. 41. 38.
      24. 33. 30. 19. 28. 25. 25. 35. 29. 41. 53. 47. 56. 70. 64. 53.
      69. 62. 61. 76. 72. 63. 80. 76. 73. 90. 87. 57. 76. 73. 67. 84.
      81. 75. 92. 89. 70. 87. 84. 46. 63. 59. 38. 55. 51. 61. 79. 72.
      76. 94. 87. 51. 72. 64. 40. 61. 53. 40. 61. 53. 50. 74. 66. 50.
      77. 68. 51. 78. 69. 42. 71. 62. 36. 64. 58. 43. 74. 67. 62. 93.
      86. 75. 106. 99. 70. 101. 94. 63. 93. 88. 59. 89. 84. 64. 91. 87.
      65. 92. 89. 59. 83. 81. 54. 78. 76. 67. 89. 87. 83. 105. 103. 72.
      95. 91. 78. 101. 97. 92. 118. 112. 91. 125. 115. 86. 120. 109. 64.
      92. 79. 23. 43. 31. 8. 22. 10. 3. 17. 5. 25. 46. 31. 79. 106. 90.
      126. 158. 141. 129. 163. 146. 131. 167. 150. 160. 195. 181. 160.
      197. 187. 149. 188. 180. 126. 167. 160. 141. 183. 176. 154. 195.
      188. 156. 197. 189. 105. 139. 132. 48. 83. 73. 35. 70. 60. 68.
      106. 94. 111. 152. 137. 147. 190. 175. 146. 191. 175. 151. 194.
      179. 107. 147. 135. 61. 102. 87. 82. 126. 109. 139. 185. 166. 144.
      190. 171. 134. 183. 163. 131. 181. 163. 129. 179. 161. 128. 180.
      163. 129. 183. 166. 127. 180. 166. 127. 180. 166. 129. 180. 166.
      129. 180. 166. 129. 181. 164. 129. 181. 164. 129. 181. 164. 129.
      181. 164. 131. 180. 164. 131. 180. 164. 131. 180. 164. 131. 180.
      164. 131. 180. 164. 131. 180. 164. 131. 180. 164. 131. 180. 164.
      131. 180. 164. 132. 181. 165. 132. 181. 165. 132. 181. 165. 131.
      180. 164. 131. 180. 164. 132. 181. 165. 132. 181. 165. 131. 180.
      164. 132. 181. 165. 132. 181. 165. 132. 181. 165. 131. 180. 164.
      131. 180. 164. 132. 181. 165. 132. 181. 165. 10. 23. 15. 16. 29.
      21. 29. 41. 35. 44. 56. 50. 34. 46. 40. 22. 34. 28. 15. 26. 23.
      15. 26. 23. 16. 25. 22. 12. 21. 18. 13. 22. 19. 13. 22. 19. 14.
      23. 20. 10. 20. 14. 12. 22. 16. 14. 26. 20. 16. 28. 22. 21. 35.
      29. 26. 40. 36. 40. 55. 51. 48. 62. 60. 42. 59. 56. 45. 62. 59.
      56. 73. 69. 57. 72. 68. 40. 56. 49. 34. 50. 43. 58. 74. 67. 70.
      86. 79. 51. 67. 60. 45. 61. 54. 39. 60. 52. 51. 74. 66. 78. 105.
      96. 91. 118. 109. 79. 108. 99. 68. 96. 90. 64. 95. 88. 72. 103.
      96. 84. 115. 108. 76. 106. 101. 62. 92. 87. 57. 84. 81. 44. 71.
      68. 43. 67. 67. 57. 81. 81. 66. 87. 88. 64. 85. 86. 46. 64. 65.
      40. 58. 57. 38. 59. 57. 54. 79. 75. 59. 90. 83. 47. 81. 71. 38.
      68. 57. 31. 55. 43. 9. 29. 16. 4. 22. 9. 20. 43. 28. 83. 112. 96.
      150. 184. 167. 147. 183. 166. 148. 184. 167. 156. 193. 177. 156.
      193. 183. 155. 196. 188. 131. 173. 166. 148. 190. 183. 163. 205.
      198. 152. 193. 186. 82. 118. 112. 38. 72. 65. 49. 83. 76. 88. 125.
      115. 127. 167. 155. 143. 186. 171. 150. 194. 181. 163. 206. 193.
      137. 177. 165. 64. 103. 88. 43. 85. 67. 54. 101. 79. 88. 137. 115.
      94. 148. 125. 89. 145. 124. 90. 147. 126. 86. 145. 125. 86. 147.
      127. 85. 145. 127. 85. 145. 127. 87. 145. 127. 87. 145. 127. 87.
      146. 126. 85. 146. 126. 85. 146. 126. 85. 146. 126. 87. 146. 126.
      87. 146. 126. 87. 146. 126. 87. 146. 126. 87. 146. 126. 87. 146.
      126. 87. 146. 126. 87. 146. 126. 87. 146. 126. 87. 146. 126. 87.
      146. 126. 87. 146. 126. 86. 145. 125. 86. 145. 125. 86. 145. 125.
      86. 145. 125. 87. 146. 126. 87. 146. 126. 87. 146. 126. 87. 146.
      126. 86. 145. 125. 86. 145. 125. 86. 145. 125. 86. 145. 125. 8.
      21. 13. 24. 37. 29. 35. 50. 42. 58. 73. 65. 47. 61. 55. 33. 47.
      41. 26. 40. 34. 19. 33. 27. 12. 24. 18. 13. 23. 17. 17. 24. 19.
      16. 23. 18. 17. 27. 21. 13. 23. 17. 10. 22. 16. 8. 20. 14. 6. 18.
      12. 10. 24. 20. 6. 19. 17. 14. 28. 26. 12. 27. 23. 12. 27. 23. 9.
      24. 20. 17. 33. 26. 26. 40. 34. 22. 37. 29. 22. 37. 29. 42. 57.
      49. 45. 60. 52. 37. 52. 44. 40. 54. 48. 41. 59. 52. 47. 71. 63.
      71. 100. 91. 84. 113. 104. 74. 105. 96. 71. 102. 95. 75. 108. 101.
      88. 121. 114. 104. 137. 130. 99. 129. 124. 75. 104. 101. 62. 88.
      88. 47. 73. 73. 59. 82. 84. 74. 97. 99. 77. 98. 100. 63. 82. 85.
      46. 61. 63. 31. 47. 46. 27. 45. 44. 47. 70. 66. 54. 82. 76. 46.
      77. 68. 44. 76. 65. 47. 75. 62. 35. 60. 46. 24. 47. 33. 23. 49.
      33. 63. 92. 76. 97. 133. 116. 102. 140. 122. 98. 134. 117. 100.
      136. 120. 118. 153. 143. 135. 172. 164. 145. 183. 177. 153. 193.
      188. 158. 195. 191. 123. 158. 154. 83. 116. 112. 69. 100. 97. 80.
      112. 107. 110. 143. 136. 155. 190. 180. 160. 198. 186. 168. 205.
      195. 166. 203. 193. 127. 162. 152. 53. 87. 76. 17. 55. 37. 28. 71.
      50. 59. 106. 84. 102. 156. 133. 131. 188. 167. 122. 184. 162. 112.
      175. 155. 118. 183. 162. 116. 181. 160. 116. 181. 160. 117. 180.
      160. 117. 180. 160. 116. 181. 160. 116. 181. 160. 116. 181. 160.
      114. 181. 160. 116. 181. 160. 116. 181. 160. 116. 181. 160. 116.
      181. 160. 116. 181. 160. 116. 181. 160. 116. 181. 160. 116. 181.
      160. 118. 183. 162. 117. 182. 161. 116. 181. 160. 117. 182. 161.
      118. 183. 162. 117. 182. 161. 117. 182. 161. 117. 182. 161. 118.
      183. 162. 117. 182. 161. 116. 181. 160. 117. 182. 161. 118. 183.
      162. 117. 182. 161. 117. 182. 161. 117. 182. 161. 4. 17. 9. 27.
      40. 32. 46. 61. 53. 70. 85. 77. 66. 82. 75. 52. 68. 61. 47. 63.
      56. 34. 50. 43. 12. 24. 18. 7. 17. 11. 13. 20. 15. 29. 36. 31. 39.
      49. 43. 38. 50. 44. 22. 37. 29. 16. 32. 25. 10. 24. 20. 16. 30.
      26. 15. 28. 26. 16. 30. 28. 14. 29. 25. 10. 25. 21. 7. 23. 16. 7.
      24. 15. 6. 21. 13. 10. 26. 15. 17. 31. 20. 31. 45. 34. 22. 35. 27.
      12. 27. 19. 17. 31. 25. 24. 42. 35. 25. 48. 40. 26. 53. 44. 32.
      59. 50. 33. 62. 53. 36. 64. 58. 50. 81. 74. 72. 100. 94. 84. 112.
      106. 84. 111. 107. 77. 101. 99. 64. 88. 86. 52. 73. 74. 71. 91.
      92. 79. 98. 101. 77. 94. 97. 68. 83. 86. 53. 65. 67. 43. 57. 56.
      44. 62. 61. 67. 90. 86. 88. 114. 108. 96. 125. 116. 100. 130. 119.
      100. 130. 117. 72. 98. 84. 29. 54. 40. 29. 55. 39. 46. 75. 59. 74.
      110. 93. 88. 126. 108. 82. 118. 101. 86. 119. 104. 87. 121. 111.
      104. 137. 130. 113. 146. 142. 94. 129. 125. 75. 107. 106. 69. 101.
      100. 83. 114. 113. 86. 114. 114. 92. 121. 118. 105. 135. 130. 134.
      167. 160. 153. 187. 177. 151. 185. 175. 125. 159. 149. 90. 121.
      112. 41. 73. 62. 16. 49. 34. 25. 63. 45. 70. 115. 96. 144. 195.
      175. 153. 209. 190. 148. 211. 191. 148. 212. 193. 145. 211. 192.
      145. 211. 192. 147. 211. 192. 147. 211. 192. 147. 211. 192. 147.
      211. 192. 145. 211. 192. 145. 211. 192. 143. 212. 192. 145. 211.
      192. 145. 211. 192. 145. 211. 192. 145. 211. 192. 145. 211. 192.
      145. 211. 192. 145. 211. 192. 145. 211. 192. 144. 210. 191. 143.
      209. 190. 142. 208. 189. 144. 210. 191. 144. 210. 191. 144. 210.
      191. 144. 210. 191. 145. 211. 192. 144. 210. 191. 143. 209. 190.
      142. 208. 189. 144. 210. 191. 144. 210. 191. 144. 210. 191. 144.
      210. 191. 145. 211. 192. 4. 15. 7. 13. 26. 18. 43. 58. 50. 66. 81.
      73. 76. 93. 84. 62. 81. 72. 64. 83. 74. 58. 77. 68. 22. 37. 29. 0.
      13. 5. 9. 17. 10. 41. 49. 42. 75. 86. 78. 75. 90. 82. 40. 59. 50.
      20. 38. 31. 31. 46. 42. 32. 46. 44. 30. 44. 42. 30. 47. 44. 30.
      47. 43. 26. 43. 39. 19. 37. 30. 11. 30. 21. 11. 28. 17. 12. 30.
      17. 20. 37. 24. 25. 42. 29. 15. 31. 20. 5. 21. 10. 6. 21. 13. 11.
      28. 19. 5. 26. 18. 3. 24. 16. 6. 27. 19. 11. 34. 26. 15. 38. 30.
      20. 44. 36. 26. 49. 41. 27. 49. 44. 33. 55. 50. 44. 63. 60. 41.
      58. 55. 33. 49. 48. 47. 61. 60. 52. 64. 66. 55. 64. 67. 52. 61.
      64. 53. 62. 65. 50. 62. 62. 68. 86. 85. 93. 114. 111. 112. 134.
      129. 138. 162. 154. 158. 185. 175. 161. 189. 176. 91. 117. 103.
      28. 53. 39. 13. 36. 22. 34. 59. 45. 84. 117. 102. 109. 145. 129.
      126. 157. 142. 115. 145. 132. 105. 134. 125. 87. 115. 109. 86.
      115. 112. 66. 95. 92. 46. 74. 74. 70. 98. 99. 84. 109. 111. 84.
      110. 110. 70. 97. 94. 61. 88. 84. 73. 101. 95. 103. 134. 127. 110.
      141. 132. 85. 114. 105. 67. 96. 87. 42. 69. 60. 22. 49. 39. 27.
      59. 48. 80. 120. 108. 151. 197. 184. 149. 203. 190. 143. 204. 190.
      136. 201. 186. 139. 204. 189. 139. 203. 191. 141. 203. 191. 142.
      202. 191. 142. 202. 191. 142. 202. 191. 141. 203. 191. 139. 204.
      189. 139. 204. 189. 141. 203. 189. 141. 203. 189. 141. 203. 189.
      141. 203. 189. 141. 203. 189. 141. 203. 189. 141. 203. 189. 141.
      203. 189. 142. 204. 190. 141. 203. 189. 141. 203. 189. 142. 204.
      190. 141. 203. 189. 140. 202. 188. 140. 202. 188. 143. 205. 191.
      142. 204. 190. 141. 203. 189. 141. 203. 189. 142. 204. 190. 141.
      203. 189. 140. 202. 188. 140. 202. 188. 143. 205. 191. 8. 19. 11.
      0. 11. 3. 38. 51. 43. 58. 73. 65. 81. 98. 89. 65. 84. 75. 74. 95.
      86. 80. 101. 92. 41. 58. 49. 0. 14. 6. 5. 13. 6. 34. 42. 35. 88.
      101. 93. 90. 107. 98. 51. 75. 65. 20. 43. 35. 29. 49. 44. 43. 60.
      57. 52. 69. 66. 61. 80. 77. 54. 74. 69. 48. 71. 63. 45. 66. 58.
      42. 64. 52. 41. 61. 49. 35. 55. 42. 40. 58. 45. 36. 54. 41. 30.
      47. 36. 22. 39. 28. 16. 35. 26. 11. 30. 21. 12. 30. 23. 17. 35.
      28. 13. 31. 24. 7. 28. 20. 9. 30. 22. 6. 27. 18. 0. 21. 12. 1. 22.
      13. 8. 26. 19. 12. 30. 23. 12. 27. 23. 17. 31. 27. 22. 33. 31. 24.
      35. 33. 31. 39. 39. 30. 38. 38. 39. 47. 46. 52. 65. 63. 53. 72.
      69. 53. 75. 70. 75. 96. 88. 90. 111. 102. 99. 125. 112. 129. 155.
      142. 102. 127. 113. 32. 55. 41. 8. 28. 15. 18. 41. 27. 78. 107.
      92. 147. 178. 163. 166. 195. 180. 165. 191. 178. 123. 150. 141.
      106. 132. 126. 81. 106. 102. 59. 86. 83. 70. 96. 96. 107. 132.
      134. 132. 155. 157. 95. 119. 119. 67. 91. 89. 41. 68. 64. 56. 84.
      78. 76. 105. 96. 89. 118. 109. 78. 107. 98. 77. 106. 97. 74. 101.
      92. 36. 59. 54. 25. 53. 47. 61. 98. 90. 120. 165. 156. 130. 183.
      174. 121. 181. 171. 121. 182. 172. 120. 183. 173. 121. 181. 173.
      122. 181. 173. 126. 180. 173. 126. 180. 173. 124. 181. 173. 122.
      181. 173. 122. 182. 172. 121. 182. 172. 122. 182. 172. 124. 181.
      172. 124. 181. 172. 124. 181. 172. 124. 181. 172. 124. 181. 172.
      124. 181. 172. 124. 181. 172. 123. 180. 171. 123. 180. 171. 124.
      181. 172. 124. 181. 172. 121. 178. 169. 119. 176. 167. 120. 177.
      168. 124. 181. 172. 123. 180. 171. 123. 180. 171. 124. 181. 172.
      124. 181. 172. 121. 178. 169. 119. 176. 167. 120. 177. 168. 124.
      181. 172. 27. 35. 28. 1. 12. 4. 17. 28. 18. 56. 70. 59. 77. 94.
      83. 70. 92. 80. 59. 83. 71. 75. 99. 87. 74. 94. 82. 16. 33. 22. 2.
      13. 3. 13. 24. 14. 68. 84. 73. 93. 113. 101. 68. 94. 81. 35. 62.
      52. 29. 51. 46. 43. 64. 61. 67. 88. 85. 79. 102. 98. 79. 102. 97.
      73. 97. 89. 68. 92. 84. 66. 92. 79. 71. 95. 83. 69. 94. 80. 66.
      89. 75. 67. 90. 76. 59. 81. 69. 59. 81. 69. 54. 78. 68. 42. 66.
      56. 43. 64. 56. 48. 69. 61. 37. 58. 50. 31. 52. 44. 29. 50. 41.
      18. 42. 30. 7. 31. 19. 0. 23. 11. 8. 30. 18. 8. 28. 16. 17. 34.
      23. 11. 27. 16. 14. 27. 19. 14. 27. 19. 11. 21. 15. 13. 23. 17.
      21. 32. 29. 27. 43. 36. 19. 40. 32. 19. 40. 31. 32. 51. 42. 33.
      53. 41. 34. 56. 44. 44. 69. 55. 57. 80. 66. 30. 50. 37. 11. 28.
      15. 12. 29. 16. 45. 67. 55. 99. 123. 111. 125. 149. 137. 131. 155.
      145. 114. 139. 129. 99. 126. 117. 83. 109. 103. 63. 88. 84. 81.
      105. 103. 141. 165. 165. 135. 161. 161. 85. 111. 111. 66. 93. 90.
      65. 95. 90. 76. 107. 100. 90. 121. 112. 116. 147. 138. 138. 170.
      159. 155. 187. 176. 158. 187. 178. 87. 110. 106. 25. 50. 46. 35.
      68. 64. 111. 152. 147. 138. 189. 182. 128. 185. 177. 128. 187.
      179. 125. 184. 176. 128. 184. 179. 130. 184. 179. 133. 183. 179.
      133. 183. 179. 132. 183. 179. 130. 184. 179. 130. 184. 179. 128.
      184. 179. 130. 184. 177. 130. 184. 177. 130. 184. 177. 130. 184.
      177. 130. 184. 177. 130. 184. 177. 130. 184. 177. 130. 184. 177.
      130. 184. 177. 130. 184. 177. 130. 184. 177. 130. 184. 177. 130.
      184. 177. 130. 184. 177. 130. 184. 177. 130. 184. 177. 130. 184.
      177. 130. 184. 177. 130. 184. 177. 130. 184. 177. 130. 184. 177.
      130. 184. 177. 130. 184. 177. 130. 184. 177. 41. 49. 42. 6. 17. 9.
      3. 14. 4. 44. 58. 47. 73. 90. 79. 77. 99. 87. 43. 67. 55. 58. 84.
      71. 88. 110. 98. 41. 61. 49. 0. 11. 0. 3. 17. 6. 32. 49. 38. 79.
      101. 89. 73. 101. 88. 53. 83. 72. 25. 48. 43. 39. 62. 58. 70. 93.
      89. 87. 112. 108. 88. 114. 108. 78. 106. 100. 73. 102. 93. 73.
      103. 92. 91. 119. 106. 80. 109. 94. 82. 108. 94. 84. 110. 96. 85.
      111. 98. 89. 115. 102. 88. 115. 105. 82. 109. 99. 65. 89. 81. 62.
      86. 78. 61. 85. 77. 66. 91. 81. 64. 92. 79. 54. 82. 69. 45. 74.
      59. 33. 62. 47. 36. 62. 48. 37. 63. 47. 41. 64. 50. 28. 51. 37.
      26. 44. 31. 18. 35. 24. 12. 28. 17. 16. 32. 21. 16. 33. 24. 10.
      29. 20. 7. 31. 21. 11. 35. 23. 20. 37. 26. 19. 37. 24. 15. 35. 22.
      8. 31. 17. 25. 45. 32. 18. 36. 23. 17. 31. 19. 15. 29. 17. 21. 38.
      27. 36. 56. 44. 44. 65. 56. 59. 80. 71. 63. 87. 77. 66. 90. 80.
      65. 88. 80. 68. 90. 85. 77. 98. 95. 76. 99. 95. 52. 74. 72. 42.
      66. 64. 63. 88. 84. 81. 109. 103. 106. 133. 124. 128. 155. 145.
      160. 187. 177. 181. 211. 200. 189. 219. 208. 190. 217. 208. 154.
      175. 172. 46. 68. 66. 26. 57. 54. 108. 145. 141. 170. 216. 210.
      155. 206. 199. 156. 207. 203. 157. 208. 204. 160. 207. 204. 162.
      207. 204. 164. 207. 204. 164. 207. 204. 164. 207. 204. 162. 207.
      204. 160. 207. 204. 160. 207. 204. 160. 207. 204. 160. 208. 202.
      160. 207. 204. 160. 208. 202. 160. 207. 204. 160. 208. 202. 160.
      207. 204. 160. 208. 202. 160. 207. 204. 160. 208. 202. 160. 207.
      204. 160. 208. 202. 160. 207. 204. 160. 208. 202. 160. 207. 204.
      160. 208. 202. 160. 207. 204. 160. 208. 202. 160. 207. 204. 160.
      208. 202. 160. 207. 204. 160. 208. 202. 160. 207. 204. 160. 208.
      202. 55. 66. 58. 20. 31. 23. 3. 14. 6. 15. 28. 20. 57. 73. 62. 78.
      98. 86. 43. 69. 56. 50. 76. 63. 85. 111. 98. 69. 91. 79. 7. 24.
      13. 0. 15. 4. 12. 29. 18. 67. 89. 77. 82. 110. 97. 66. 96. 85. 36.
      63. 54. 26. 52. 46. 47. 73. 67. 76. 104. 98. 86. 114. 108. 78.
      109. 102. 75. 106. 97. 85. 117. 106. 102. 132. 121. 92. 122. 109.
      96. 126. 113. 86. 116. 103. 81. 111. 100. 89. 119. 108. 98. 129.
      120. 98. 129. 120. 85. 116. 107. 72. 103. 94. 69. 103. 92. 75.
      109. 98. 82. 117. 103. 89. 124. 110. 103. 139. 123. 99. 135. 118.
      79. 113. 96. 72. 107. 87. 87. 119. 102. 83. 115. 98. 71. 98. 82.
      61. 87. 73. 55. 80. 66. 44. 69. 55. 41. 63. 51. 35. 59. 47. 35.
      61. 48. 34. 60. 46. 32. 52. 39. 26. 47. 32. 21. 44. 29. 17. 40.
      25. 13. 36. 21. 9. 30. 15. 22. 36. 24. 28. 42. 30. 24. 38. 27. 7.
      24. 13. 5. 24. 15. 15. 36. 27. 24. 44. 32. 32. 49. 38. 29. 46. 37.
      29. 45. 38. 34. 50. 43. 35. 50. 46. 20. 40. 35. 15. 37. 32. 31.
      54. 46. 54. 78. 68. 69. 90. 81. 87. 109. 97. 121. 143. 131. 152.
      174. 162. 161. 185. 173. 167. 191. 181. 166. 183. 179. 67. 86. 83.
      33. 58. 54. 86. 118. 113. 152. 190. 184. 148. 190. 183. 148. 189.
      184. 143. 184. 179. 146. 186. 181. 148. 185. 181. 150. 185. 181.
      152. 185. 181. 152. 185. 181. 150. 185. 181. 148. 185. 181. 146.
      186. 181. 146. 186. 181. 145. 187. 180. 145. 186. 181. 145. 187.
      180. 145. 186. 181. 145. 187. 180. 145. 186. 181. 145. 187. 180.
      145. 186. 181. 145. 187. 180. 145. 186. 181. 145. 187. 180. 145.
      186. 181. 145. 187. 180. 145. 186. 181. 145. 187. 180. 145. 186.
      181. 145. 187. 180. 145. 186. 181. 145. 187. 180. 145. 186. 181.
      145. 187. 180. 145. 186. 181. 145. 187. 180. 71. 86. 78. 33. 48.
      40. 5. 18. 10. 0. 13. 5. 39. 55. 44. 66. 86. 74. 50. 76. 63. 57.
      85. 72. 76. 104. 91. 75. 99. 87. 23. 43. 31. 0. 13. 2. 0. 15. 4.
      43. 65. 53. 88. 116. 103. 68. 98. 87. 49. 76. 67. 22. 48. 42. 28.
      56. 50. 68. 96. 90. 86. 117. 110. 81. 112. 105. 73. 106. 99. 84.
      118. 108. 92. 123. 114. 88. 120. 109. 94. 126. 115. 85. 117. 106.
      74. 106. 95. 78. 112. 101. 95. 129. 119. 101. 136. 126. 101. 136.
      126. 88. 123. 113. 86. 122. 110. 78. 116. 104. 81. 120. 105. 89.
      128. 112. 108. 147. 131. 107. 147. 129. 89. 128. 107. 86. 125.
      104. 108. 145. 125. 113. 150. 130. 104. 138. 121. 101. 133. 116.
      100. 132. 115. 89. 118. 103. 88. 114. 100. 95. 121. 107. 85. 114.
      99. 73. 102. 87. 71. 97. 81. 63. 89. 73. 54. 80. 64. 63. 89. 73.
      56. 83. 67. 38. 64. 48. 31. 49. 36. 38. 55. 42. 29. 43. 32. 19.
      35. 24. 11. 33. 21. 8. 30. 18. 17. 35. 22. 21. 38. 25. 19. 35. 24.
      17. 31. 20. 13. 26. 18. 15. 30. 22. 15. 32. 23. 4. 23. 14. 11. 33.
      21. 20. 40. 28. 23. 41. 28. 32. 49. 36. 42. 59. 46. 48. 66. 53.
      45. 65. 52. 51. 71. 59. 72. 88. 81. 54. 72. 65. 40. 63. 55. 43.
      70. 61. 50. 81. 74. 47. 80. 73. 49. 82. 75. 48. 81. 74. 51. 82.
      75. 51. 82. 75. 53. 81. 75. 53. 81. 75. 55. 81. 75. 53. 81. 75.
      51. 82. 75. 49. 82. 75. 49. 82. 75. 49. 82. 75. 49. 82. 75. 49.
      82. 75. 49. 82. 75. 49. 82. 75. 49. 82. 75. 49. 82. 75. 49. 82.
      75. 49. 82. 75. 49. 82. 75. 49. 82. 75. 49. 82. 75. 49. 82. 75.
      49. 82. 75. 49. 82. 75. 49. 82. 75. 49. 82. 75. 49. 82. 75. 49.
      82. 75. 49. 82. 75. 49. 82. 75. 49. 82. 75. 49. 82. 75. 73. 94.
      86. 51. 69. 62. 14. 29. 21. 0. 13. 5. 17. 32. 24. 61. 80. 71. 65.
      91. 78. 61. 89. 76. 73. 101. 88. 68. 94. 81. 38. 58. 46. 2. 19. 8.
      0. 11. 2. 18. 39. 30. 86. 111. 101. 76. 103. 93. 52. 79. 69. 32.
      59. 50. 27. 56. 47. 58. 86. 80. 78. 109. 102. 81. 111. 106. 73.
      105. 100. 77. 110. 103. 80. 113. 106. 74. 108. 98. 78. 112. 102.
      89. 123. 113. 80. 114. 104. 77. 112. 102. 92. 126. 119. 102. 136.
      129. 102. 137. 127. 96. 131. 121. 97. 133. 121. 89. 125. 113. 89.
      128. 113. 86. 125. 109. 93. 132. 116. 93. 133. 115. 86. 126. 108.
      95. 135. 117. 107. 145. 127. 107. 143. 126. 106. 142. 126. 105.
      138. 123. 106. 139. 124. 112. 143. 128. 118. 149. 134. 131. 160.
      145. 120. 151. 136. 113. 144. 129. 122. 154. 137. 121. 153. 136.
      102. 134. 115. 106. 138. 119. 113. 148. 128. 100. 135. 115. 67.
      94. 78. 34. 57. 42. 17. 35. 22. 29. 47. 34. 38. 63. 49. 38. 63.
      49. 47. 68. 53. 46. 65. 50. 32. 49. 35. 25. 42. 29. 28. 44. 33.
      21. 37. 26. 11. 29. 16. 6. 26. 13. 9. 30. 15. 15. 34. 19. 15. 32.
      18. 14. 29. 15. 11. 24. 10. 16. 31. 17. 13. 30. 16. 7. 25. 12. 17.
      33. 22. 30. 47. 38. 23. 42. 33. 17. 38. 29. 15. 39. 29. 20. 44.
      34. 18. 42. 32. 17. 41. 31. 17. 41. 31. 17. 41. 31. 17. 41. 31.
      17. 41. 31. 19. 40. 32. 17. 40. 32. 17. 40. 32. 16. 40. 32. 17.
      41. 31. 17. 41. 31. 17. 41. 31. 17. 41. 31. 17. 41. 31. 17. 41.
      31. 17. 41. 31. 17. 41. 31. 17. 41. 31. 17. 41. 31. 17. 41. 31.
      17. 41. 31. 17. 41. 31. 17. 41. 31. 17. 41. 31. 17. 41. 31. 17.
      41. 31. 17. 41. 31. 17. 41. 31. 17. 41. 31. 17. 41. 31. 17. 41.
      31. 17. 41. 31. 17. 41. 31. 59. 83. 75. 55. 78. 70. 32. 49. 40. 0.
      12. 4. 2. 17. 9. 49. 68. 59. 85. 111. 98. 68. 98. 85. 67. 97. 84.
      65. 93. 80. 42. 64. 52. 10. 27. 16. 0. 16. 7. 5. 24. 15. 64. 88.
      78. 97. 122. 112. 63. 88. 78. 46. 71. 61. 24. 51. 42. 43. 72. 63.
      67. 94. 90. 75. 105. 100. 74. 104. 99. 75. 107. 102. 84. 116. 111.
      83. 116. 109. 81. 114. 107. 92. 126. 116. 85. 120. 110. 84. 119.
      109. 92. 129. 121. 98. 135. 127. 102. 137. 127. 95. 130. 120. 96.
      132. 120. 93. 131. 119. 97. 136. 121. 88. 129. 114. 88. 127. 111.
      90. 132. 114. 95. 135. 117. 103. 142. 126. 110. 149. 133. 109.
      146. 130. 110. 146. 132. 109. 144. 130. 110. 144. 133. 112. 145.
      131. 103. 136. 122. 111. 144. 129. 118. 149. 134. 128. 161. 146.
      143. 179. 162. 154. 190. 173. 134. 173. 152. 126. 167. 146. 138.
      181. 160. 140. 183. 162. 118. 155. 135. 32. 61. 45. 7. 28. 13. 18.
      39. 24. 68. 94. 80. 102. 134. 117. 100. 130. 111. 92. 120. 101.
      82. 108. 90. 86. 109. 94. 98. 121. 106. 80. 106. 90. 55. 82. 66.
      46. 74. 55. 50. 78. 59. 41. 68. 48. 35. 57. 38. 26. 45. 26. 14.
      32. 15. 21. 39. 22. 19. 40. 25. 5. 26. 11. 5. 23. 10. 17. 34. 23.
      17. 34. 23. 14. 34. 22. 18. 38. 26. 15. 35. 23. 14. 34. 22. 17.
      37. 25. 16. 36. 24. 16. 36. 24. 16. 36. 24. 16. 36. 24. 16. 36.
      24. 14. 35. 26. 14. 35. 26. 14. 36. 24. 16. 36. 24. 16. 36. 24.
      18. 35. 24. 16. 36. 24. 18. 35. 24. 16. 36. 24. 18. 35. 24. 16.
      36. 24. 18. 35. 24. 16. 36. 24. 18. 35. 24. 16. 36. 24. 18. 35.
      24. 16. 36. 24. 18. 35. 24. 16. 36. 24. 18. 35. 24. 16. 36. 24.
      18. 35. 24. 16. 36. 24. 18. 35. 24. 16. 36. 24. 18. 35. 24. 16.
      36. 24. 51. 80. 71. 49. 73. 65. 41. 59. 52. 6. 20. 14. 0. 15. 7.
      22. 41. 32. 80. 106. 93. 82. 112. 99. 64. 94. 81. 65. 93. 80. 51.
      73. 61. 21. 38. 27. 0. 16. 7. 0. 14. 5. 38. 59. 50. 100. 124. 114.
      71. 95. 83. 57. 82. 72. 20. 47. 38. 36. 65. 56. 63. 90. 86. 73.
      103. 98. 75. 104. 101. 73. 103. 98. 79. 111. 106. 87. 119. 114.
      89. 121. 116. 85. 118. 111. 81. 115. 108. 88. 122. 115. 94. 130.
      124. 94. 131. 123. 89. 126. 116. 82. 119. 109. 87. 124. 114. 91.
      131. 119. 96. 137. 122. 91. 134. 119. 90. 132. 115. 93. 137. 120.
      93. 135. 118. 96. 137. 122. 106. 147. 132. 111. 152. 137. 115.
      153. 141. 122. 158. 146. 125. 160. 150. 112. 147. 137. 99. 134.
      120. 102. 137. 123. 113. 146. 132. 126. 162. 146. 135. 175. 157.
      149. 191. 173. 138. 184. 162. 135. 182. 160. 136. 186. 162. 132.
      182. 158. 145. 189. 166. 61. 98. 78. 4. 28. 10. 0. 22. 4. 57. 86.
      70. 137. 176. 155. 143. 186. 165. 126. 172. 149. 141. 183. 160.
      158. 197. 176. 164. 203. 182. 155. 194. 173. 150. 191. 170. 152.
      196. 173. 150. 192. 169. 147. 187. 162. 125. 159. 135. 76. 108.
      84. 56. 84. 64. 75. 103. 83. 77. 107. 88. 45. 74. 58. 33. 58. 44.
      38. 61. 47. 31. 54. 40. 24. 44. 31. 27. 47. 34. 26. 44. 31. 28.
      46. 33. 30. 48. 35. 26. 46. 33. 26. 46. 33. 24. 47. 33. 24. 47.
      33. 24. 47. 33. 22. 46. 34. 22. 46. 34. 22. 46. 34. 24. 46. 34.
      24. 47. 33. 26. 46. 33. 24. 47. 33. 26. 46. 33. 24. 47. 33. 26.
      46. 33. 24. 47. 33. 26. 46. 33. 24. 47. 33. 26. 46. 33. 24. 47.
      33. 26. 46. 33. 24. 47. 33. 26. 46. 33. 24. 47. 33. 26. 46. 33.
      24. 47. 33. 26. 46. 33. 24. 47. 33. 26. 46. 33. 24. 47. 33. 26.
      46. 33. 24. 47. 33. 51. 80. 71. 51. 78. 69. 47. 68. 60. 17. 33.
      26. 0. 11. 3. 11. 28. 19. 64. 88. 76. 79. 107. 94. 62. 92. 79. 57.
      87. 74. 70. 94. 82. 46. 66. 54. 3. 18. 10. 0. 13. 4. 25. 44. 35.
      77. 101. 91. 72. 98. 85. 66. 92. 79. 22. 47. 37. 26. 53. 44. 52.
      80. 74. 73. 100. 96. 77. 107. 102. 71. 101. 96. 81. 111. 106. 89.
      121. 116. 97. 131. 125. 88. 122. 116. 91. 125. 118. 96. 133. 125.
      98. 134. 128. 97. 134. 126. 94. 131. 121. 88. 125. 115. 90. 130.
      119. 91. 131. 120. 88. 130. 119. 90. 133. 120. 89. 132. 119. 92.
      135. 122. 91. 133. 122. 97. 139. 128. 103. 145. 134. 106. 146.
      135. 114. 153. 145. 121. 160. 152. 126. 165. 157. 122. 159. 151.
      123. 161. 149. 119. 157. 145. 118. 154. 142. 119. 157. 145. 116.
      159. 144. 127. 172. 155. 122. 171. 151. 131. 183. 160. 130. 186.
      163. 109. 166. 141. 144. 194. 170. 116. 158. 135. 10. 36. 18. 0.
      22. 4. 29. 58. 42. 142. 181. 160. 145. 193. 169. 135. 187. 163.
      156. 204. 180. 158. 205. 183. 155. 202. 180. 158. 205. 183. 164.
      213. 191. 171. 221. 197. 169. 217. 191. 168. 215. 189. 169. 214.
      187. 156. 197. 170. 151. 187. 163. 159. 195. 173. 167. 204. 184.
      161. 196. 176. 149. 178. 162. 129. 155. 139. 78. 104. 88. 41. 64.
      49. 30. 51. 36. 34. 54. 41. 36. 56. 43. 33. 53. 40. 34. 54. 41.
      34. 54. 41. 32. 55. 41. 32. 55. 41. 32. 55. 41. 30. 55. 41. 30.
      55. 41. 30. 55. 41. 32. 55. 41. 32. 55. 41. 32. 55. 41. 32. 55.
      41. 32. 55. 41. 32. 55. 41. 32. 55. 41. 32. 55. 41. 32. 55. 41.
      32. 55. 41. 32. 55. 41. 32. 55. 41. 32. 55. 41. 32. 55. 41. 32.
      55. 41. 32. 55. 41. 32. 55. 41. 32. 55. 41. 32. 55. 41. 32. 55.
      41. 32. 55. 41. 32. 55. 41. 32. 55. 41. 32. 55. 41. 56. 83. 74.
      60. 87. 78. 69. 92. 84. 29. 47. 40. 2. 16. 10. 9. 24. 16. 45. 65.
      53. 82. 106. 94. 65. 96. 81. 62. 93. 78. 77. 103. 90. 53. 73. 61.
      14. 29. 21. 0. 15. 7. 9. 27. 20. 62. 85. 77. 73. 103. 92. 69. 99.
      86. 33. 57. 47. 17. 40. 32. 45. 74. 65. 71. 102. 95. 89. 117. 111.
      79. 106. 102. 79. 106. 102. 86. 116. 111. 94. 130. 124. 90. 128.
      122. 94. 130. 124. 94. 130. 124. 97. 134. 126. 98. 135. 127. 97.
      134. 124. 98. 135. 125. 100. 139. 131. 100. 139. 131. 95. 136.
      129. 94. 135. 128. 82. 123. 116. 89. 130. 123. 100. 137. 133. 97.
      134. 130. 100. 137. 133. 108. 145. 141. 115. 152. 148. 111. 151.
      146. 128. 168. 163. 123. 164. 157. 141. 182. 174. 139. 182. 171.
      124. 165. 157. 121. 164. 155. 120. 165. 156. 126. 174. 162. 120.
      169. 155. 119. 171. 153. 128. 186. 162. 122. 180. 155. 146. 201.
      174. 163. 207. 184. 43. 71. 52. 0. 18. 3. 19. 44. 30. 121. 153.
      136. 140. 186. 163. 121. 172. 145. 156. 202. 180. 160. 205. 186.
      153. 201. 183. 153. 203. 185. 168. 217. 197. 164. 213. 191. 171.
      221. 197. 170. 221. 194. 172. 221. 193. 163. 211. 183. 153. 193.
      168. 157. 195. 173. 169. 208. 187. 174. 211. 191. 178. 211. 190.
      175. 204. 181. 155. 183. 163. 69. 96. 76. 28. 54. 36. 36. 59. 44.
      38. 61. 46. 37. 60. 45. 37. 60. 46. 37. 60. 46. 39. 59. 46. 37.
      60. 46. 37. 60. 46. 37. 60. 46. 37. 60. 46. 37. 60. 45. 37. 60.
      45. 37. 60. 45. 37. 60. 45. 37. 60. 45. 37. 60. 45. 37. 60. 45.
      37. 60. 45. 37. 60. 45. 37. 60. 45. 37. 60. 45. 37. 60. 45. 37.
      60. 45. 37. 60. 45. 37. 60. 45. 37. 60. 45. 37. 60. 45. 37. 60.
      45. 37. 60. 45. 37. 60. 45. 37. 60. 45. 37. 60. 45. 37. 60. 45.
      37. 60. 45. 37. 60. 45. 59. 86. 77. 62. 86. 78. 73. 96. 88. 43.
      64. 56. 10. 24. 18. 8. 22. 16. 35. 50. 42. 76. 96. 84. 70. 99. 84.
